{"num_layers": 3, "sizez": [784, 30, 10], "biases": [[[3.1210236516742427], [0.10745812097546027], [-0.1278583978435561], [1.516212678015227], [-0.4441391475962791], [-0.9818277582844444], [0.9406467414160239], [0.991853543748465], [-0.46572029966462786], [-0.19034890305239846], [0.036701474421274624], [0.20782339559160418], [1.7424335579398114], [1.5274505366390625], [-0.5579144207734658], [-0.8165374275936454], [0.6194287649180154], [-1.310290930761624], [1.152943108948746], [0.061204959824469066], [-1.0108767980890503], [-0.7051174941511088], [1.160739811517298], [0.45572601098234083], [-1.279291826614541], [-0.06280809467508325], [1.5833562106043269], [0.5630601947082339], [-0.6131014863208243], [0.27477173654894527]], [[1.9010984438422005], [1.7274614445242307], [-1.0745938636564338], [0.5378655426780055], [1.7031876136068944], [2.381385931781313], [1.7757522261935326], [1.4543450080799634], [2.7501969823381116], [0.8414554786509721]]], "weights": [[[0.5312447135243791, -0.6832594427834542, 1.868436103075288, 0.4207553077311431, 0.6542512378475612, 0.11259024622395447, 0.5969723274206467, -0.3866944125010909, 0.6181867066575342, -0.6910912087392048, 0.5123935444942882, -1.0334602748872064, -2.5262779280187133, -2.0533310512531906, 0.1087217240853712, 2.0153131333689513, 0.7466080353674859, 1.9864082118781663, -1.351187952436661, -0.4773055956812174, -1.3981471428325594, -1.1821864071240247, -1.3052910094773267, -0.8141582024130025, -0.9086511417560237, -0.09457956594040251, 0.267775883397962, 1.9512712286816898, 0.5146494735509648, 0.08283497578057923, 2.577368342092039, 0.08413797591546467, -1.6663016865735574, -1.0679212554316382, 0.6209902625225298, 0.7212586675085423, 0.5565801692000536, 1.3766876213121897, -0.1254083717870861, 0.37901172850615145, -1.4214244081595742, 1.370147730001936, -0.6777274122080297, -0.18960545788485977, 0.6997852291402069, -0.2967324146643179, -1.1299573043059337, -1.2163874376616943, -0.6791243391478285, -0.8147965283520084, 1.0116899138095798, 0.7085476675655483, -0.2709520077541711, -0.057487986384683165, -0.316415934197834, 1.4198519134275565, 0.8410380634277186, 0.5495915145848163, -0.8529394298919813, 1.028874017123358, -0.40374256311863876, -0.25958737622594774, -0.48794428608136375, -0.045344752013965046, -1.282369468104639, -0.5994529153370153, -0.11372471585937605, -0.06665752063781985, 0.34218080775396115, -0.23419225723829165, 0.9928056404110719, 2.1744588383486607, 1.1805471141580246, -0.45769480947126706, -0.2774931997986058, -1.5007050626675928, 1.8686873826980397, -0.4425708176834018, -1.0762805968701765, 0.2501947204664699, -0.573977966572386, 0.027660261718431382, 0.2796707480290961, 1.0323618635817342, 0.3318711489992556, 0.44096147400940605, -0.5382754521335129, 1.513786567637831, 1.5816525473284508, 0.831188546134179, 0.7101521463321065, 1.431560068787175, 0.5561875545485521, -0.1761908055326185, 1.717022056786416, 1.5461113338115808, -0.730302576627899, -0.8626067694111383, -0.09444753262104673, -0.9812708768363015, 1.7580445956307273, 1.7109671327221279, 0.03626225319287415, -0.20065926207209797, 0.2410425250494143, 0.9994571027974226, -1.0225849813763734, -0.49959873704662683, 0.0641041458896754, 0.882130848064786, -1.2277683861288664, -0.3658468375722654, 1.3666462955573953, 0.6026293055381743, -0.6281704099546146, -0.7822419104574124, 1.5231187265090547, 0.2775212511483491, -0.9864022966115273, 1.5507120160731982, -2.254226692876616, 1.8724284802948008, -1.2397454779262873, -1.1074719874656296, -0.08183928903856859, -0.893005134113792, 0.07043511465643787, 0.3131142562571571, 2.2306359739494352, -0.2582024918336143, 0.8537910821138569, -0.2041804004327872, 0.3824460644455648, -0.07317446144142764, 1.211460586119896, 0.0815990805872504, 1.1925880626241294, 1.265064455102155, -1.4591399029086825, 0.5933238473267032, -1.581190838285029, 0.2234033842675741, -1.3623711069913114, 0.9348963608716848, -0.12700322879110715, 0.7898396097588335, -0.9043160225531249, -0.12425575640194968, -0.4275630297955302, -0.06614985515131123, 1.6919888467991442, -3.7144000857840527, 0.8523234734472998, 2.663557722639177, -1.1542431542046308, 1.7793718651317778, 1.3108041449965555, -0.8173129630549937, 0.27822862944611937, 1.0825931200106709, 1.7849673643943846, 0.5707969694605036, -0.061630577246771706, 0.7316766829649484, 0.8784424396798574, 0.26471199128368544, -0.09664132156771954, 0.35156591491599065, -2.204881278438794, 2.8658455771616804, -1.4668501929784312, 1.4093482885346138, -0.40692680278691, -0.45411140502718184, -0.43451019996583373, -1.820918027862342, -0.1877230156196045, 1.3238906130626402, -0.43718664659268325, 0.8671892765459697, -0.03655600479372657, 0.9838732329900102, -0.7656738587468607, -1.6223011539351275, -0.49820899619652975, 0.4227523380351919, 0.9469920365769222, 0.2590381464963142, 0.039084953632667854, 0.3332199357396887, 0.7817451365599177, -0.9115181317554596, 0.7233680684734252, -0.8766120544382557, 0.17809120302765183, 0.3208949007888153, 2.2998278207824776, 1.0035997801441279, 0.7182368963566312, 0.5980389292060182, 0.49331069906211655, 0.05702487949177401, -0.3976426419468243, -0.4864628945014003, 1.1864060095551616, -1.1821078519524837, 2.9507022593283425, -0.2760678060574104, -0.04169685517416865, -0.19914599922508439, 1.1790887069949816, -0.6759480635535234, -0.04875835644808437, 0.6292251042452222, -0.3690206110413767, -1.1593163862475613, 1.3979713171776913, -0.4643604844594292, -0.3262058356080139, 0.7042418326126054, -0.014851643753938814, -1.1705179139218855, -1.3013796385206893, 0.54564651054734, -0.6538046171787447, 0.957022056590088, 0.13797986092068062, -0.38913982701480415, -0.610183558553543, 1.0980439423561406, -0.9412406821304667, -0.9938405084810398, -2.0564926634457854, -0.4084980087977753, 0.6964329529521595, 0.21650266863653367, -1.5553599621090834, 1.1697067267915067, -0.3871307165500713, 1.2680483108435794, -0.6393755375506137, -0.8745505242805316, 0.8236932795016781, -0.8501569015817195, -0.5468472575959736, -0.10031159249231228, -0.8515852342788336, -1.3368076229720038, 0.32820841738237816, -3.1303334360966297, 0.5883378445599939, -1.2123108847350512, -1.9170203899989566, -1.1843849624400817, -0.5774569834127857, -0.16160240383457794, 0.09360089251202283, -0.3679498846759164, 1.1856228728647333, -2.135687553628956, -0.9612604058727316, 0.33067242712786227, -0.27487226014503224, -1.5852796203721446, -1.3159430592242267, 2.4160931745978798, 0.48487752636028986, -1.1903686165551408, -0.07053100691200975, -0.43834467846989056, -1.2690937439327015, -0.7378092994694849, 0.8457779600446005, 0.5883665758146571, 1.5312760131569656, 2.573564513779701, 1.2576523599360354, -0.23183902893319933, -0.6903933510237836, -1.0019651491337076, -1.9850872736094185, -1.0258044190639972, 0.7970881964320449, 0.22253572719538378, -0.44207186981053764, -3.350214452405512, -1.0393810941032515, 1.771805076981949, 0.5405011489435138, -0.6846335037258536, 1.1902111435302667, 1.908876053533222, -0.4269327490361977, 1.1086692385404957, -0.3496685364071043, 0.41216132778249065, 0.677946605346821, 0.5770576302395657, -0.6702231829457502, 0.05720250775145731, -1.3460243519143804, -0.03067384320569137, 1.289999875898626, -0.5532942911329547, -0.18259992402736205, -1.2498031478309732, -0.024572665002655206, 0.12405390206524583, -0.8820556335429205, 0.4748198771060388, 1.1565268583834876, -0.428002232825622, -0.46857742950640896, 0.13810060717228076, 0.40979027989479366, -0.3089010834414342, -1.6117936869171414, -0.8080105365753276, 1.741584010777736, -0.5446794706354727, -0.893992981533672, -0.32721409841871896, 0.8812372787042512, -0.09154789627599313, 0.30474652446971107, -0.0632375450713249, -0.8856707960048158, -0.7819973116784618, -0.5491188587303677, -1.337723058458535, 0.3207025281753513, -0.17179186883074285, 2.3040526993643238, -2.7407071991218954, 0.12134925658914066, 0.22344232906142922, -0.4587286801635519, 0.17482761995511362, -0.4944412560113431, -1.920356387899883, -1.7319963025176506, 1.2668802282777352, -0.3410456279421797, 0.40455685098276856, -0.30445236023565586, -0.8617539803156838, -1.0512637551267507, 0.745911803165758, -0.8543912883147317, -0.9628591418170623, -1.7117966080443996, -1.8259172285318663, 0.018695372990711126, -1.326616807853342, 0.3821677456933229, 0.058262045707711936, -0.7010446198413911, -0.9579399071005571, 0.3796173828447972, 2.681003893537602, -0.33886720980833634, -0.04877761095698644, -0.34375394988005326, 0.7598884292229331, -0.6298790354068206, -0.30884866184001764, 0.8753890403380701, 1.3849328534651895, 1.2022290808117067, 1.3621746235832362, -0.42611270124717965, 0.37086165904335583, -0.010530233512451418, -0.10422490613223431, -0.47186274584616517, 0.7159515274936201, 1.1485851591803362, -0.19334577317460008, 1.2449713613758076, 1.4028288198318883, 0.7274802124791231, 0.3260809736475162, -0.8053486123154627, -0.3696818223608021, -0.48301548305086267, -0.7568732728988412, -0.5734103246370315, -0.9112832351752589, -0.45434863857262114, -0.9075857112619126, -1.310776052286501, 1.7033243771007867, 0.05267540175108239, 1.0054224208195732, 1.2945672819580765, 1.2387574221463222, -0.8102894084447689, -0.8836932144946691, -0.2910489602520154, 0.8891497619414519, -0.5219467798504829, 1.242284471440919, -1.3556636034495992, -1.6790845299291797, -0.5830556149010304, 1.7227864129297978, 0.48344192138838543, -2.5160588794784666, 1.3611014601208953, -0.6489063908395396, 0.41365839672433347, -0.747298099806759, -0.757229037104041, -0.6031277947598497, 0.41337672210477644, -0.46751999633961866, -0.5331404098291956, -0.19546473629890013, -0.6008363460349504, 0.04732504248225582, -1.994178881906871, 0.5863385710324551, 2.036716199757075, -0.6743459173144271, -0.49512352502658985, -1.1533928658687895, -0.023389560417971834, 1.463433586713924, -0.31905828263949476, -0.1904114787395813, -0.9688742072618659, 0.41268458211469294, 0.221198064960392, 0.4349582731908442, 0.20722404553496712, 0.7013680348021394, 1.1045199044757195, 0.4617195443264474, -1.6464907423190014, 1.4728456410144175, -2.1627729820228616, 1.166092088154311, 0.4590593022066966, -2.8887522188332984, 0.6857519483055825, -0.9216208975776126, 0.005481431891859816, -0.003090939821322767, 0.8751810742211982, 1.9806845724901285, -0.5512033895020532, -0.5315258544135175, -1.5820488139067799, -0.21841855836083235, 0.49959921852594563, 1.0684337065801495, 1.5147368452343712, -0.835856169629316, -0.4945043413967633, 0.02079658759986918, 0.1765818368065747, 0.5337176266476535, -0.28822102695487795, 1.2369048089933543, -0.0659685517183128, 0.1892883840396241, 0.6490558252434447, -0.8181786463163232, 1.0557060527221902, 0.10679057203273229, -0.03747577874816683, 0.1757833068290619, -0.8443887670207694, -0.7827489779308375, -0.0025271435470583855, 1.6359890639338823, 1.8586280180061154, 2.4024538990975333, 0.30571382742619063, 0.48555629094207703, 1.3129809542608988, 0.4820929015260883, -0.532181630087464, -0.6418321595633305, -1.110653230046253, -1.437174758694983, -0.06571752460337349, 1.0669865077795881, 0.6255513825130882, 1.4109880397819314, 0.1542725345744753, -0.0773530426948924, -0.43520214514733757, -3.1787539079165503, -0.2816466609990635, -0.6589572385816581, 2.2966971904293523, 0.8608979846350105, 0.35263522058419056, 1.4089779953561536, 1.3252720923418755, -0.09628494765778459, 0.5784945646907121, -0.724545897300426, 0.9791902057555565, 2.124621750937149, -1.0925698503300343, -2.6803026800422294, -1.76271959905082, 0.5265195754754648, 0.6812644944192094, 0.08940195920096662, 0.445621017167891, -1.6269745991183795, 0.6846237375085588, 0.3984907234034919, 0.8542656613596048, -0.048337219450602265, -1.2802699422598705, -1.2876563153938665, -0.6120043775176737, -1.1208935148419297, 1.2120231017281589, -1.5046338658242824, -1.7359867778458689, 0.9543328476087444, -0.6713560436670245, 0.3564367986749586, 0.31942963257821066, 0.027003938068618435, -1.3491306468849642, 1.3775807084260523, -0.9121400407693101, -1.0174009987207322, -0.17256582122863331, -0.3323246449840368, -1.552655915450321, 0.6488364244802964, -0.8540972041497649, -0.9561748230409359, 0.4195168659934413, -0.9847761918483138, 1.1316453443633983, 0.6457531902408401, 0.3087877011276077, -0.11931712294322663, -0.6590201458928173, 1.062115154038243, -1.0485655452527745, -0.5246993477881724, 0.5433995849336238, 1.8889188144972864, 0.7680041964400544, 0.1699855597011161, -1.4665931539373376, -0.41672916031116103, -0.4144900548479618, 0.003419033738359357, -1.3526238342689165, 0.7077847934240505, -0.655674004733865, -0.08763205986812703, 0.4472991527645236, 0.023444506710475252, -0.1159590984494056, -1.0736782966954959, 0.6936623569165363, -0.5915540629710091, 1.3148192360905901, -1.0358666303622774, 0.6385741912441995, -2.0046851781883137, 0.931022833210354, 0.8326352166268386, 2.0085041139335464, -0.96092703352122, 0.144666392981468, -0.23631833701008373, -2.9891499357612523, 0.24878664891239954, -0.9520222247483209, 0.032833187417868066, 0.869075192053099, -0.41120328429350345, -0.926782409890734, -2.1382708406128166, -0.17816009631013335, 0.7333528518991199, -1.4384850898350092, -1.125203761794215, 0.7128608808389784, -1.5512056743763611, -0.6804372095190454, -0.8354678170165707, -0.33121846261351007, -0.09619616602613197, 0.5445989824694724, 1.5669043761429728, 0.8085842197858573, 0.14437663348619556, -0.8946155069495563, 0.16125387859861065, -0.14432143741743084, 0.5652531466835171, 0.356908169564251, 0.7556479551068725, -0.7366727673947151, -0.41707287307594254, -0.6839865758904151, -0.49447313485672084, 0.8657864513341117, 0.5597154236048978, -0.2752331254864328, -0.4492359809071922, 0.16058158580579782, -0.6713236943672714, 1.4949019378021382, -0.4945313239521329, 2.1543712741804733, -2.0479551537726057, -0.5216754653701389, -0.9212206532677613, -1.0665102051619844, 0.9775827964959419, -0.2168425739770119, -0.09573126609628607, 2.2993287005941907, -0.16457354323151402, 0.15206910068774843, -0.10855484856730846, -0.8435306433012423, 0.38391067603473866, -1.2915509847162008, 0.8159935185589666, 0.9101787884608679, -0.5732170456293392, 0.24684807538847223, -0.14588309374107594, 0.15349415811487357, -0.3740102771024681, 0.17485751023206955, -0.8353811565553678, 0.7744810618189297, 0.6685569885995851, 0.4748345157746157, 0.34459863611380365, -2.200875455295052, 0.3276304690997516, 1.4839690495188704, -1.372161585566008, -1.4541587732163523, -0.7654524285738359, 2.1327336554784666, -0.9621699578288818, 0.2977755995962821, -0.7476505844273635, 0.8405834171094421, 0.6527101903029235, -1.7831182081208412, -0.3751436320591126, 0.7846265889621067, 0.31699288022059663, -0.5142677914689129, -0.44170401771141654, -1.0611954533359031, 0.3013582804404987, 0.5209788713974015, -0.6371461245966392, -0.14862536676133142, -0.8740025079099248, -0.04881202604092631, 0.7659128792246351, -0.041150894939265846, -0.6061966781416818, -0.7312503385672915, 0.2577170757646287, 0.5517971582182418, -0.4887940915765454, -1.1578462429906249, 0.8451499163660015, 0.6559852120842946, -1.350226110552426, 0.46043162433938295, 0.5909544388059569, -0.05748334388511792, 0.9639741512987356, 0.855807910393929, 0.31032369451409203, 0.2366342320596736, -0.3596174955788413, -1.4039657903715177, 0.7951767200047701, 0.2244325282869853, 1.1859723385321148, -1.029384760622813, 0.3612347414046632, 1.6476342984499868, -0.8318435957880074, 1.2675761813951114, -2.0685679572691185, 0.2698783591887367, -2.3336334788629145, -0.45175637977904365, 0.042723367721743497, -0.8010278346172527, -2.3001482901725, 1.5861460111369463, -0.8382100024456024, 0.5528804592794729, 0.08338890165104051, 0.33255399607377895, 0.8783873723193524, -0.30076111258324834, 0.8966317940011853, 1.6429428541597324, 0.2884845846362113, -0.23474262891238618, 0.0299811189965174, 1.3674446883332556, 0.36053039435771556, -0.7140269337231264, -0.9741216893450407, -2.6355739889276464, -0.7163644601245011, -0.8360344929565178, 0.5677403988379937, 0.5226080406038177, -2.3795936184569237, -1.1596841911771203, -0.00212998855389857, 0.3302620749208529, 1.9789185022456321, -1.2389283724365248, 0.38955740510259584, 0.7686822871780646, 1.152810194511121, 3.4663571447425885, 0.13260722690445226, -1.4845229858835973, -0.06731804326294334, 0.7740558410219867, -0.34977522710728975, 0.40872796691469215, -0.9404378872390232, -0.22683291371340727, -0.865624363268853, -1.423729567936995, -0.650902385701258, 0.44173651727401303, 1.2762777850892038, -1.1833081914602703, 0.9952167115117289, -0.08742370440907382, 1.2644437559157413, -1.8467760922287455, 0.4318247512964313, -0.8007565542138743, 0.4182766795430425, 1.4354219392188423, 0.49205948453687015, 1.6835672149731273, -0.5252253546797693, -0.2485510342142981, -0.8409373623908787, -0.2590356039721746, -0.5850502955531178, 0.2457431490992834, 0.9635040171717478, 0.9570432688842263, -0.1937357206170372, 0.8725035560676547, 1.354651572941583, 0.3190337549324076, -1.1703335577530625, 0.24222225683912937, 0.7431918038633148, 0.6866906204909026, 0.7738651413217844, 2.102139353005314, 0.31659414096969274, 0.06577545035967157, 0.4439832728733223, 0.49363751388776805, -1.8840581195438029], [-1.1578223765259306, -1.9324598858175688, -0.09814386258097302, -1.3603882035948263, 0.3956119179635287, -1.7022140853756142, 0.7823991246815784, 1.0550775217863346, 0.3921670800746836, -2.4674808110561965, -1.5386386883164276, -0.49379982372021847, -1.2004570763737765, 1.4121198469929654, -1.2376529476663458, -0.48334100352218984, -1.0929205755775078, 0.11004946476743287, -0.20064064252299865, -0.4095104445854589, 0.6146648289830284, 0.1426454547123549, -0.47467802719972524, 0.25370278711590527, -1.1317832942519745, 0.3640312615973376, 1.778385354483806, -0.19048594947732894, 0.19441450566612686, -0.6361716714957453, -0.9717476941141728, 1.330967841940651, -0.285461547851594, -0.13255559708274794, -0.3905369995089949, -2.0398619145887813, -0.7310533464699247, 0.03428332555627245, -1.16726835947415, 1.6582963034688756, 0.3796521250346077, 1.4376484575496684, -0.07710607347826927, -1.4752152495925541, -0.6856059336590192, 0.6330495345409918, 0.32380668301266335, -0.7876788278012565, -1.0901494669011955, -1.3465137475585625, 1.1227287195261084, -0.6134013824901058, -0.9559622940397177, -0.5138343449206374, -0.2667984511649258, 1.3785052085505516, 1.0732924619367326, 0.9417006035943488, 0.9248428741523923, 1.0651600741812441, 0.4101778830980225, -1.3274817190178112, -0.6036069655546333, -1.0372315685472275, -0.565042323222783, 1.8084457313752977, 0.331304886689135, 0.03719177166242561, 0.8754005959827822, -0.2969254351124785, -1.151572340053168, 0.18345804665805995, -1.6371566012655456, -0.9679777553216012, -1.9851666381710253, -1.0483213586750464, -0.681596351414928, -0.27767583869241136, -0.6197828165197247, -0.23088308079918637, -1.425338585347073, 1.0058636519367332, -0.4887668400799605, -1.47451776122633, 1.1120915770654163, -0.8011565726849532, -0.6920948448607354, 1.0366627313478276, -0.6651657552115964, 0.6195090637548467, 0.390892351128558, 1.0552686036865742, 0.32266699741553023, 0.9496979087052269, -1.587416999631917, 1.0567320480552507, -1.8204766294490449, -0.26056988685017585, 0.48764294099478483, -0.4235396854709518, -0.7556576875529283, 1.010425662200596, 1.4821686487139865, 1.101813707270294, -0.05520426495985951, -0.1067535723051411, 2.1490161606195377, 1.1808854816590102, -0.3243576864111812, -0.09259588306641396, -0.4646535766154334, 2.150762062536245, 0.3024638994291904, -2.3366003007479157, -0.7757425621402979, -2.4261607227776762, -1.0144136485859991, 0.09240915236620559, 0.08681838990124825, -0.4157808794473519, -0.5766426750275899, -1.3357926799465571, 1.2575085069178489, -1.771280713762735, 0.6918193352165253, 0.22825511272692323, 1.7205852348726574, -1.6327102134219793, -0.13637514081101648, 1.8853470303343087, -0.7812867892054349, 0.2994002479837375, 0.3730073832819886, -0.5092979282248862, -0.10431164172262275, -0.642390809510055, -0.42960064594172975, 1.0534328238940867, 1.053820123044302, 1.0812364506159233, -0.004538182415956792, 0.9649955411450483, -0.5900806995426563, 0.6293572597677951, -0.7531643454013528, 0.5924570757756128, 1.4710373291473242, 0.8347460719977584, -0.5844921576848834, 1.0627621652164307, -0.3819186116935254, -0.9193479765675965, -0.9870438710121701, 0.7059152102492602, -0.5086617964429087, -0.4233291269738483, 0.11567989757327082, 0.5622115541352898, -0.29602456485998574, 1.5284498578326038, 0.3405162800476462, 1.4576823637763692, -0.29843870838072, 0.34218721082291065, 1.8316845816918836, 1.2293229345717864, -0.8788459462668745, -0.993060609377939, 1.1364164163938086, 0.9845457688611764, 1.3667923409788154, 0.4322487207655009, -0.6270834493758668, -0.1471944650879094, -0.7476045732943405, 1.5441862027083786, -0.7365447889809698, 0.5794726217920582, -0.6108636075775038, 0.696215712833617, 0.4876263894926284, 1.3475622095496715, 0.7182654036202264, 0.49714524372565483, -0.6279130074824547, 0.6394757845578095, 1.9429315046927917, 0.818738678781988, -2.286936197287771, 0.5982488579241854, -0.06561715897580335, 0.8557565970320123, 1.3211210407989336, 0.45099101546237197, 0.6993416717148262, -0.3710415935818998, 0.4283577512390139, -2.1273621375171325, -0.5462589710510105, -0.17405709372512926, -2.536208943394726, -0.9870401546114058, 0.5568936008673815, -0.9886395959952032, -0.01600934098694147, 1.7073446107594814, 2.218087725459184, 0.9551720214640834, -1.2498374495375526, 0.1268043626188998, -0.30145361008719185, 0.5906181417463039, -0.7335173304085817, 0.680524952023067, -1.2993385988450648, 1.0165130977748753, 0.11633371213683955, -1.8989798527154285, 0.4280568310458517, -0.23762292902146437, 1.9874345117791157, 1.211989599162303, 1.0412775738034736, -0.079929274551291, 0.22898341484720908, 0.35229476268101767, -0.4862653015431908, -0.5167884743423923, -0.9474188082092023, -0.9681129397013457, 0.1595809620951583, 0.08533140965489788, -0.31782202326696285, 0.17680778520155663, 2.024837696214258, -0.3297158019800645, 0.10000825367543943, -1.2773520956806121, 0.6262760041426066, -0.05706974708025298, 0.8427637236222519, -0.9344937373429808, -0.45028196938080406, -1.6514320812479897, -0.12643889730395136, 0.7982834217741509, -0.06624411590402748, -0.9991429397160727, -1.7740810004696668, -0.6947975935214693, 0.42782659105455245, 0.5587544766710644, -0.41741484840529547, 0.08658508669615597, 2.222609286730315, 0.9823772889727962, 0.45703696795281634, 1.6622140478889316, 1.9267217671015162, -0.6730483634203526, -1.623589596420023, -0.15580350083907318, 2.2953040352199365, 1.2139402461030875, -1.765578640153072, 1.166630443736071, 0.030981467903299403, 0.3030296309508268, 0.676960228355121, -0.2740717624302913, 0.6156641827535905, -1.1955716807320107, 0.3627375973955151, 0.8521571965554843, 0.19490385443089972, -2.3848121029599714, -2.148914713748623, -1.23304923815663, -0.7359114087790218, 1.2624754001906473, -1.6500071681219481, -1.1306088756581172, -0.7398761533908607, 1.1774114746791977, -0.31759299368378613, 1.5916744255652373, 0.44814561504316835, 0.12938800182689744, -0.11743915050885341, -1.809107618838891, -0.13586638513071067, -0.5436174471291293, 0.874740879378252, -1.17591581339081, 1.0918711128069372, 0.4308945502328014, -0.20286957008797335, 0.5565606332901564, 0.9108660559389263, 1.2486852557705344, -0.1335405053565169, -0.7436274199891557, 0.7745284198803563, -0.2215998537791216, 1.2315147940423, 0.24544046388739646, 1.004212662734415, 1.8285450782849586, -0.1509959730571514, 0.9992752434883935, 1.3667758496146856, -1.5756829780954433, 1.8235613357979863, -0.42844442578186603, -0.04918523472861495, -0.6890717344890039, 0.31078327911230175, 1.5991801483412136, -0.21208529701244855, -0.19842978672739878, -0.39707283621167366, 0.9195658206915451, 0.4642244195764185, -1.0555856286725973, -1.0251248638755788, -0.2599065541343319, -1.1847116687259147, 0.2039140678529136, 1.1693258900292285, -0.42525203942357626, 1.0041294571429669, 2.2320546034879416, -1.0042728574251938, -0.2673181028254584, -2.204103694611474, 0.24245901756506935, -0.5674039582200123, -0.6722036016315713, 0.9183744105340169, 0.5280224576636675, 0.47825314298351435, -0.7594326778620312, 1.651617249233759, 0.03153118516318462, -2.6733423648772185, -0.8959864677143965, -0.14281803921008873, -0.44409142399346396, 0.7352640806154723, 0.16843874300459458, 1.4546501800488694, 0.419230731100414, 1.2514521420857692, 0.5086264300543973, 1.6916072902039, 0.494970990883849, -2.4143627564977805, 0.4253277014616968, 0.7258385627696006, -0.39205838285614214, 0.14875370367348487, 0.11165193473227286, -0.9727246002402635, 0.46570130373681545, -1.3823062661556704, 0.18986143966688562, 1.49243721573172, -1.353627138546847, 1.406313044345889, -0.6224065916009742, 2.199555533941203, 0.5793617313474757, 0.16857574507162748, -0.46436714438249516, -1.6673390483498127, 0.19472222814131535, -0.6563294497786737, 0.2926021383511611, -0.3320046130117079, 0.6216956876678936, -1.0120876724508474, -0.7853876793354752, -1.8899634750531886, 0.014430262159629514, -0.2777134037639596, -1.9913292099324778, 0.35741010452789534, 0.4966021560526935, 1.1705358364166525, -0.1753500289839431, 0.6913354213665927, 1.039737471599465, -1.7056241939254821, 0.958555064793419, -0.716094983351391, -0.08258340223622039, 1.8797570066739042, -0.5097978939342462, -0.1257743472877313, 0.21572553637778963, 1.4794085748947743, -1.9197486931298167, 0.26201206367562874, -0.7497186403186714, -0.4241404114723454, 0.5452146278915743, 1.0231812497151924, 2.4022141888348387, 0.38106919319897586, -1.018452244188455, 0.3121472933986449, -0.38943185821342235, 0.16146819386894296, -2.0788192004555395, 1.2182910543057948, 2.1252173365600786, -0.22825639662656327, 0.2463612365008335, 0.6822317043873061, 1.208411541781306, 0.553556347111762, 0.25145892320367197, 0.21315406046274252, -0.5511355548614862, -0.34262632955393224, 0.5231370301487985, -0.25572440278452085, -2.287048234756188, 1.6061168539234476, 0.09206950201972025, 0.3802031049029524, 0.371054062052971, -0.8585017066385826, 0.2157290881450909, 0.26616128927654853, -0.2146471397390945, 0.15594050052036168, -0.7926330840656777, -0.43515435753093634, 1.4043108710952084, -0.2027566921390419, 0.6700491751108587, 2.2909130845396053, 0.9354455617480137, 0.09605122522983163, 0.08679871044973533, 0.14129189634232434, 1.2571680970991856, -0.06927471677172192, 1.128885157825185, 1.0128646226303022, 0.46190239872195327, 2.084448798172192, 0.1778221026119541, -0.5791693453861483, -0.050837896628065135, -0.8025995438464418, -0.8455379657392316, 0.4270823220604269, 0.5347503648533259, -1.0410310311625723, 2.677899940493819, 0.3640338184383653, 1.2050805372209443, 0.16883309401817717, -2.163782207192526, -1.8735731322030151, -0.02124960121641238, -0.5548252485538994, 0.682189897360714, 0.018066443855840508, 0.251453539242125, 0.6121335264158839, 0.37581573629020276, 0.2548952674188446, 0.8827090440019175, 0.03174449286493802, 1.5047395383700648, -0.9646730702813262, 1.086271423502937, -1.2003681854135877, -0.05690312188594798, -0.23614145522469238, 0.7181639392468422, 0.28320730214703893, -1.1097327957324612, -0.42765618302215813, 0.25275253502430817, 1.6066013733277857, 0.5889085218448539, -1.428925007300962, -0.3174291039194296, -0.5238140007980311, -0.8575985675330234, 1.165710145141412, 0.5905281841418856, -1.022461313530243, -0.18717671004558836, 1.4487032220022569, -0.77067149023185, -0.4341562542928783, -0.16790601750105652, 0.07097541088833562, 0.6277685858739519, -0.5736073786529563, -0.4307850135294732, -0.702834011075618, -0.8970854204612427, -1.2104829272937532, 0.49538757908864756, -0.3850331531877498, -0.5391740699290175, 1.1633579630527318, 0.03211745083711215, -0.6382066689999748, 0.11430729747610822, 0.5113496519318488, 0.10327965553424198, 0.9611231282286635, 2.2105533499821868, -0.3898926689476529, 0.3456729932917909, -0.37785394070070677, 0.42172213000208897, -0.41577803095257077, 0.41689089477209174, 0.16024060383141245, -0.650039206252572, -0.5722690840993603, -0.7747366945341839, -1.0854605221661355, -0.788987314083296, 0.6241764271247376, 0.18254812032820955, -0.2542705618935947, 0.7699421690256147, 1.2516871170152968, 1.0824344410444238, -1.3656552896816507, -1.0020001723164602, -0.340304594903018, 0.10363056577773018, -0.687941167810365, -0.6146000042710102, 0.21706971233952535, 0.8114556272169039, 0.27393969617463243, 0.05316937717743147, -0.7339702010963461, 0.46959282046375045, 0.4139764458549251, -1.6328892601801759, -0.5867062749358566, 0.32173334981792245, -1.4760971589388006, 1.57969758065733, 0.7418599653434141, 0.09051184655129584, -1.4147919091474772, -0.904356602626375, -0.6810770763205519, -1.055247847708052, 0.9242480742024426, -0.6449947108443588, 0.5687101908517757, 0.38702408174412206, -0.9817154428904387, 1.563172756020612, -1.5481786745540205, 1.2792034966346173, -0.8415515458836831, -0.5632186720338671, -0.7288134582398185, -1.3918237041865913, -1.8964469852343446, -0.11689113452427202, -1.074099822745448, -1.7838511456890265, -0.1972545532056287, -1.1069668933483083, -0.5451604277493897, 0.19339903080433588, 0.7785663651989589, -0.07942698874735853, 0.7332027639023992, -1.536365070307368, -0.24219611615452638, 1.3266896090776754, 0.14399147199694765, -0.1179366611083856, 0.35477518382723966, 2.4705807383730107, 0.17842930957308464, -0.0567518831149981, 0.874641584913556, 0.8069436952958803, 0.2615103635213482, -0.16363139038246038, -0.52312110576975, -0.13126107012378666, -0.8114446176984567, 0.6432643942663887, 0.08904976685408933, 1.3711321768054172, 1.3952596401119473, 0.4766320312146742, 0.71385196047065, 0.710895178250236, 1.075394778397317, -2.1717015205995325, -0.5007365059927436, -0.5398770199461753, 0.06617856859924355, -0.30591887051797917, 0.0714562667133342, 1.7505236186252486, 0.14644376478294893, 0.9864508670215226, -1.251169839895113, -0.8499775069663469, 0.7658304719737857, -2.695189863022235, 1.6478947416741687, -1.0845049054886733, -0.2787745070967156, 0.06228135350382146, -1.086527691574362, -0.8124181396066029, 3.306536300249976, -0.9782426901510952, -0.17957729657947588, 0.6697051250581492, -0.8194315231145367, 0.457641730801079, 2.018529480109744, 0.8924256011930168, 0.163990899460129, -0.06506591265066686, 0.04147101273915391, -2.228360614872013, -0.3594966938627081, 0.15056601999819597, -0.6515891887630565, 0.9317337169254126, -0.31162944952215904, 1.971094782594653, 0.24402409613360326, -1.1891107558113514, -0.2769827778161984, 0.4277692493364828, 0.5939726399249226, 1.29731745196689, -0.35116967464306703, -0.7536781996363954, -0.6142727621578525, -0.031550567418762776, 2.3576993002663484, -0.11010316443752693, 0.6183353108203375, -0.4446317979732455, -0.16021348316963466, 0.6159851946625853, -0.02939662999467863, -0.2393368707113951, -0.9065472460877823, -1.1716398231846716, 0.5068304132272463, -0.7154462757168494, -2.301976464821687, 0.2282362664499395, -0.7882636489505329, 0.20489377370637377, 0.5160581875466117, -0.10933595510703376, 1.476317465736523, 0.24031084176782266, 0.5716297229717863, 0.1259969004536286, -0.749025935638931, -1.1395175528002732, 0.8834083270008125, -0.7389618467677237, 0.5701883893111853, -0.7360677493959629, 0.3260020377828425, -0.1634829665047329, 1.1334467776866541, 0.9721567241331319, -0.1388403676773644, -0.02048779254636727, 0.10259828238023784, -0.4408497468234327, 0.935571786223724, -0.20694747585413673, 0.976735317832881, -0.5157345305678964, -0.21410343373726157, 0.43630779642283085, -0.10228797706535021, -0.4146787482526346, -1.9006887077261343, -1.0236030502968902, 0.9133635144492411, -1.0161309883589222, 1.3795838745445057, 0.89131336206989, -0.2511604555767515, -1.0186531029999213, -0.7027180191596115, -0.8725305735552229, -1.7587009071858843, 0.26326613799940796, -0.17365099875107864, 0.017802510743504515, 0.5446405574428428, 1.6681606321798124, 0.6854170719640947, 1.7464870311193552, 0.13566117298557365, -0.5286595897211332, 0.022904947982667834, -0.45722140219383556, -0.060912075371085374, -0.21346226330491247, 1.737516620630178, 0.0005740646993936234, -0.9098555083879832, 0.1899851306569214, -1.1110396279998873, -0.23031359964161058, -0.5830908739859799, -0.6327584870713316, -0.11867158652592014, -0.06957527824960519, -1.762776814077717, -0.7587894300075804, -2.399693801086732, 0.35683834447756635, -1.5695283033730352, 0.7657992439077355, 0.5008193449639692, 0.4197703665346877, 0.4817616330202113, -0.08456622988599775, -2.0808902228821142, 0.9904335078804606, 0.8832750997562049, -0.1725903066406906, 0.784785260257665, 2.1449957180922237, -1.621888217011045, -0.28330252287662405, 1.1957240840347974, -0.9324261709163529, -0.493212924095077, -0.841601199200832, -1.1287824823361885, -0.7339930293756368, -0.12206508102591902, -0.1468985151037892, -1.1247661569662828, 0.4897332437906013, -0.3534975773802705, -0.9917021167547424, -0.5643149401583151, -1.01365820624841, 0.027396152160307864, -0.7219757409779527, -0.34576444829125413, -1.1040237100177006, 0.4038379601054458, -0.7668870870339147, -0.6364502578920797, -1.0907653385173246, 0.8224238692437146, -0.1803774132978361, -0.48701289880503057, -2.9479504233355387, -0.2355812805612889, 1.4440593186608501, 0.37152911594496546, -1.1203298874307404, -1.4585730238111554, -0.7901829357633521], [0.2406335672371099, -0.5499155431605026, 0.7089800377176363, -0.0603923490655183, -2.1322696333788436, -0.15282643051446154, 1.8143633367935998, 1.4036262787189933, 1.801113247340725, 1.3316837432168527, 2.351439888044385, -0.19984089285518036, -1.81544917342511, 1.7910912735097553, -0.8651186465207247, -1.2277047575351585, 0.4908500640358548, 2.434382543413426, 2.162870845481541, 0.3158257554361581, -0.8703440101930192, 0.4005910102769959, -1.418879676626339, 0.21298234112934186, -0.2104817430309504, -0.48935867472552963, -0.2435833843978468, 0.0556890616865203, -1.0193224781266825, 1.3799101093105315, 0.47975792601469164, -0.8920344248087185, -1.7988783373416204, 0.8609643807296238, -0.4983594684570118, 0.026672106911011198, -0.4809368652844459, 1.4069150639900059, 1.177172702205693, 0.019194414803168705, 0.808571345628616, -0.3437351378778536, -1.1844655787669225, 2.096625053169037, 0.15947763537549856, 0.024574277804938188, 0.24542008384685157, 0.7328617579120957, 0.05665308334302621, -1.3239255919120223, -0.018810064355031565, -0.33204389738021095, -1.2299123577251074, 1.1750804509372756, -1.6928211130933686, -0.695096776170996, 0.21242657102372883, 0.7506041583265874, 0.4069532412577003, 0.749403022588777, 1.3193258635818035, 0.1055359357470257, -0.5924375369734178, -2.2180728585099456, -1.3412393492230055, -0.8111346576338173, -0.9696022577566399, -0.2832017486960899, 0.267942634854238, -1.255322434876956, -0.9745636573926164, 0.8408370812782936, 0.95600297878415, 0.23011946742562145, -0.27766166632438494, -0.9194348802204619, -1.1817098978485492, 0.10430446910641174, 0.7068955592317118, -0.10983911481218481, -0.4960734303939044, -1.635022429146944, -0.14379758696919515, 2.164275103228196, 0.5979200430078009, -0.6119688528043215, 0.3657178564498283, 0.9388413611848456, 1.533768277164348, 0.3800986471128061, -0.4591056178081019, 1.4005737471759143, -0.18758135392028533, 1.1318827500933903, 0.32158522553958696, -2.248092643646003, 1.9326832394411506, -0.3029505341317387, -0.3739999648308857, 1.1414374425993017, 1.075228017999687, -0.8668617990045985, 0.29643265008653435, 0.5279533462590459, 0.2650196399715525, -0.8693071282901944, 1.0695657028733436, -2.286362585605998, -0.8402911237135645, -0.33718611343647414, -0.8466448849825824, -0.6173379987181612, 1.0233667432470341, 0.8538349433313138, 1.4582280831672048, -0.0868194433426193, -0.6906220737178027, 0.5962176070200186, -0.24598329669807958, -0.18928889417603606, -0.9935403269450167, -1.4478521141400762, 0.3732812728619297, 1.4610283290158816, -0.9177380756355946, -1.8650153264742424, 0.7019085190123138, -1.572197708847183, -0.34812870370363136, 1.0824101992741928, -1.5380830290416587, -0.8235987278972525, -0.19745395292376672, -0.5003008415599219, -0.48177301711570464, 0.27330027575991056, -1.321421838511861, -2.1263064351919545, -0.36842504674482923, -1.2435376453214504, 1.2584820968156445, -1.8061199744067167, 0.5117871294244711, 0.9428925271812186, 0.5849484339216066, -0.9789920298932017, 2.166902727134925, 0.3843083020352094, 0.13289458514173674, 0.4768882111181206, -1.8093666346171913, 0.8062803780626179, 0.734470880963485, 0.8785887012293707, -0.7476871738452724, -0.696913317992812, -0.48637764888901985, 1.0259102666821935, 0.2967963336841344, -0.45195186792474906, -1.662180019027068, 2.04962297143065, -0.5354075026994036, 1.207742655928147, 0.3951409906321273, -1.1182221516528852, -0.4519434347566733, -1.0552254655128244, 0.7102690422168566, 0.8219169103938607, 1.389079681741519, 0.48222849096253434, 0.2477751876624184, 1.5669355020270184, 0.9844914028800212, 1.2693309019240195, 0.5227386374731607, -0.5143836510976262, 0.22975400488175832, -0.21335332520127173, 0.19251530108042417, -0.09014490453820724, -1.211258335014111, 1.3751151030851478, -0.8114965391726697, -0.6647587482989304, -1.291379979961759, 1.3577103545829106, 0.9169368160095418, -0.8870393009097881, -0.06605100074848692, -0.5639413833253931, -0.09647202751309002, -0.2693766684868741, 0.19418319881223048, -1.168670109832938, 0.4302840097705346, -0.08161741624280575, -2.1398437058982576, -1.2073339104317007, 0.0658417159457771, 0.6047240275850052, 0.9000003915689282, -0.12274294261616255, -1.40040018701359, -2.3045487295085074, -0.5038847612574878, -0.7399072316407679, 0.527459814528388, -1.7706774074931908, -0.19503104262369467, 1.1292130662709887, 0.007871856674288434, 1.4136383499477858, -0.41969528312344107, -0.8116849253304587, -0.9326117075380409, 1.3651467958615864, 0.06981892306298337, -0.669016014638464, -1.5597856419212681, 0.388201502143101, 0.9194409631670026, 2.2790701822297037, -1.5029720432640057, -0.09177962370494867, 1.2993482818715383, 1.455668926964055, 0.22571332619010714, -0.31884919962372343, 1.4315506232093478, -0.07607085850130707, -0.7592954522006075, -0.928002888442798, 0.9125880799959204, 0.10763966569805125, -0.4727520722318155, 0.8702779118440482, 0.6761338388983064, 1.0598677572081951, 0.1991729911915866, 0.2366017863011728, 0.6369162590687345, 0.6884225187891843, -1.4713313725212778, 1.1530940990087144, 0.8468909421657043, -1.0263969128129993, 0.5671379779331408, -0.4150139170041346, 1.0251731891961728, 0.024130554672933364, 0.8324678072899103, 0.8949512551250223, -0.5460867019654535, -1.3737227532420018, -1.1731530260294787, 0.11159168237637522, 0.09139271321483196, -1.3659572779044162, -0.05951023374827425, 0.28266266419704233, 0.22392174794724257, 1.0026898787856977, 0.36630659738382393, -1.0295825567196444, 0.20489283687376605, 0.46471368700722365, 0.9181035861987067, -0.7877938828883938, -1.2128763349772285, 0.5023483575260989, -0.2488561709745252, -1.331134842363535, 1.4111108932738148, 0.11184085630136942, 1.1386779192357375, -0.3803155167499957, 0.05006726958898087, -0.1453022405836505, 3.023109329662144, -0.20547193410894624, 0.864673971914361, 1.2823954676460922, -0.9219673971975713, -0.5121907019696215, 0.5599880238145167, 0.5753962952890793, 0.11488900341314394, -0.5731838215400862, 1.8481314360662826, -0.42681791883391146, 2.257959373294216, -1.4914515340156356, -0.22111257523087693, 1.7648795486643287, -0.4368262297959738, 1.1448140385187426, 1.6160616863139439, 1.7562790914005655, 0.332992823602682, 0.02621757288385557, -1.210979742758424, -1.055968045608116, -1.0550302024963136, 2.187283372038338, -1.0407594753560094, -0.530350965526152, -0.05802556705313859, 0.5089925823645772, 0.37413148290458875, -1.382320523353203, 3.340518017751109, 0.8290891620701512, -0.9001713255699711, -0.8869868498754024, 0.4300041183585158, 1.4217621131604707, 0.3846570520986883, 2.8587695959688384, 2.577909751441464, -1.4379967284332187, 0.22883783778209682, -1.051942712372987, -1.8568803285423938, -0.018278015732471647, 1.0098842112542776, 0.34469002757141065, -0.061976291383152415, 1.2558151267700686, 0.7509951468497735, -1.148936786299586, 1.4171506983152413, -1.4159490151184988, 0.5760775830473321, 1.044091432470989, -0.8437524080860328, -0.18170316915372656, -1.8777842294586908, 0.006338364831805949, -0.8651700369664591, 0.35986135643533856, -2.1317499835744216, -0.19427864100362285, -0.044861733957078244, -0.4729134208379891, -0.23124628199647695, 0.7739244468603822, 0.43847300656852783, -1.7598302187327761, -0.9641627310579871, 0.8954816064019169, -0.3373523517669258, 1.0026599071803923, 0.42690507742309947, -1.6477134899785506, 2.3070187362598267, -0.36766722398420465, 0.21158012809210489, -0.582202829154877, 2.1994377943412045, -0.8647918505208434, -2.3995020626615906, 0.3411461131091883, 1.9228133142071424, -0.5347106099443563, 0.6158707519671994, -0.44626766286377856, -1.089267115735309, 0.20360690327679043, 0.01367609038803669, 0.3473271728889908, -0.14424200367032217, -0.012978215998115744, -1.4213906221157142, 0.5733524705470702, -1.5746468474334516, -1.4039890741837966, 0.8167284002441493, -0.4279370879432435, -0.1532711771366056, 0.39009232846201625, 0.8565317444976613, -1.0811724942200918, -0.28467822743322346, -0.3424327536427895, 0.025953462679050944, -0.029509356400222713, -1.1906265863360728, 0.09129678668657544, 0.3433803561662167, -1.1200943030181407, -0.9450827026777746, 1.3668428259157206, -1.447390263318591, 1.392834325118916, 2.154822529725026, 0.9602633990952306, -0.5556606964113392, 0.14824297001799056, -0.1346465540978118, -0.13332393600440068, -1.3118501981416204, -0.7769201956121982, -0.19765628945380045, 1.1539239757178854, 0.24503754656542973, -1.0468882290777188, 2.3091877004822297, 0.3886085230343933, 0.8848154861196018, -0.8230181886343096, 1.8186314987380015, 0.11905953204306383, -0.8107341074534112, 0.579697401830369, -0.2163736861313892, 0.7698159434131431, -0.08402334985066871, -0.2671349142824477, 1.2366482334842073, -0.7420360585054833, -1.3885723868926139, 0.22528723279010293, 0.021726533378449774, -0.7073746501146683, -0.8315375407503984, 0.23393608873623323, -0.2929390798024761, 1.3476279036959697, -2.080832290238491, 0.4571873587771435, 0.7819554793800215, -0.210953575617396, -0.3555953650981259, -0.35650136887762474, 1.6378234189912007, -1.0664125703363283, -0.3581274754196085, -1.791729411937662, -1.4040536105511687, -0.521744185095027, 0.49827680232490335, -1.1306700561517131, -0.05656514447462757, 0.2034350934349598, 0.05803357491740447, 0.6379125103710742, -0.8669547404528548, -0.33594995737282457, -0.8656887134278964, -0.029328712024688484, -0.021264882828189936, -0.033959108574532014, 0.06525267378917537, 0.18436246194920963, -2.05344766789177, -0.1426074970890328, 1.1000736114945215, 1.3610473459673147, 0.4603415885356331, -0.9818401970546704, 0.5495229934065802, -0.4284785913182732, -0.6700570949454596, -1.9799004505041795, 0.8692061349666298, 0.8593976507079402, 0.3366971404442053, 0.9390037770592727, 0.7359801174841041, -0.7489646870854582, -1.461892353995457, -0.40441366007369534, -1.443856907213547, -0.2903721808497558, 1.0406150969695847, -1.7848650359436964, 0.7805232433098018, -0.03201408881662089, 1.0627129364036176, 0.9191307294471779, -0.3185274141555066, 1.9660428005508184, 1.8314738706824303, -0.21225983842181523, 0.32284805109606796, -0.6460234650706158, 0.05288242670273533, 1.1756883673809346, 0.27233162339961137, 0.5590168919695707, -1.8494336771407072, 1.178632927341115, -1.0304636087110932, 1.8894754514141037, 0.04259743253693159, -0.25535680272163647, 1.4762882916820579, -0.006414689397923807, 0.5743944861758106, -0.7228730083076876, -0.14860898540053774, 0.17217300858523776, 1.209185228258767, -0.5373279939590969, 1.7521995281976335, 2.7221111121065067, -0.9385853353003529, -1.2383946262353005, 1.0337025567693836, 0.2523397885468049, 1.7074615414097298, 1.2158862279319762, -0.3962445874456473, 0.512112165514197, -1.0217632304582822, 1.9694479420184345, -0.6488090826855004, 0.3895436839183044, 0.005621102304568168, -0.06052753561218306, 0.1729505316305178, -0.3360990184638486, 1.1281138989709136, -0.9091977036244641, -1.1739271962506994, 0.19253296724763927, 0.7683519237981887, -0.48337165595886145, 1.0490896910929743, -0.008324137731860094, 0.5907867591616524, 0.39977478419946594, -0.48315170390962014, 1.4841912782343805, 2.2997891719277517, 0.14298915487565897, 1.0141124889015187, 0.6417571446738669, -0.04278355670348173, 0.7112071570794364, -0.4699746663428339, -0.8694695471209088, 0.29143323391205533, 0.468999677505086, -0.5280476923134155, -0.0634394808052332, 1.2950709777237577, -1.305196254780749, 0.3689507834408717, 0.373797662137396, -0.7455117971012616, -1.0274726112516197, 0.7232565003172643, 0.9440006557707977, 0.21346535825844667, -1.0049925937998123, -0.9909285780919441, 0.9155652298013736, 0.92158245103211, 1.4877719424007518, -1.8444396517293158, 0.2789349017515402, 0.8292729673212561, -1.004510005041215, 0.17843855535121692, 0.8181168300472298, -1.1775911123271683, 0.4861831335917809, -0.04208807903594108, -0.03442812978251714, 1.3422530141173847, 0.16718844935048774, -1.368039224744935, 0.12184202683060803, 0.7517794343917519, -0.3289744166656865, -1.3883246584258435, 1.8081193970125247, 1.9510640242920314, -1.6372672867307134, -0.3315059554017661, 1.8862295383236045, 0.47767999704892516, -0.18849998881786204, 2.83620982988455, -2.1859461442436063, -0.19124827850174345, 0.30580103810705467, 0.48975690730455096, -0.7652957633321693, -0.2900026240158085, -2.409833685952154, 1.8474873464756596, 0.7237309237947535, -0.20162825965275377, 1.4058380917819404, -1.5268554982623708, -0.7677896125535635, -0.41770442638445426, 0.7990971641885642, -1.1512525643444242, -0.7310268200677996, -0.34443610910248845, 0.15221543125629014, -1.0942900671633573, 0.5657739525868414, -0.8404827411581154, -0.8871188579664292, 0.3149254901423462, 1.3207172266789813, -0.441993928344144, -0.39335187656189713, -0.8404749062587737, 2.4115562793683023, 0.48065908431133547, -2.087741041788359, 2.2206749839368074, -0.8108869443204131, 1.8052913674699835, -1.002702286901198, -0.4890714416662352, -0.5722727040448892, -0.2693583024708789, 1.4199865073774258, 0.9984630369803258, 0.46129934707460296, -0.9397940380424956, -0.06694727369044132, -0.779466253234808, -0.34534670171552806, -0.7723224617703939, -0.7120944327565688, 2.7026125844398012, -0.6053507515385794, -0.31528537620508823, -0.5481993988162358, -1.0616726263723186, -1.1545410704214836, -0.6326907636102298, 0.4786270507394387, 0.23838210576929353, -0.17850172958744448, 0.107964577636379, 0.8812822694633978, -0.6130226283928456, 0.4623931939544978, 1.1738242809520558, -1.8635838488423664, 2.4630788803926666, 1.1742812128695925, 0.26347458351974606, 0.4803593152724579, 1.1606997337840574, 0.5183545772928608, 1.5166263108990212, -0.19301634026301775, -0.6886575376556009, -0.6314801850769972, -0.520192470701295, -0.19034804960238746, 0.844740485959626, -0.4803260427551666, 0.1379643863906547, -0.3788205475985787, -0.6482405971651753, 2.1391471584305974, 0.29629541477335136, 0.03775039272075252, 0.4104954282368601, 0.10452183310104769, -0.6551053853742201, 1.2289337086494938, -0.19883635818259515, 0.016893583437297927, 2.3438366417629415, 0.5217855046059929, 0.023529570851142347, 1.7221615069695597, -0.11919509365145675, -0.4881107859230947, -0.6124159262402613, -0.37289658704830525, 0.37340529607347406, 0.7870370340784331, 0.13099437462321875, -0.2205976846702508, 0.263636459902323, -0.7208139776656473, 0.3382124488510257, 0.9611855809979556, -0.3399684257353204, -0.10169547830327097, 1.0430217282488234, 0.010940165066754865, -1.1116056276420319, -0.9552742895536269, -0.33994320855731713, 0.5375325258208062, 1.1106402949870136, 0.6307201247560333, -0.24240508874275432, 0.07823071201450568, 0.09525095298880513, 0.4984218334577552, 1.3233439159406306, 0.7682672998223842, -0.42091584104877516, 0.06698002253836786, -0.49170669065025785, -0.6561820447384513, -0.7927665480361634, 1.3602903259307917, -0.215335060101263, 1.582367880977291, -1.2376071230963006, 0.35240605020900556, -0.5386048354318832, 0.23096452339226897, -1.1613912251901308, 0.08260889508126663, 0.32250759773564963, 0.07226477082550976, -0.5534430104023533, -1.1845150962713593, -1.4437784624195205, -0.10366630759358592, 0.599688858435377, 1.1740601796997654, -0.9743039153797755, 0.15454837767319918, -1.427810754833677, 0.181715811600915, 1.7915061922265128, -1.019414243155517, -0.9332950034262779, 1.043935517714087, -0.5861148178467865, -0.08272674802684948, 0.6866845187548002, 0.5164313242152363, -1.3125841265926326, -0.9735935998926146, -0.5315162241229653, -0.46261195577485326, 0.8963869826249431, 1.4990724123669619, 0.914834076054578, 0.5184192002108654, -1.1776566658015402, -0.41403212988459864, 0.2190182628004199, 1.2912987754412057, 0.9535123203485588, -0.4220310329258717, 0.7527370666561721, -0.11801491690494283, 0.23733086549993682, 1.0048887651844964, -1.0721980263019317, 0.5192584520597305, -0.3468345802624344, 0.42549873201150856, 0.6296410779905282, -1.7607309664970083, 0.32856189788890805, 0.945439913761104, -0.08915073995910393, -0.543090370894292, -0.34079449793731303, -1.1631701031791992, -1.2209334249769817, 1.8973145130676365, -0.29641947860717094, 0.650426112821651, -0.07837591317781764, 2.193493877322112, 0.47409068477584615, -0.6488483767444257, 0.6681337757262937, -1.5082641778612198, 0.6964872131127597, -0.2525775657838745], [-1.0726855748605988, 1.4020330014409126, 1.6722659725996663, -2.2327070848359547, -0.04144624582615707, 0.1000349371818977, -0.18172499960097846, 1.4100386362168649, 1.7560174116700968, -0.49902107343157853, -0.5439656961231306, 1.716232227268723, -0.0654188787752043, 0.08322574141110592, 1.5102120071766292, -0.7341182855997065, 0.1743716833093555, 0.9592668073586339, -1.2192063245791993, -3.824415570186971, 1.1934783177400905, -0.6613090411031319, -0.6668752906547907, 0.8771588750924333, 0.40860128128581263, 0.05728235912583379, 0.042779864691871214, -0.2630821126668921, -0.0940391791780619, -0.8707325266365842, 0.34352889120041324, 0.3418429667815982, -0.6002438861125774, -0.07338671016255228, 0.7658321474837435, 1.027828797286567, 0.5799088908697316, 1.4146526675554252, 1.3661433787648398, -1.0459938138783285, 1.4241013873176218, 0.3054310028255706, -0.023478517525365936, -2.01398486063442, -1.4026537119005, -0.9995593207256994, 0.6175197382518101, 0.07261248018629744, -0.34639493284228123, 0.23492579713543657, 1.0203539717873322, 1.466916587366279, 0.04517293800208652, -0.45630424188899865, -0.9012082559742245, -0.07556392254252194, 0.1926778912894442, -0.7820923308801846, 0.27973763294312054, 0.6502022345076716, -1.811219853300415, -0.38803325606044614, -0.6529675317072544, -1.0294714615643596, 0.21862540811029216, 0.18904876153665773, -0.13544555045373446, 1.5031879795330199, -0.1697356658906532, -1.0648595620523058, 0.3274257166014044, 0.20964060877342386, -0.579207267759186, 1.5046119512980463, 1.9936809725093896, -1.3159006585432946, -0.3443357653469264, 0.1677784468526885, -0.32544229455248946, -0.3065140309197718, -1.5834202654241785, 0.48682987571200503, -0.22915067238369735, -0.11210253185864986, 0.9313914666874088, -0.44371696746357175, -0.5611323529658379, 0.3617493528777663, 0.6667423091273724, -0.3971484958466859, -0.11823795481111019, 0.4566658385898061, 0.09880753375871196, 0.2614055314346548, 0.354580301400075, 0.19375229296354088, 1.4278493320477736, -0.054368390398965516, 0.7929870885525157, 1.2847676172674767, -0.18902081022993492, 0.2796262672819389, -0.46281180194371596, -0.6763297553030948, -0.05323059743173136, 0.4550598698564077, 1.3091926453760994, 1.00648806658017, -1.1507132150630452, 0.07766151107343779, -0.07662451340259137, 1.5739141354655393, -1.1154911845302744, 0.698824332800671, -2.360717533480411, -0.7528310446957798, -0.23807207876922995, -0.7770506954337162, -0.7233091251980764, 1.542594811105862, -0.5456603178186411, -0.20226348956476004, 0.5711209261537701, 1.0002733243709128, 1.4365640252852916, -0.738048226300637, -0.45111025857660725, 1.4334042604879158, 0.4573372821311646, 0.1688046967851998, -0.8580055687913095, 0.21365495117126068, 0.2606766888317697, -0.9056176451182426, 1.0470579813787226, -0.867655314923221, 1.0914746045375066, 0.6708586864408869, -0.5072364342897312, 0.11558461304028321, -1.510892596140072, -0.955647825677379, 0.3071194932067942, 1.6933864887717107, 1.0720451898445258, -2.1783315694125434, 0.7796080595367361, 1.2771312379038782, -0.6790292814724774, -0.08923354522473446, -1.908580902076477, -0.1932125111339259, -0.8311772379108174, -0.19168956555703887, 0.8864679939145651, -0.209370234463066, -0.12815834052121977, -0.2014227390609319, -0.11694705745074416, 0.8232353180436924, 1.306529091300858, 1.2334475980607875, -0.7813973900596641, -0.9428566666882051, -0.5759183802485218, -0.11412872908999572, -0.9633799584676636, 0.7092211411823576, 0.9680855111816198, 0.873143073468069, 1.1416639071909176, -0.9067677815547017, -1.2444569335475548, 0.4412785935008142, 1.986954168232375, 0.191920543276044, 0.510808972312337, -1.4692327153746016, -0.611311888201305, -0.37979872782098467, -0.5818694186768271, 0.4250632523034402, 1.271425268418229, -0.2507889627837632, 1.5960327625248212, 2.239593904328376, -1.0632227310184479, -0.43889582446058517, -0.5261304338157047, -1.348301299396623, 0.805473916888018, 0.6085892045360363, 0.8471457468541437, 2.025320801924688, 0.36914244171157923, -0.8330289540461123, -0.266280126692511, 0.7541528166375103, 0.5963362106519217, -0.6012787339149304, -1.6220153721383406, 0.5375646162242739, -0.7314017698601414, 0.02596512200138683, 0.6259478193691798, -0.2628868299737925, -1.7287582473037064, 0.6382907370991385, -0.5096470995962992, 0.20597077036152506, 0.6034287764594202, 2.256581786380386, -0.8589345420139074, -0.37731629997868243, 0.8887058862587923, -1.254695224913587, 0.1501287475612335, -0.06849314616697451, 1.268213592349951, -0.4321727072796608, -1.4542778570175694, 0.33310033307804937, -0.037022249166998665, -1.2866340044558984, -1.0396301257699905, 0.7200644804708368, -0.5587144705826926, -0.7106463343087267, -0.3596619807196471, -0.9844831003532891, -2.2449677158344787, 0.7512785456453774, 0.9834333135138196, 1.1375288807577277, -0.250751705716376, -0.09830020872251802, 0.7635408933890308, 0.29722503445696263, 0.7493693438470322, -0.1608972064344484, -0.24359205101812842, -0.25552558206309145, -0.48502687909471837, -0.5101639372229549, -0.9862566168461009, -0.055841030296504196, 0.8160248643830438, 0.2848743994255024, -0.5892458119430144, -1.0404860375880873, -1.1468150208723502, -0.2172826015891438, 0.5815435719508636, -2.230930180726671, 0.8841326463900554, -0.31742211932008996, 0.27469529839531365, -1.25075095515834, -1.0070515948245273, 0.3898802975231683, -1.977116896799736, -0.7233707333095393, 0.18891381178737396, -0.8395782644907488, 2.055387090333058, -1.5983494016671491, -0.9692584346132244, 0.25637158636485086, -0.08069129587625247, -0.6984386473359261, 0.5666682521371138, 0.468178563608333, -0.6155916765890449, -1.0244955978263892, -2.093343254745097, -0.16822510821769632, -0.0594652337315542, -1.1969161784193092, -0.37793527006380084, -0.5203363342986557, -1.7636101274798828, 0.1312497421211032, -0.9472157615365825, -0.6618754124403126, 0.46801612819189176, -1.2481183314952613, -1.2064654992609662, -1.0184108007234776, -1.40509459091373, 1.447014557379581, 3.0649100426596605, -0.7183500225207641, 0.1627505501344557, 1.0936749990976036, -1.219414634744768, -0.5181663843121347, 2.986569626229824, -0.7432956517076938, 1.0396919866522543, -0.6886751444778908, -0.3018243686152677, 0.27555561561555103, 1.6101705116534286, -2.2853824783609045, 0.16599723530198632, 0.8997073992810319, 1.1845594772807366, 0.9596351689737648, -0.6231814274553913, -0.1515013343458243, -0.4674099742097967, 1.5916128596491483, 0.031408003265065945, 0.38757997027871216, 1.0512172955874666, -1.2617665443917707, 0.9584583405191472, 1.559969881564141, -0.12562836487926649, 0.7213785976038833, -1.085567299154081, 1.0698109955807336, 0.620848658616733, -0.5463730418235854, -0.2458921498376163, -0.5192392380535554, -0.5473602982218367, 0.715735848135446, -1.2640648583330225, -1.0028426457109434, 0.6065931009242023, 0.009319513221996919, -1.607936460082044, 0.9033662529173558, -1.2145334771638507, -0.2166742146864634, 0.28086610671941975, 0.2700700345670918, 1.74012315986197, 0.347082078383125, 0.5093630165175267, -1.555904591150441, -0.1779330075675653, -0.6020992841349314, 1.413714347773521, 1.5997572886628668, 0.7431521529067624, 0.055335188904706456, -0.902385163269365, 0.14871983545747794, -0.7829681700425747, 1.9981307758107734, -0.9332860622101186, -3.051675538050237, 0.48422484295901197, -0.9356111857839275, 0.8699912869172031, 1.9184274902508076, 0.041863085235808964, -1.200321804166416, -0.12636329246835967, 0.17237471318751624, -0.6409494409626001, -0.10712378667281698, -1.8108254580060243, -0.6984467920788443, -0.2214251995639152, -1.4390099515206198, 0.5177255456078383, 1.00201022136221, -2.2288833437636457, -0.8575788174296101, 0.1565306070613424, 0.28649614981079374, 1.293350297186515, -0.6504427208668331, -0.31893477374916473, -1.3924278162440205, 0.2524096689949067, 0.7014202033015597, -0.7923373955910336, -0.5277473009064698, 0.24261849473137115, -0.162823463892162, -1.9351138690131109, 0.3545284530462998, -1.0246544695615378, 0.09262136464262681, -1.2255662858856087, 0.9479315042871189, -0.3415246959005448, -0.16532928198057947, 1.1449905090155166, -0.9543912471823116, 0.6129338613967912, 0.25716658356216066, 1.0180068251087413, 1.2946818295941493, 1.2618191010034856, -0.01282482535377144, -1.453104514638019, 1.3408419381983094, 0.025836603385515, 1.177089373979698, -1.6984484088790672, -0.6741381163835954, 0.2466655149946555, 1.2543011371801744, 1.2388623911032266, 0.17124425788297246, 0.2220935590311461, -0.7366224614525962, -1.3867897036365597, 0.9849694462611773, 0.36183151349900394, -1.2862662792051458, -2.2652483862937207, 1.5616102248823382, 0.7128558178486971, -1.1830307947388459, -0.5781250825747194, -0.45458350077754345, -1.2392696362901632, -1.1104352359753156, -0.28930680419812965, 0.4522186249655352, 0.5439083280365719, -0.9043048473703581, 0.6931334240401353, 0.07572313228694452, -0.11915590473650078, -0.3476257756184192, -0.3825444451209493, 0.0495061893092671, -0.5628029795691792, 0.6771368556419222, -0.15116523328675951, 0.12475355360487468, 2.224606537426978, -0.11035468584465556, 0.368189098861424, -0.9466021203397531, -0.4200524829139959, 1.2036531407869862, -1.813916986344243, -0.40027608543348403, -0.19663090312016585, 0.5823181910670635, 0.7795702482776542, -1.3223421256828647, 0.1725922175226337, 0.6380861864137666, 0.9156673066211755, 0.7183346866091382, -0.42543409901766294, -0.2778804617321546, 0.9213424175536773, 0.7058001749750821, -0.8877202930675386, -1.6664569385323138, -1.573565808886164, -0.2196431812277191, -0.841152989365742, 1.7384733362262794, 0.1933721758957841, -1.193733075543591, -0.1558602287941891, -0.17748680163327668, 1.1636945522461402, 1.61339358833706, -0.20906907728387505, -0.5287072720256727, -1.10557477226452, -3.084794997038499, 1.1092789329286767, -0.3398284171547064, 0.4688447589617894, 0.2189721760152162, -0.09147853995184672, -0.3743548729424241, -0.005616026187219506, -0.271794211523289, 0.6882698560468924, -0.13812763170478254, 0.8170588087828267, -3.0028614266240696, 0.812095714018247, -0.6116649403997814, 0.5832126619439553, -0.7332621568438001, 0.8059626530441234, 3.6694303769503382, -0.577931361556197, -1.1259585138358394, -1.081838550178217, -0.16111742303336757, 0.19892341534845248, 1.1106869135606916, 0.737049686885772, -0.31951780846594297, -0.2867961328455299, -0.23529319386030484, 1.0388909527893977, -1.6718765364665942, 0.5836903577106931, 0.04741689064285883, 0.8699581923043571, 1.6336090660036842, -0.834061720430851, 0.591325651194247, 0.06760413545762317, 0.22828790352395245, -0.13712842469631112, 0.2549504771207777, 0.17972430462202088, -0.613394810985224, -0.2036646938414157, 0.5689820979824656, -0.7278822733773893, 1.4881147012884006, 0.8364581023441455, -1.990300514015057, 1.0671156057084996, 2.123254565538158, -0.8772078820107051, -1.0751828529250251, 1.6193292104171606, 0.5946197308562335, 1.6504815521566247, 0.3441483067637061, 0.7413740251040545, 2.2078042813598517, 0.8842673513808926, -0.4948020720313678, -0.6496884303886533, -0.1079098375586871, -0.07608075087435916, 0.6453564799286801, 0.2642226205731382, 1.3785343067170643, -1.7620719120211181, -1.1519111602788756, -0.4409111147394687, 1.7980646764123558, 0.009093243189484757, -1.1927883582129697, -0.25420283303264624, 0.6619819605781618, 1.3008072739688847, 0.6341265007168335, 1.2265133130195935, 0.4682596766692069, 1.0266447701380619, -0.9954896520175145, 0.8793564730124154, -1.9045209263806995, -1.44850664406662, 0.36662695546990054, 0.6315704792596942, 0.0218533816251074, 1.4074242596325446, 0.04391632684494703, -0.5333959260337227, -0.3410050437246062, -1.4080889403469787, 0.40627331023090496, -1.3799459768160927, 0.19627330346655164, 0.6189374414245579, 0.07064629927141049, -0.8496437777280084, 0.6362640364678754, 1.779953369545885, -0.3817218737119216, 0.32997955223680825, -0.3383932999632711, -0.8312327259785264, 0.11973595003080359, 0.45992743919666174, -0.24578367855918862, 0.5212258810226646, -0.5812380267975619, -2.085097181634532, 0.7274590708654762, 1.2471977558192555, 2.3441465573019973, -0.5035627252442724, -0.23639639842285384, 0.16927308836317073, -2.1289634291283117, -0.3554288311539282, 1.0487798291446007, 1.3824432843254169, -0.7887907676027165, 0.6294289938193326, 0.45286744309050303, -1.2472282437836415, -0.30681085862119933, 1.2837311391799637, -0.7560073081568529, -0.8574725633174287, -0.7016978790391731, -0.8539837787255316, 0.29707713733249647, -0.28787444531922557, 1.6649869142517097, 0.9203711969923647, 0.85634456250367, 0.8304340442392785, 0.9981140342842304, -0.12693574152535916, 1.4223314488422054, -0.05056890216446737, 1.0656859952311704, -0.8799369715777402, 0.17174227510569626, -1.0663188792225957, 0.9336777447158772, -1.0030346483648065, 1.2482324593675835, 0.37356133354016313, 0.4161010072011614, 2.4132050566132492, -1.9972364797119346, -0.0792995248131663, 0.8351987153633375, 0.12539479239579127, 1.5598860228325673, 0.044958266651649224, 0.34995219066382266, 0.5705299245073451, 0.3413214939407623, 0.37521848933778057, 1.6621811065020358, 0.24333105344767458, -0.008542483199558333, 1.0171473898911818, 0.15337649617933238, 0.2676333419991327, -0.026181430234970274, -0.38774375982552745, -0.29959539438431104, 0.7111687586544825, -0.1707273150523402, 0.5231060327322721, 0.4083838551930301, -0.38982563079920446, -0.516116859128172, 0.4307087030525131, 0.3465512162557102, 1.3691707998962999, -0.38515442136349126, -0.8430756091820775, 1.1807805753201113, -0.29840676270360195, 0.1433495399810163, -1.2467018451036174, -0.1286531725233277, -0.47964398885218246, 1.250074482761805, -1.528140918536116, -0.012860808420975216, -0.6569697962149612, 0.004271649472036882, -0.13785574083678429, -0.5530391393439047, -0.5348926155483068, 0.9106821526907668, 0.5573321040633529, 0.05564187599084075, 1.9699852487692762, -1.339938711673942, 0.5539105867152139, -0.6321445968920714, -1.5103570334069383, 1.8635322174567663, 0.5496090542304461, 0.17061996270939034, -1.6297275079546032, -0.2594910416795576, 0.04412060465228369, 0.4665736737234784, 0.1396084294002028, 0.1549331442247713, 0.7662708122995087, 0.3645498686511906, 0.2707183659391064, 1.6429364068762968, -2.1194254790227514, 2.363865553632938, -0.22199273848917772, -0.4610843175237868, 0.4622283495068926, 0.18166860704660015, -0.4991413751789647, -0.24544891418567982, -0.8514932401376268, -0.4308933830449257, 1.8972179249070857, 0.16302435815403127, 0.20487504199934486, 0.11589422450015624, 1.010003764288105, 2.3166536764463026, 0.3129409424894753, 0.5917490619398244, -0.040555542775139335, 1.308584265638954, 1.4754057223349917, -0.011293510789089684, 1.7476790122861112, 0.4594771073602323, -0.973936882255693, -1.0080454542196775, -0.45379295795066077, 2.2709672708313864, -0.025275424324279552, 0.6518511462388719, 0.9022096438381969, 0.6757809699958494, 1.3727749427009628, -0.041682238969895306, 0.7101944945817023, -0.905978126226611, 0.04699319569349765, -0.46103522839988664, -0.3643803952775618, 0.9353071889395455, -0.03548047915055313, -1.1683790725645642, 0.2940355369639062, -2.149801657836386, -0.6485549719751996, 1.2462240408218195, 0.33826148642265297, 0.7102408479324775, -1.2972533771432573, 0.039616394852012356, -0.9105179910243505, 0.16439034782254622, -0.5638726632373556, -0.5172664701189545, -0.06618816304741507, 0.6506357489833843, -0.4648333874075709, -0.25968455969562354, -0.24169925743862453, -2.097761329415921, -0.9681144890532524, -1.046950659283096, 1.0752576628146842, 1.0057373839909631, 0.8986085581277558, 0.3862564280728056, 0.026907402056531256, -0.2777544373914186, 1.305392271153466, -1.2380760064214116, -0.1690962962918587, -1.0229469708261134, -0.5635205797146632, 0.2270113680091826, -0.11356349210139546, 0.18866845974599716, -0.5368403791166829, -0.17563423399024158, -1.7884432335650677, 0.9063147227681815, -0.2249473255404046, 0.9218521345390174, 0.5286654768407412, -0.9514111841277088, -0.1767978206780282, 2.012935348534111, 0.014692477709751765, 1.4379559270851825, 0.39379797789233456, -0.19182372096943792, -0.8735366081585362, 0.9602492332924009, 0.6377671257531019, -0.7824993621986147, -0.7805102404768676, -0.031019814073479503], [-0.21067423216682354, 0.49262384185970187, 0.10538813764850058, -0.45022503712042394, 0.22518404100494804, -0.12036732304981625, -0.6517612610173313, 0.869702935484846, -0.19090441557556784, 0.020469637111044967, 0.68420621315119, -0.5466555678880907, 0.10215281332540682, 0.0272049324460022, -1.154206971599274, -0.8195724952301888, -0.2877790332839134, 1.7383516906916334, -1.0529422560885582, -1.0487753908697177, 1.4458802187878634, 1.7022513751670005, -0.6929696002172002, -0.24081177812307314, 1.4651514632108404, -0.020145860130808883, 1.0011042328157393, 0.4168157464742328, 0.5190848708868658, 0.6867566005926797, -0.30307079521398855, -0.1607447170897769, 0.42469762756018675, 0.6456059640602194, 0.6874738064704637, -1.1343752265299147, -0.7745390740497057, 0.7927682018678104, -1.0901359171103298, -1.5804784859189456, -0.9090934912358294, 1.4337542185722179, 0.3541322640165316, -0.32441716711857516, 1.0044121129668695, -0.5775885843455814, -0.07366320510823328, -2.3999305986549344, 0.8247287784014229, 1.5630360397322676, -1.4468110344867835, -2.0710948687492077, 0.38744974086283357, -1.1850292400538245, -0.12204440820843683, 0.8628052644408277, 0.6042011665025495, -1.2406060845651825, -0.7711906469192565, -1.0897847267411325, 0.6537222544703318, -1.1453488251632906, -0.5170452583262396, -0.7660182497370654, -0.7891159252283437, 1.50195780080667, -0.8529014530951182, 2.3550009391574935, -0.32397472413457384, -0.594712040740141, -0.11450021996722677, -0.5859697412621024, -0.6605325951558939, -0.374198646561557, -0.8382426691134993, 0.5097766265784386, -0.17007765243571465, -1.0238784600971456, 0.5297506478437302, -0.6766132208277986, 0.4347853238494787, -2.096800036093067, -0.010029247793934826, -0.07459443479463751, -2.046852224874813, -0.16970087589572588, -0.46546298667495956, 0.22086081126248897, -1.1184544926609001, -0.10888365347672696, -0.550319879303306, -1.8271059153631772, -1.3014761525292666, 1.0951393986358118, -1.3755932559413602, 0.1484012866814051, -0.2950432248111648, 0.9362037785141847, -0.32350848883467004, -2.5335755838849274, 0.4249821693557191, -0.9299629207918705, -0.15715820751015352, 0.03466604258626001, -0.48413830852528134, -0.11337460225833218, -0.8452851530797971, 0.054364994754070695, -0.797788811277847, -0.44035056568958975, 0.17958423900817314, -0.05827156307943379, 0.2337540963857156, 0.6206663290050961, -0.2121672397135073, 1.5404548820536665, -0.020291270421890134, 0.35538681990291493, -1.3417838339476895, 0.9926667836113185, -0.04319257322873677, 1.8946480434606263, 0.3794365889643263, -0.12154660616596662, -2.7379769524164463, 1.1714092382464523, 0.5529768965038453, -0.7928942477556327, 0.9904109495145812, 0.5420981294872788, -1.2759549632194758, 0.20964444390665907, 1.419004776656983, 0.8526063618521178, -0.29396592324155646, 0.9516526001594079, 1.4380600864192077, 0.14486822426441476, -0.3736542970561215, -0.15335553083559134, 1.0391844339317329, -1.2251075857136593, -0.8167425883518746, 1.1409313030772852, 0.7299335396794697, 1.060205317371142, 1.5168702920314714, 0.10806082816608362, 0.8773708699552403, 1.666454922101882, 2.1936783015256816, -1.9455038566178218, -0.025583771124506643, 1.1765227501949642, 0.1392718691492295, -2.8807030056334524, 0.8568494493689758, 0.02989424715187081, 1.502193630431505, 0.7893430844364282, 0.26755598171216244, 1.0361866245217353, 1.0965263718279197, 1.133025422408506, -0.7715173789274744, 0.7654585394245013, 0.11025350872233962, -0.6181606180963036, -0.4766638729939877, 0.18913824607419213, -0.9363148642513177, -1.064063471829709, 1.6423819634516452, 1.914872796246813, 0.11627884988519428, 0.5418944042367126, -1.1846594268777595, -1.5396725645717375, -0.7627600564375498, -0.22597459665904637, -0.25996409338424314, -1.0824093549345088, 1.0147361241564952, 1.2524958281812582, 1.350546619389344, 0.3893609970224096, 0.8279245981898236, -1.3659977646104138, -0.8538943979781091, 0.4855471106719631, 1.254201314953662, -0.3538633363664365, -0.24849399800793773, -0.8509872172708906, -0.37206791930521166, -0.6542740573300727, -1.136369527973458, 1.4716103506492093, -1.9641016482224785, 1.785240525233203, 0.7357533038353442, 1.5245229893001027, -0.2268265863861932, -2.0651612298841298, 1.1284118524868394, -0.1959878129760546, -0.9876658920197171, -0.8420432495008651, -0.9071626897417392, 1.5894130776493052, -1.6596281338804466, -1.092261457568633, -1.2015366916315273, -0.5763713799275031, -0.6496623717161614, -0.27696821922564635, 1.638964278425626, -1.2189989324882167, -0.46052563661485096, -0.8364434702496861, -0.9699584589017888, 1.2289105134649514, 1.450987541326048, -0.1930380747557892, 1.0499501755631324, -0.6176896236370647, 0.3621061206195571, 1.248867583727762, -1.1560692969702744, 2.1038547249194695, -0.40651251794474097, 0.9564252291477194, -0.34490781393456316, -1.7879048520978233, -0.525847506963096, 0.00545830069343429, 0.08450485807154881, -1.632504613903847, -1.6179801844714659, 0.49554904245966963, 0.3492198418737213, -0.4494565933982076, -0.8284559282634089, 0.7985705602507305, -1.9114656205563632, 0.5695283125342894, 0.6742815738411926, 0.7562204532347181, 1.4339468434620615, -0.6694284351052885, 1.3041516103574515, 1.747307997831594, -0.41677269560706887, 0.04090703474141515, 0.5885097914271813, -1.7865650294184479, 0.32070662580186204, -0.6245690364409869, -0.43621278622531384, -0.7261371298694623, 0.8170733008901039, 0.2124011350898753, -1.6988679666071684, -0.0021447375522753516, -1.3394712848956971, -0.4258560013113274, 1.4382863833595814, 0.1109276572881038, -0.7074052768662283, -0.9027218028735412, -0.20430918878843582, 0.13434563305984035, 1.5839880121428025, -0.45553891141683145, 0.916074956985054, 0.5838098473474836, 0.9239807528466081, -0.8360108800202238, 0.450258126212859, 1.7230146755101328, 1.6771777192572352, -0.6059174520737571, -0.723110239610458, -1.9317842161440444, 0.5829444281036451, -0.7334215080361443, 0.6074499849254713, 0.9618704707147632, -0.14817576071429261, -0.987830220517939, 0.3601094900865702, -0.6640704730247429, 0.1905182704282951, 0.8007258805214225, 1.0328499998278118, -0.28732581869500784, -0.2897518134135766, 0.9190182278177919, 1.7811816621451722, -1.0496014430462002, 0.38861708043903626, -0.5604076896420422, -0.7228766407173436, -0.13653731675878944, -0.4958036705799365, -1.220321400289295, 0.8764738171797153, -1.3799037709136461, -0.6723685538622041, 1.879512342898934, 0.5771868817161061, -0.7870810318705654, 1.4665172112452425, 0.5974216797711306, 0.2851142118610971, -1.6646814073293001, 0.3823734437866071, -0.1413444914250741, 0.5884068833750055, 1.221943796360295, 0.19956209803503439, 0.5166190428347521, -1.0685041181529265, 0.40669591927783966, -1.4791070678628322, -0.260796770482159, -1.3196499734709548, 0.0667410946278419, -0.2147288622680047, 2.1269924925398196, -0.21948779082291625, -1.4261837099999517, -1.5555337166486274, -0.4550182027191531, 0.5495075115729722, 1.7563963610166107, -0.7092727231556399, -0.774102532782973, -1.2699646011647212, -0.8146114448967225, -1.311041570497245, 0.029644370525728228, -1.4720491847628687, 0.9185115643384868, -0.6448192882221145, 0.19920891262640458, 0.5356752591447789, -0.4085555704827923, -0.8361361866158776, 0.9942094242480994, -0.37417361464981386, -0.08579818778929509, 0.8532726994461333, 0.8456741580643339, 0.06183954824077034, 0.023955680357718792, -1.1042946060534582, 1.514789855724025, 1.8265548732946326, 1.4494808556590264, 0.8374758523057041, -1.725496482133741, 0.06633143326033822, 0.7095859393671093, -0.3210916552011182, -0.508667643755086, 1.671032084860333, 0.14056986752939638, -1.9805228158466746, -0.8409456812237869, 0.24695138232867844, 0.8718188816845351, 0.3154152213322183, 1.3604275184062813, -0.279993759669697, -0.42993974832062276, -0.5930494829883798, 0.746752167099554, -0.5747633517167315, -1.3121675199061917, 0.0036034265703065536, -1.5106080412961993, -0.34709426956379125, -0.27089486795868456, -0.25643691026418725, -1.1135641109433447, 0.15554175041748095, 0.10810222603097643, -0.14658886632948923, -1.1871851019426645, 0.11989550984311051, -0.5774664806091844, -0.878840457494659, 0.24003975338354192, -0.1113198820854068, 2.361902763408908, 1.39671305665659, 0.39182540035242575, -0.681593899766598, -1.1725329529504231, -0.5567940481352369, -0.7176079301466588, -2.6200562975050086, 2.8016611327214727, -0.6833603254040356, -0.49677373298631694, -0.4459939203025541, -0.20621075743058573, -2.9812997451065106, -0.7720592204961776, 1.1385636852490757, -1.9834124325857079, -0.6438633533186945, 0.8784182395253014, -0.5595812904639474, -0.09076962351393032, -0.7992005684714901, -0.4044340961078055, -0.25549119077821536, 0.5180850707210395, 2.216482527489779, -0.39170483692556474, -0.4745786548571333, 0.06128119565012255, -0.14573779777638268, -0.4139601848121919, 0.6006454631537967, 0.25181659137992823, -0.04125105173396826, 0.003191827252132439, -0.45422330098596364, -0.4112433027144083, -0.5317571436732034, 1.6039026872663527, -1.9321838010985823, -0.6410626375534315, 1.6995286356228063, 1.061878218863006, -0.6660351178345656, 0.6422285332674186, 1.136502441508214, -0.020259212357306107, 0.581132295429686, 0.7923606336086065, 1.256522616755658, -0.0516939752717571, 0.41374287498705525, 1.3017614662824692, 0.0994814681397386, 0.16636087966296903, 0.7844322148631488, -1.2410480127275, 1.8444927061172087, -0.9401277507675051, -0.16963221363135358, -1.2429499804474051, 0.9619751736958339, -0.9038784839090723, 1.4689858885249472, 0.6181955814473312, 0.2899918792119311, -2.2510402119129407, -0.3901431642667034, 1.0347280890019794, 0.19124142830149413, -1.2370335917333304, 0.9049702408568695, 0.16155947218555375, 1.044001038982961, 0.6662458125116147, -0.015356371819215748, -0.49005519732917957, 0.8276241019453479, 0.20728956297269083, -0.7595614683911462, -0.49656461180834904, 1.9375182165886276, 0.7167103906328496, -1.8608313913129837, 0.7689952515547752, -1.8711937785508899, 0.3242170912700679, 1.0020601505980398, 0.6260079912716747, 1.2108101031230913, -0.38311566998164964, 1.057799603626488, -0.4601342149664103, -2.602527922764371, -1.1304063101384876, 0.6295329338467008, -0.77873252275436, -0.1839802732324573, -1.683804654550088, -1.3124913186361022, 0.295023599573811, -0.8342437984126246, 1.3637340198207002, 0.3186386068832373, 1.3683075761291836, 1.1738216600990354, 0.3374767301394739, -0.4355053654387714, 0.1684262861878163, -0.5560842193069951, 0.048564892611032605, -0.21694077536755849, -1.4961728328338089, 0.2818461651987285, 0.9149668597768266, -0.720370108218928, -0.6957607868108829, 0.7167079130772355, -1.3820022834411225, 0.40501114764644264, -1.6084550418526338, -0.2965220293806158, -0.37770405974336857, -1.5974675027400365, 0.708649450943546, -1.5605952798131193, 0.5016377433548378, 0.7343952445729907, -0.32461040894325727, -0.7809189927965141, 1.521800721793887, 0.2331097217104584, -1.0358397829469386, -0.6389757507271968, -0.5930543119744621, -1.3822082173864958, -0.19364277719184644, -0.1810565769005306, -1.0188429714131804, 1.9775860749445893, 1.09300663877643, 1.3106671008976563, 0.7919863724474677, -1.2602179538243237, 1.650325679474461, 0.6832049619916947, -0.0759668481546762, 0.20508849452640765, -0.04345890330428605, 1.4674781208403387, -0.22618856332356466, -0.6443357626133334, -0.1585480631001766, 0.22902412231322328, -0.4007317678112407, 1.2717046413133484, 0.1866465628170961, -0.9073102318745467, -0.9882706738942947, 0.7327335046303479, -0.05723316932306127, 0.8184528608837268, 0.4962173283076156, -1.5640697903364003, -0.9486525377527723, 0.4943344195930416, -0.9074059281315366, -0.5602057518578778, -1.058960455461205, -1.6218973859842047, -1.1258446123475627, -0.6786663501338155, -0.18669019202858467, -1.7043538425649052, -0.37145898022067725, 0.12886097366696006, 2.0721034270221685, 0.26491750519305063, 0.474497664905117, -0.2693410487443274, 1.147374295314547, -0.4820880412794846, -1.158049640352916, -1.7350227039566295, 0.023387481207523785, 1.0575089396722839, 0.8942708797062573, -0.42537100374834635, -0.20983882428889486, 0.4357764630906507, 0.7327953560155605, -0.08146248003294411, 1.577025840207514, 0.0729195889391408, -1.2237410869372674, 0.0771419961702662, -0.5793714781805219, 0.8656029049610563, -1.2414768157162792, -0.6426220154319131, 1.0266735829898515, 0.21250337083316928, 0.6520425744351327, 0.8505534131467368, -2.3667031011318036, -0.925083854273811, -0.5304120033032919, -0.4730576097020234, 0.8684187910253532, -1.6838970441529901, 1.3577273713157567, -0.9688038736923925, 1.101223965553074, -1.3518147535141007, -1.2252437641488196, 0.027071523830517526, -0.2018263819108988, 1.3790936592418874, -0.34787146023447985, -0.9487721170508084, 0.5120151427775586, -0.7724946735226523, 1.7343481966277445, 0.25855242651448485, -0.91426962892665, -0.04026084242245508, -0.9534327553610878, 0.266402594916665, 0.8665779644077904, -1.7690440814019546, -0.5478459593671928, -1.3487415002208123, 2.118991763981252, -0.8027128971714221, 0.451758837995243, 0.8428879922489064, -0.6495346592302256, 0.3460306237933817, -1.4902960209842169, 1.8978389644493334, -0.10615797023210935, 0.7562286443151797, 0.849635594276422, -1.552110316202263, 2.046898374471253, 0.14714304249805138, -0.9917852149740738, -0.7196128545983032, -0.2260472582937868, -0.5208221336784856, -0.7485370814380886, 1.0869832410112528, 0.7917334566048103, -0.392269556860538, 0.3654658779350215, 0.2651392319281149, 1.393160218513223, -1.0263036257876086, 1.2235138631778606, 0.16786017886986312, 1.0488299038595224, 0.8317367496113455, 0.3221156357021882, -1.5251176554911, 0.7499204038973627, 0.4344199464728317, -0.6533398805098082, -0.6620772927075788, 1.1539397497443946, -0.5364158464266301, -1.003938606956155, 0.4610463343946435, 0.17792316251939586, -0.24775461265759446, -2.393832618343498, -1.6491705395664458, -3.1234422889403004, 0.3154839619485321, -0.28859125965664423, 0.13318932132099806, 0.6209969559545357, -0.798197854261778, -0.7898388073550411, 0.2893984986381244, 1.043012142974276, 1.2779474156729682, -0.736212206144689, -0.8748551594755658, -0.1867528915357433, 0.7365903222148619, -1.1612871639508082, -0.7197921351496201, -0.07743009401643014, 0.6971581911098493, -0.3932108702424361, 0.9432648830750586, 1.0923010572358327, -0.8190653969691223, -0.5033123196951206, -0.31041172317979454, 1.7900548752449372, 1.0639572906152706, -0.0007920215827903255, -0.7572809038573309, 0.8235447826793083, -1.5660311960842948, -1.0582383606974264, -0.5872066491481034, 0.13755154346221643, 0.9395644088409411, 0.5566764130265657, -0.5062132106279978, -1.3024717441197402, 1.8629566832225792, -0.24356839895127905, 0.10268532251623752, 0.5993865539554804, -0.9499278753243802, 0.8655015097773032, 2.8455721740871143, 1.5635384116978428, -0.9586106507163596, 0.3629704343842747, -0.05629550102719365, 0.8132613949578319, 0.5617989275728633, -0.5604255401081797, 0.8986306539476627, -0.04659224429614485, 0.30317331388649815, 0.12542514654893114, -0.45006529558207403, 0.9674944459039839, 0.5700753924907359, 2.6457164833764377, 0.2453804638800466, 0.002152260945497977, 1.9234657771714683, 0.3325523936029543, -0.2541142533060434, -0.6640170547374569, 0.4201608938142614, 0.06420567044317485, 0.17921871694755562, -0.8015235002553893, -1.3005409199548483, -0.6868962148288655, -0.32211429202866304, 0.32185902883808853, -1.5037962228231174, -0.6706588213421109, 0.0756842195185129, 1.8956259653842196, 0.9110381192713704, -0.3442439387077722, -0.6941972549165568, -0.07062208047312973, 1.2193067939358069, 2.4054157352200543, -0.870298280197206, -0.9048739680383419, -0.009823424593699193, 0.4766243204199295, -1.4195414616039246, -1.0314266465511406, 0.39214167066425776, 0.9090809735949168, -0.3901541542056163, 0.21618346780819997, 0.10280474518952147, -1.3996124618996142, -1.4293155302241776, 0.9159195892711884, -0.6526206174606479, 0.31733604966729567, -0.41287619671697023, 0.8315848247487883, 1.016929523278964, -0.7253849036709096, 0.5985342515609419, -1.6364825300359511, 1.2336204719526072, 0.6511793030782437, -0.36414755322461667, 0.9677529464262791, -1.2259897050207706, -0.015270253399494504, 1.1074133485506483, -0.6588572589752835], [-0.7424245265544428, 2.6140843539245364, -0.7519156826078288, 1.615183058612082, -0.7726623464481467, 0.24339148439302166, -0.16085993420121592, 1.0634498605963694, 1.0115401248613327, -0.11414342434028654, 1.6108908037627974, -1.4926484914872535, 1.2628844026325734, -0.7003020258757591, -0.7081804580755097, 0.35433628690864016, 0.8904509158877825, -0.2774657939107716, -0.5651484971684247, -3.7168082036919485, -0.764145503333095, -0.1641614722808746, -1.215473065213443, -1.0767295480390517, 0.47498207606735815, -1.828727902828586, 0.20787254143878664, 0.49645492227235494, 0.5706893285618971, 1.5099402539022888, 0.8191925884815534, 0.6950007488398308, -0.08183058559270655, 0.5280378566035725, 0.36392806417815604, 0.15093804557122578, -0.17402453528273104, -0.2597026184786807, -0.45619232781436464, 1.3259833466122486, 0.7218681606015215, -0.7926393025611386, 0.3348649007047775, -0.20601163603287112, -0.7368745133655354, 0.6019721612481945, -0.6594358089453901, 1.6077449145860714, -0.582477404858515, -1.1090863263046034, -0.444495269559042, -1.229256595462141, -0.5416580836655864, 0.3922959073973129, -0.10161771967461966, 0.9645692259557657, -0.7305905492727248, -0.34963890091850863, 0.1224303163550117, 1.0223181162691468, 0.37271969591440535, 1.4548302427939892, 1.4743407729803488, 0.6570679059803387, 0.24863705972671363, -1.321857877759319, 1.043531604580719, 0.49970322260045585, 2.6364003879030102, -1.5535914116214897, 0.21123474007736012, -1.3020360766470414, -1.071043724752524, 0.6933407326225711, 0.7306879814699295, 1.4288268504141073, 1.1597714936567987, -0.26751078943151513, -0.3320335449696153, 0.6609418472405502, 1.4473438212436118, 0.48611328917028895, -0.20971586282173388, -0.6808174062262474, 3.0734408982086423, 1.5382013881254823, -0.3798478879238163, 0.11597058915486025, 1.9554768379768546, 0.36489318370666546, -1.4636730670491411, 0.38707396828995994, -0.04148356728730001, -0.48061295960406075, 0.9046021904305847, -1.4836026289540838, 0.9146580541768589, -2.0350650142216264, -0.24847750059323612, -0.9123498221809371, -1.0723735926767235, 0.5106173152927724, -0.5025442288505723, 0.12824640710124918, 0.10106045809121551, -0.2918877348747515, 0.05112222141562924, 1.5809276504559369, -0.8378297765086478, 0.3632298083189204, 0.5195717078803562, -0.41613307220816004, -1.344788770679739, 0.4266317415193261, -0.2125793605502801, 2.685185742404678, 1.9947118658689136, 0.42198092975990714, 0.3180282071366162, -0.3227605277905889, -0.4830076361948726, 1.4262063969337588, 0.004751227652084318, -0.022796135283928435, -0.4036871643432831, -0.6986629080949216, 0.706765057788347, -0.572510809242526, 1.2918443444018959, 0.8259499644981021, 0.7494881861664305, 0.7638821718644888, -0.004107913245907947, 0.639872177714163, -1.3440383191454304, 0.10420678409877641, 0.15663434191997433, 0.45629891956073965, 0.5902980360334747, 1.4385542459100111, 0.7383733805277702, 1.5588323133002848, -1.3191343217436364, 0.08587049178415432, 0.37251697138396167, 0.9765549023078938, -1.4295280640179704, 1.1508395441216015, 0.49532987675440543, 0.8085656530528434, -0.23773036390982805, -0.4655462853585446, -0.5679474149003008, -0.5916645852185142, 1.2026582231018152, -1.526499143540402, 0.4602678445064322, 2.2328006588813367, -1.21705750834292, 0.8973015423374567, -0.3547240814251846, -0.3024956443330225, 0.567616644014027, 0.13467556369062622, 1.734743721978268, 1.0463700905347353, 0.030079628079145593, 0.8184766432040413, 1.1830381073848237, 1.7494931897859392, -0.12248748289218628, 0.6189730728652643, -1.2290201088725392, -0.43357673680739306, 1.017152435714761, -1.33508985055699, 0.06762808768429172, 1.1112699310831333, -0.48306734296384807, -0.3729967348803639, 0.041220751678463424, 0.4631952527794708, 0.47304721629523133, -0.37120212042401063, -0.660125642943369, 0.8900530380847512, 0.35815706329643465, -0.5307843807200336, 0.13492504108909917, -1.4549025242733746, -0.6426397953551708, 1.8228388646510294, -0.7021338384071666, 0.5274700507817769, -0.00914133410927575, 0.0792024672807571, 0.08146960860635498, -0.3205089303452569, 1.4558519469803097, -1.1828831122022723, -1.1006208193417384, 0.061301495898882806, 2.479117174383115, 0.5694893621202379, -0.10668775033324715, -0.3109090069085596, -0.1745298270836586, -0.6607890910425093, -1.4291178464678678, -2.0630106759500584, -1.0347132445556357, 0.35945082854221877, 0.40293214530799043, 0.26690705552334326, 0.5716329115656267, 0.09346244298447448, 0.15140438017316904, 0.8786747813204706, -1.5880088650721929, 0.8403030572764069, 1.5700996543428063, 0.1189678379170724, 0.795440473244162, -2.1409701227847795, -0.5680282947469384, -0.6352118850466817, -2.1488842686168343, -0.2464190911840016, -1.1505772895212711, -2.122367180102809, -1.009476876964433, -0.24648883270524227, 0.44817620975534234, -0.10478915400612084, -0.506662177273866, 0.9841747927548926, -0.2746885072068231, -0.2169853465436073, 0.18560583309083778, -1.7552475652631654, 0.48512524404391544, 0.1706487540701711, -0.1915226442485147, 1.7997435650366589, -1.5199252972252597, -0.00783568036718984, 1.7471355748648576, 0.2165964899017762, 1.4304894216927793, 0.11154306028509227, 0.08641534266365715, -0.11504810786323126, 1.2335540341232816, 0.634875955701559, 1.1935191472904645, -0.6722559020335931, 0.7811489303663502, 2.332106037169102, 1.4725957277346824, 0.9131968111823536, -1.2788556038013912, -0.7626093733959024, -0.8514581747891594, -0.43793700471169217, -1.2876052480407625, -0.599609078484377, -0.30157808306857675, 0.18563928794207205, 1.3330179551024903, 0.31283917096623304, 1.355850506732263, -0.05033659992513587, 0.38976904400285983, -1.3249358548624384, 0.838083510709741, 1.508115153750747, -0.20539025191730217, -2.331212981412816, -0.824086904811513, -1.6781337654411264, 2.2362209853882913, 0.5553042680109296, -0.4674675462080102, 0.9564843679699278, 0.38606802109107086, -0.7893110968288721, 1.918132459398657, -0.2032215030474901, -1.1287492284514684, -0.6630914667968122, 0.37995700213168143, -0.5976434580902803, -0.8142125286433969, 0.12506596618105412, 0.1570796056771748, -0.3950254820416359, 0.5807667749601764, -2.134848654610743, -0.23299183635099394, -1.53337452258349, -0.6158251057688297, -2.1430216016211903, -0.3173177899229931, -0.8260778412155799, -1.2147599833445315, -0.36195671971263266, -1.0302756960509138, 0.2808063208777274, -1.2728565256425195, 0.9917697397186768, 0.98991075356159, 1.7846148325547895, 0.3582548850893422, -1.0981168728204607, -0.5170907118781212, -0.4461488439018369, 0.9522365488102189, 1.5018919625877416, 0.2638024432814702, -0.04494124987212568, 0.7478324725158845, 0.519189234570046, -0.9151328254629127, 1.7789698333554458, -0.17879472101039764, 0.16948038059459383, 0.6497850649271546, 0.3537758751063834, -0.3670361454797339, -0.37832305394479515, 0.34357672583075094, -0.5109607708843454, -1.2405357421903613, -1.4612462332150529, 0.4894024571712426, 0.43346141000149385, -0.4984594645620695, -0.7840077071915492, 1.3169566317865198, -2.7043711994304593, -1.1727694428011592, -0.4583278502873189, 1.0123522769157483, 1.6052003880305228, 0.569687240643988, 0.7133557891525735, 0.25016363986896517, 0.0802330330333674, 0.6101706169376385, -0.41372791869741754, 0.08764701095251605, 0.16010826862469696, 1.379168788672316, 0.3897487399314479, -0.22505404560973058, -0.3990877201177952, -0.390314579776624, -1.0648829876522445, -0.25279603703924197, 1.121597407865852, -0.14609159888739706, -0.09502139121654318, 0.9692153159299768, 1.893032567037589, 1.2829153052552684, 0.9141070384486326, 0.3433440601782886, 0.4850605617144967, 1.3642781511239785, -0.5505092763370586, 0.5470633776449809, -0.45639234835020676, -1.1927085168585865, -1.238619707287886, 0.7446475203773398, -0.3160000092964305, 0.4729965988415008, -1.2035476942315064, 0.471342121830826, 0.20425165114867863, -1.7424791518097165, 0.4004685209378825, -0.40178913198469124, -1.2494832776436267, -0.5702284976297093, -0.5096599785304363, 1.1425412993146213, -0.12852688267392626, -1.4419696947621028, -0.4985942604832163, -1.0664199283945792, -0.21564099763554348, 1.4892248850948424, -0.0951389031107241, 0.6021479529125007, 0.15230612874839047, -0.8014299362369958, -0.9104946382207418, -0.3061079569982131, 1.2586830618103666, -0.14385694584048656, -0.19686199205616525, 0.96980380685173, -0.24666992026555862, 0.34116395088466783, 1.493130634026362, 1.4693272847498928, -0.07066849572182679, -0.6862219531226629, -1.1885764218191515, -0.14899653360073886, -0.10091792367760737, -0.34011410618712634, 0.05801926710154628, -0.2947723477931654, -0.5097031288031645, 0.1484613243872286, -0.3928114776054076, -0.13166469036744963, -0.04771015897096314, 0.12685328517336728, 0.2515285128511506, 0.9904032359944115, 0.6715672036266653, -0.37283775391221, 0.711803933593133, 0.22577572255887232, 0.6388877552678182, 0.25411631831633685, 0.07761860407080978, 0.316324096802438, 1.1569490695828877, -1.3339454653971665, 0.8737620203907881, 0.29151399762596536, -0.8058871980203709, -0.03706488496441864, 0.7744048045573206, -0.9550283786186089, 0.5479798837149672, -0.4225671075003819, 0.5932605719942599, 0.7010667953089146, -0.0001096594532734704, -0.7346554972479756, -0.2135894066309744, 0.033898440634364896, -0.5414360837894118, 0.5478252879765075, 0.47649887997264556, 0.6630342192305653, 0.6315642255936629, -0.7283217152709129, -0.5875433991748527, 0.10753121384361565, 0.14332747301888352, -0.6986043778061629, -0.6878614866409529, 0.09805439947076328, 0.6027147199735322, -1.4391122814580461, 0.17049992013104193, -1.1584432714720205, 0.2750950034511383, -0.3844068381463938, -0.4387007175523329, 0.43137670982861215, 0.8587347991982476, 1.3593956347877019, 1.0759216469557322, 0.6190189813823425, 0.018591605454931305, 0.8631062130221369, 0.3307947408193031, -1.647351065030253, 2.8926254392094273, -1.2829935789395548, -1.0058259715335789, -0.14994125856011814, -0.4542761103136235, -0.5611333226150305, 0.5145495748389391, -0.1261052537419474, 1.8502479344252711, -0.5677813498146341, 0.6852793675843688, -0.39692043672321287, -0.042983304668180865, -0.3391650654117347, 0.4642164678740077, -1.1997976151063885, 0.32514607072910273, 0.8151838471399794, 0.17472870135229313, -0.5859612562527035, 0.15310461509738302, -0.1947144103592883, -1.2984841163033565, 0.41020273943232216, 0.9768002031158067, 0.10641462271832265, -0.9201974690021758, 0.5059257551248876, -0.6210765730526253, 1.1401658302245803, -0.17487581997917107, -0.03102677455127501, -1.31757321334812, 0.6169023038843352, -0.49441577701316397, 1.0550721422008316, 0.7522617647196248, 0.6112730315518213, 0.18379795040369218, 0.33806353312081777, 1.0414713979701087, 0.009743962972374608, -0.9244612201566148, 0.4792946480088497, 0.010213632216208033, 1.1512093901974765, -0.04971093301999554, 0.9656210523887656, -1.0555588736520447, -0.5414861311753721, -1.1921744351659969, 0.9353583323232948, -0.1478059241408259, 0.4919199046698239, 0.2638903560648645, -0.12289412495897675, -1.1800162978142057, 0.4140863285820366, -0.04423638361270489, 0.24316397286870509, 2.268603324317197, -0.9030675099528586, 0.41052120907874823, 1.6746073182893102, 1.3967304084507732, 0.5944438674265801, 0.4028380012185659, -1.2932838639306596, -0.33754725615461323, 1.5440842324405943, -1.1525274491940853, 0.39356817675592914, 0.4001638268526031, 0.24770138419366777, 0.7405231249485379, -0.742656306594994, -0.8413982397078426, 0.1611495371567227, 0.669891516626061, -0.3643434085230127, 0.543365614093251, 1.1823985194852693, 1.755087544078466, -0.5024333865454723, 0.9052726190048354, -0.35011970806056564, 0.46111765710539176, 0.20294721319116946, -0.8842948841057634, 0.3390480870188418, -0.8730462098739156, 2.5958057930463907, -1.3233187388362737, -0.2684531470248483, -2.5879115677396927, -0.579068851105313, -0.012950009361199307, -1.1442055135469407, 0.027169351299389934, 1.1457260024332503, 1.1896864803644915, 1.69028750278736, -0.7468680236259526, 1.0283092025852434, 0.9935022411589661, -0.07729847779895814, -0.23193727424296096, 1.5623920816393073, 1.297838941227877, 0.583093508855439, -0.8587347177551663, 0.42529127344120415, -0.7157184255584116, 0.7712774180592048, 0.45572141020931045, 0.1314425942965746, 1.2647981220760305, -0.7457978564724114, -0.13683184380942445, 0.37387909568593597, 0.3851690460010744, -1.7117851071745442, -0.18220045925373704, -0.4197224362924818, 1.1851941787885742, -0.8878864849359196, 0.5575603412635395, -0.4495112695845311, -1.0186226702590506, -0.5471647301693472, -2.3672885282858815, -0.5785750680199582, 0.6884479125904297, 0.30437638753239715, -0.2964538714749902, -0.6068394763177658, 1.9288898342443828, 1.302626941127591, 0.9929335968354355, 0.9461720267969035, -0.2453004623074912, 0.5311425984454649, 1.4775331059388206, 0.009849812599008832, 1.3684515836244722, 0.20022999025431018, -1.9589299802200564, -1.6340564352949538, 1.0811386889259647, -0.2754997408260664, 0.02681127268674688, -0.9419344222313487, 0.570438514953776, 0.2818168832600591, -0.6363869270154919, 1.1330335797678943, 0.7207811365492323, 0.8738498110501568, 0.029922952178077323, 0.6589427148577932, 0.19376915125186947, -0.30651611325243105, 0.8990608668200681, 0.06182053106363164, -0.02217001451758657, 2.039048155447286, -0.5692884262018697, -0.10187347669063246, -0.11452546835948503, 0.34525496340824524, -1.059460497774242, -0.29077638326750455, 0.010659788090728836, -1.508672368909636, 0.8040035137781207, -0.9187786320194322, -0.37714115216116945, -1.3573452577451273, -1.1543919829315727, -0.5352279858135405, -0.35656867001112547, -1.3135433337274405, -0.8201717128306785, 1.0781062764807972, -0.9129656463432362, -0.8734563235069043, 0.4839698433539623, -0.8015049881725063, -1.4584268208000202, 0.03439388617853944, -0.5129160965780212, 0.051161130612425595, 0.9079776436104567, -0.21003087133658024, 0.4396629296707828, 0.01991763794143929, -0.5618636588436411, -0.611271553107816, -1.8101575035524204, 1.4584192645184462, -0.3573129714672291, -0.9195297428334026, -0.7477999034490856, -0.5934679196241541, 0.6287290836636784, 1.4861785068216622, -1.2481685253796415, -0.9084571898173063, -1.5091574167393906, 0.42952147569578686, -0.9505329470534587, 0.15442939694649874, -0.1695809436363904, -0.9962661495494681, 0.9064376114636861, -1.253294077281269, 0.20376024979639062, 1.2343306973502015, 1.1131891468793877, 0.5380509828290179, -0.917660793312074, 0.27196417408822177, -0.40392466582318903, -1.283922852057823, 0.190568255832648, 0.26813688981604916, 0.9738316608957479, -1.7616997874278655, 1.011006981896513, 0.908904764171746, 1.4266610774188024, 1.3066318041828362, -0.3932017057622005, 0.819378279003823, -0.3020573361456944, -1.2295285365601858, 2.0326182473657775, -0.15673505110126457, 0.21066953940068234, 0.0979704465693148, 0.11810923499344518, 0.9315963271316087, -0.8465229654601333, -0.22907621155661628, -0.45896701115415034, 1.407190326589335, -0.09881262013849475, -0.5423521522205799, -0.654990651782651, 0.3228090242669133, -1.0955443847896298, 0.8158382042395877, -0.37124971017891745, -0.5062941032463837, -0.8184364019094184, 1.0367096496234924, 0.5245546096197787, -0.7007278366198484, 0.44112855714965515, -0.4116650893260175, 0.9263199616489021, -0.3161269508347921, -1.7179198267214533, 0.4950203325601148, -0.2930673018108558, 1.2967803420825508, 0.933002362510702, -1.5150119274202671, -1.098611254457755, -0.5551094116719069, -0.34079713016387025, -1.2840454829191228, -2.2394165975007687, -0.08907182641769969, 1.0908884210784162, -1.112451653014724, 0.48241333487680566, -0.3795647053834411, 0.18674458403449323, -0.11536910871879236, 2.1817237779954675, 0.5466600890150047, 0.17878738407580616, 1.0598250487048992, 0.5809994130660966, 0.44385895746568393, 0.9459911346147633, -0.5743680239755459, 0.004092866236584606, -1.9646808112448544, 0.5459361468007051, 0.05682340043666725, 0.5326212460571937, 0.3230950535218846, 1.0337923342100692, -0.008842427621742284, -0.22480007243857633, -0.09959025341681699, 0.6966924328490453, 1.3623153579119271, 0.7945288290387379, 0.2857890798396922, 0.4544625308592935, 0.5555049624987431, 0.38032554012341524, -1.188913974503728, 0.3912433620195522, 0.628910964448579, 0.26219106269232584], [-1.8200506279974809, -1.0447486638397947, -0.1937816690604919, -0.22975804958276239, -0.0313916015561575, 0.49012148507106496, 1.7165390236089575, -1.5920118983002685, -1.376063184185918, -0.9296375619770681, 0.8597182718541378, -0.10755668964896145, 0.8963967735313871, -1.3569058113243488, 1.4701912629412588, 0.5579854846101872, -0.0109174097296231, -1.2778798571113599, 0.4293264129753691, 1.5621841641664183, -0.6894132943786077, -0.7969087103573853, -2.6785423350734545, 0.6651596379346176, 1.2205503796227994, 0.629587115040405, 0.885152187481581, -0.40009195375722933, -0.9636497734597078, 0.20502341298782037, -0.7578911420485482, 0.8854306834639777, 0.5968501298710814, 0.5578283646378637, 1.8329774431516357, 0.682691252674905, 1.0120707546599443, -3.12229696212849, 0.6061357205722191, -0.24841332240903088, -0.4052500095184045, 1.9851388520385373, 1.3126267659882798, -1.3217742663066658, -1.0120718202682721, -0.6763437731732198, 0.8678557338316394, 0.27309853096706693, -0.19698013778668028, -2.299823384535123, -0.23165433111011827, -0.8564939115960211, 0.8560753593316802, -0.2384266613085481, -0.4292278633147891, -0.625497415960462, -0.5613233936185916, 1.054418369129466, 0.7668374459948948, 0.17883061352555152, 0.14614011333340413, -1.1946511408304294, -0.5819061986945705, -0.8107372162666923, -0.1498683057434775, -0.21663639476033725, -2.669093304472928, -2.335996094987434, -2.2737351685365654, -0.5635956210871402, -1.4310572673945885, -0.3505562783585637, -0.5420128456522458, -1.2968643149522256, 0.5485615672055154, -0.04463179272230736, -0.06438661626457935, 0.6163164194527477, 2.230985773672321, 0.44783141431318874, 1.7266097027961649, -0.5276350717127682, -0.010752977500824958, -1.8059223593427411, 0.17506628567383878, -0.28177614132826434, -1.3901758306451713, -1.2042606500721198, 0.9927118305544709, 1.532976372314013, -0.9400067096420978, -2.2784485398664205, -0.8255924700669662, 