(model = {
  "num_layers": 3,
  "sizez": [784, 30, 10],
  "biases": [
    [
      [1.1710245044863414],
      [-0.5781942722367365],
      [0.44400927164413717],
      [-1.538595279672654],
      [-5.934596010209915],
      [0.7477877437136071],
      [1.0213411394063427],
      [-0.8788445882388715],
      [-2.0182221987831412],
      [-0.4444884875192221],
      [-1.6863888051218123],
      [-0.30305951781588675],
      [4.465228325144494],
      [-0.4869979850449723],
      [0.8473180691742784],
      [0.1609330125258592],
      [0.9310039944919904],
      [0.3605187813682331],
      [-0.8148550046003423],
      [1.771423023827299],
      [-0.32904820751996045],
      [-1.9320063887136794],
      [1.4924985939307795],
      [0.3421281053950018],
      [-1.1485400317553567],
      [2.3781563991575774],
      [1.196226649885494],
      [-1.2930922481502285],
      [-2.2631213338291087],
      [-2.3973021961431638]
    ],
    [
      [-1.0190713288301774],
      [-2.0443307937136863],
      [-2.430445881027774],
      [-2.796214401127172],
      [-4.020934640111942],
      [-0.4616586003095744],
      [-6.430088801373785],
      [-3.532566366296144],
      [-6.109313587331446],
      [-4.356302493824823]
    ]
  ],
  "weights": [
    [
      [
        1.1482715913182722,
        -0.08771440082918652,
        1.2200398528783036,
        -1.0005430491937723,
        -0.6579424814977913,
        -1.5118091176098596,
        0.4451937941715403,
        -0.418104460829504,
        0.40100962980829824,
        0.724340896623038,
        -0.6911458589414916,
        0.40724593041815893,
        1.8968143543081124,
        0.17674665878192022,
        1.4730141769677858,
        0.34373386554469787,
        0.7080478536986926,
        1.5024917057477933,
        0.5354634160702838,
        -0.17449571220501525,
        -0.7775460355182513,
        0.6593474633556081,
        0.5663330132725093,
        0.3354417046260602,
        -1.1413656580708536,
        1.2783875210591555,
        -0.8728582619021643,
        -0.5590742588326645,
        0.1275060388495133,
        0.9842916607898214,
        0.1320680196247575,
        1.775170801459739,
        -1.2467999832857415,
        0.6589401247287283,
        -0.6000573870187977,
        0.45853272835983694,
        -0.8172540639880777,
        -0.11586078307855276,
        0.36852741938068256,
        1.1400368386856399,
        1.2189187498258527,
        0.531883521030904,
        1.420753998850659,
        0.4879032977994187,
        0.5835003270986542,
        0.8893684041470081,
        -1.0321337400006563,
        0.6649579909501341,
        0.25168435778596127,
        0.04328373829279941,
        -0.4946565555159524,
        1.2812644403792806,
        0.7860873289412116,
        -0.41975665793806827,
        -0.1353288337404971,
        0.4187072698410514,
        -1.140106406947052,
        0.18681452185378128,
        -0.5704872429358924,
        -0.3656509278443512,
        -0.8516116419305613,
        -1.023967876534528,
        -0.3234364890345099,
        -0.09299186746613332,
        0.5082514442604501,
        -0.0754293901507453,
        0.6451717512706279,
        -1.869422833403652,
        -0.6368765893112677,
        -0.22909626083496973,
        -0.9569436342909404,
        1.1342659371574888,
        0.5626170575531625,
        0.07551957980051653,
        -0.7947042864086442,
        0.08958254461736163,
        -1.284097301038444,
        0.5232812273634575,
        -0.7068875788090204,
        2.1036073563745403,
        0.0010683584900949019,
        0.13803374344541053,
        -1.072719916255706,
        -1.5384236994324634,
        1.825482649281512,
        -0.9587368219917549,
        -0.7465326973426475,
        -0.754617767394467,
        -0.7213464557357622,
        0.3844935513659843,
        0.46892935876417075,
        -0.5210134098465216,
        1.014799372621119,
        0.17504779591003963,
        -1.4279396093140604,
        0.16756207126675557,
        -1.1076144175163494,
        -0.38432500541990655,
        -1.039533353864461,
        -1.8767823016803422,
        -0.03245636761890403,
        -1.0494114923477078,
        -0.7169306138288187,
        -0.8324601203008762,
        -1.32723447624621,
        1.091921396815276,
        -0.7518146666190992,
        -0.8319009191098011,
        -0.8474054312961746,
        -0.5178304865319906,
        0.2045668863782328,
        -1.1000416724421487,
        0.18740526630046273,
        0.0664133211363721,
        0.1266235578964726,
        0.9596911131611989,
        2.0338136733652687,
        1.4684896784393746,
        1.0640066899255667,
        1.4468450823852208,
        -1.0982405622983273,
        -0.2159334644836858,
        -3.0184125823683616,
        0.05386808175544801,
        -2.0031204590270466,
        -0.5201036672743303,
        0.5635503599162377,
        1.2801106994395226,
        0.8393356269941225,
        0.02032662479006914,
        1.9454671222228475,
        -1.5839708711834741,
        -1.7771882174102094,
        0.5524928267572223,
        0.4586618040563407,
        0.10169466836449485,
        -1.0751020326318694,
        0.46551669180554966,
        -1.5168250393546265,
        0.42837017131075655,
        -0.6244072809709449,
        0.3214845405622077,
        0.818618659647163,
        0.1867080485965067,
        0.5559180474409106,
        1.4008089306030815,
        -1.2892256861821345,
        -1.715817286003464,
        -0.11834927740685165,
        -1.3627726088505878,
        1.0655355780806266,
        0.9355383374286221,
        0.3524028208340958,
        2.1283201051320173,
        -1.312519556794118,
        -0.2904170457115446,
        1.4496401905835006,
        0.4119599554176986,
        1.3031789845204382,
        -0.7652461969050183,
        -0.2866986060990593,
        1.2308223081612113,
        0.13267424586007934,
        -0.6169739325217121,
        0.23530814714815196,
        -0.6383320880166963,
        0.9792363135789053,
        0.41020205232502743,
        -0.5296277029946794,
        -1.040590991349955,
        -0.5573211895003574,
        1.0682130553678182,
        0.7218201971869246,
        0.15810386087650183,
        1.108368839910359,
        2.4612989123845304,
        1.656292135543408,
        1.5383705883421677,
        3.6128037428084707,
        -1.5563409526002048,
        -0.051207949905598224,
        0.6683009453834405,
        0.7956954259827468,
        -0.22285823657744974,
        -1.5097405449745591,
        1.083354056021729,
        -0.729636567563997,
        0.006604252415037634,
        0.8904799752091267,
        -0.509987357756814,
        2.2136375136571345,
        0.22106833624887937,
        0.11729892430632367,
        -0.18802261645327964,
        0.8857804077581085,
        -1.059905798771746,
        -1.079753121158002,
        0.5471591592416537,
        -1.2980325625632818,
        -0.11645672548774656,
        -0.8325784572499011,
        0.34952932898958367,
        -0.5651562093135052,
        0.8057818027955611,
        1.5381062873172489,
        1.2161598057790917,
        1.085961604061415,
        0.47487600364433064,
        1.2908590342825113,
        -1.37422786035941,
        0.6189413580402714,
        -0.2615172373225393,
        0.18016331070319913,
        -0.09352678337472822,
        2.3125700243866163,
        1.1072923562352084,
        -0.7224851594279694,
        -0.5525370342275943,
        0.2205638669083958,
        1.1254893493604736,
        0.9720580866578665,
        0.0313652650879463,
        0.031216554568190624,
        0.8761110871994907,
        0.5546779342511506,
        -0.8953682350844925,
        1.5565628639051945,
        0.7046166631309255,
        -0.4530321843384991,
        -2.252040577766882,
        0.1498879130210067,
        -0.34896615455047514,
        -1.2717232504232885,
        0.007783483513118514,
        1.1687316755012653,
        -1.1103791750662977,
        1.8183527194836646,
        0.03099357035141519,
        -0.038657900960361036,
        -0.980946766887633,
        -0.03173248489981256,
        0.6778065451366361,
        -0.3107096794666516,
        -1.4415318548113034,
        2.1725645837088443,
        -0.9002969545639791,
        0.6544371669165061,
        -0.18518957078649637,
        0.5702570410271439,
        -0.7214560251931162,
        0.619642531309706,
        0.18956662907505906,
        -0.7950394424803752,
        -0.17560504978703578,
        -0.0668545046422369,
        -0.6613212693145237,
        0.3163376660492769,
        -0.18613357053005414,
        -1.0430833064391527,
        -0.8354365518024858,
        -1.800648844911346,
        -0.7657070747839395,
        -0.901454036234245,
        0.48428202456332264,
        -0.5672672506730454,
        1.1003947887134156,
        1.4959807153933464,
        0.8837587313279015,
        -0.5128758114160314,
        -0.10501716749093294,
        0.7338039566398853,
        0.4675341668326273,
        -1.5511521195796674,
        -1.1161020261490564,
        0.07049829725832431,
        0.6776516690977726,
        2.732183087643773,
        0.5351576116014359,
        -1.692552212006125,
        -0.6844957432522895,
        2.75137844761943,
        -0.395124546945362,
        -0.5232140556854049,
        0.38579478815643725,
        0.03384362560277831,
        -0.15586233066060123,
        -2.143176396947621,
        -0.7447796005808611,
        -2.8923041462619565,
        0.6170439712608239,
        0.05844281819619688,
        -0.6477489257170973,
        1.226827978291788,
        1.7855619548521526,
        0.9035074014650886,
        -0.5262625035519328,
        -0.08133029728464854,
        -1.3026140469809684,
        -1.2543465013069464,
        -1.2435608453499543,
        -0.11735827350698938,
        -0.9691818670307981,
        -0.4152547719784272,
        1.5576273026374567,
        0.7236687463030381,
        -0.3120342369787822,
        -0.37919419594168535,
        -1.0460633183960713,
        1.0498654153352298,
        -0.2776053224702636,
        -0.4531490053568674,
        0.8281938835262662,
        -0.0186525099552968,
        -0.22740352928929258,
        -0.7860453599534609,
        -1.2890627302014286,
        -0.18708506674269754,
        -1.554665288740418,
        1.7629609443897472,
        -0.4141434251126581,
        1.9950618751979898,
        1.3206253783264912,
        -0.2728466181577026,
        -1.7495300008432573,
        -1.333858285399908,
        -1.5834101004215655,
        -1.9528049344855476,
        -0.9209993679545614,
        -3.523432842046687,
        -1.4404399858710935,
        -3.165809821373634,
        0.06698152682214556,
        1.7540380733212138,
        0.8728579525586664,
        0.3603471145471101,
        0.5483490581772514,
        -1.0453548798000805,
        1.2303660169094122,
        -1.9432869477679986,
        -0.6762301951893631,
        0.9777730451692255,
        -1.3715541326064233,
        1.1735203691343403,
        -0.10579791754306843,
        2.4635295716160086,
        -0.7768609694907155,
        1.8811520448043595,
        0.15893820633811567,
        2.1716279436564374,
        1.3254630554088516,
        -0.8347421764680911,
        -2.0375429078685157,
        -2.5150500350170097,
        -2.3076836029657373,
        -1.1222124892420902,
        -2.229417778917023,
        -1.3319959087923194,
        -0.8778557919594124,
        -1.1384442726643105,
        -1.2981748463421214,
        -0.7583708687329188,
        -0.2414195397112138,
        -0.29852923044987745,
        -0.4274521858827398,
        0.026933598005760274,
        -0.8489070581150584,
        1.4796652490577422,
        0.31033478156541067,
        -0.5245331677842335,
        0.7849665260806562,
        1.070511706279602,
        -0.04074703389918111,
        1.108988287214086,
        0.3068742099776373,
        1.356125126243489,
        2.1011895679064163,
        -0.2626679799538537,
        -0.2388872692608159,
        -1.1841117887846206,
        -1.6750064102970494,
        -1.8055054293421633,
        -1.7662436602314528,
        -1.521425616474521,
        -1.2531002173582622,
        -1.084618737434881,
        -1.046352977784976,
        0.3475651219462828,
        -0.253947620776669,
        -0.7819196847060358,
        -2.089575369867067,
        -1.1831633470137235,
        1.087385064612255,
        -0.714282641357036,
        1.6683582960580896,
        0.21429626600790952,
        -0.12816389759086966,
        -1.04842107281182,
        0.6713846324433373,
        -0.4559153208788998,
        1.0030789133124092,
        0.08615957926078571,
        1.4763372186570358,
        2.105249961759554,
        -0.1654946700722403,
        -0.7732208777015422,
        -1.2900787318109213,
        -0.38757474429075367,
        -0.5913968667493986,
        -0.5775194188042562,
        -2.615402055019047,
        -0.23919392443965484,
        -0.4064448261913599,
        -1.1977981084654143,
        -0.4204055918910772,
        -1.294600513344599,
        -0.22718211646138528,
        -0.15959194976847402,
        -1.4578541657776707,
        -0.5078134453414022,
        0.16215753647061787,
        2.1735767894699407,
        0.2966967627784705,
        0.8416050688813485,
        0.4596134264687347,
        2.4363410100440603,
        -2.203912772451841,
        1.1828917879316654,
        0.2528765014812045,
        -0.0015679718585381289,
        1.074616246009325,
        1.5238283768160503,
        -0.7907933419624946,
        -1.1556009533810552,
        -1.7398374264910106,
        -2.882659003467458,
        -2.565090444692536,
        -0.9028950769383681,
        -1.2206032387201025,
        1.1735875888280367,
        -1.1810162626308813,
        0.2657126885667774,
        0.2298386484100734,
        1.0324916544698826,
        0.18836178558054617,
        -0.24281247296377764,
        -1.3248176838994428,
        -0.5398205802339219,
        1.065272372738436,
        -0.40430556048874167,
        0.44262656461874716,
        -0.11528760558204906,
        0.978035717212822,
        -1.604579416087128,
        0.24661484416153348,
        -0.762204370050332,
        -0.5170995900833624,
        -2.0497960043249837,
        0.4632088879876606,
        -0.4195142356217715,
        -0.8755080584301292,
        -0.41622479543627033,
        -1.4527393749432067,
        -2.452604376595389,
        -2.4249231743168873,
        -1.1733209445172725,
        -0.6714722381222769,
        -1.0322750859273224,
        0.6812821520312448,
        0.6369675991982908,
        0.7444830183619603,
        -1.0342196293926074,
        -0.9973694686247329,
        0.7253048222346051,
        0.4048276799168124,
        -0.9373318724457619,
        0.6745278563615199,
        1.434494760488422,
        -0.4649695839263446,
        -0.7154697274303659,
        0.502462939988541,
        -0.5635242781485094,
        0.1528935112823126,
        -0.41591399224002507,
        -0.2582550019496141,
        -1.2247250581566749,
        1.2793441060159956,
        0.06596158302934081,
        1.1695174591594457,
        -4.316056918556218,
        -1.6174301462063894,
        -2.6827644722834028,
        -0.15698746449918943,
        1.258952292519029,
        0.40016407747673793,
        -0.8836446989568139,
        0.26511270674142523,
        1.1688278352939334,
        -0.8798644275640579,
        -0.19117640782809067,
        1.5352441812019102,
        0.6492361132967522,
        -1.2095488408241228,
        -1.7692684025089032,
        -1.5842586119094346,
        0.29727718109597195,
        0.6687045240706723,
        0.4415436535724631,
        -2.3642068418139672,
        0.3467962554279724,
        1.6725855859992336,
        0.8467636776673322,
        0.04599993859171232,
        -0.7132342961994351,
        -1.5881814036885509,
        -1.2925403509664777,
        -0.25770836386673024,
        -0.42225693811678133,
        -1.756253131776446,
        -0.40975252330970535,
        -0.5495602987455149,
        -0.449297953678547,
        0.42851139845231023,
        -0.6208210099835175,
        0.8998063609869905,
        -0.6583496227452147,
        1.9169609764014373,
        2.1684465666997146,
        -0.020195955409754347,
        -1.375864277813353,
        -0.4808452962296744,
        -0.48562140581475716,
        -0.6398087278106606,
        0.21224587136346,
        -1.1745179592224984,
        0.38548157600305494,
        0.3955281731195021,
        2.2569469913170455,
        0.5411840551024402,
        0.9449222353382342,
        -0.18372698914630553,
        1.413100144762095,
        1.759600657794653,
        -0.9114601413985778,
        2.5565840620270355,
        -0.23295670040368088,
        0.14204562312446645,
        0.916631507254243,
        -0.4890372771665991,
        -0.307205673198083,
        -0.055589731871413556,
        1.1431887839854553,
        -0.21660620484771054,
        1.1024373720583747,
        -0.18188380064854653,
        -0.4134224476243068,
        0.11978887151366877,
        0.8633097287145913,
        -0.2744886223681398,
        0.36589943413760984,
        -1.5250380901233667,
        0.07516712548276377,
        1.4821873459267851,
        -0.9724042024486795,
        -1.7057169065737414,
        1.240338565871265,
        1.6300402202153736,
        -0.13452914163661017,
        1.5980986449970453,
        0.9975890701324099,
        1.7725546057282149,
        2.341443301212972,
        1.182871267848423,
        3.1504227571615195,
        0.5789786028141097,
        0.20580987881346083,
        1.2953159900904176,
        -0.4499806322397535,
        1.105668325756693,
        0.09396221069673584,
        -0.14396759395849107,
        0.6753513573362533,
        -0.807191269590581,
        1.478679074013925,
        0.17989172819624902,
        -1.7040429643405122,
        -1.3685015663221232,
        -0.8956347275404755,
        0.3718580846555932,
        -1.5824170426514133,
        -1.4640652874139821,
        -0.3016756920648321,
        -2.5623144959137725,
        -0.0723745719274748,
        0.5273219536967645,
        0.5859781945915976,
        0.5151805993729804,
        -0.7039594335074046,
        0.5301485660723726,
        0.08518584535995957,
        0.46839163508764053,
        0.05584289684111263,
        1.1836606940534986,
        -0.15597172357570546,
        0.8253811738895184,
        -0.13810875192669406,
        0.7883789576854423,
        0.5152862553919121,
        0.5432526858190864,
        0.7795111184344385,
        0.7586615415038305,
        0.7327835918042305,
        -0.4642625229219883,
        1.484566364807359,
        -0.20583607667947879,
        0.7910094073064992,
        0.5253436598087516,
        0.5707019151526761,
        -1.3781761079639863,
        0.6343898025564788,
        2.497134244265762,
        -0.3191887997496362,
        -0.9730832217131729,
        -0.026976158036408675,
        0.7285057245079563,
        -0.41401422826393597,
        1.4862105571437525,
        0.09577514374305696,
        0.8192707523533397,
        1.5852854536828356,
        -0.2232504808044531,
        -0.7889873992886284,
        -0.44595350411922163,
        0.004635372170400821,
        0.546173206172269,
        -0.3673601669974874,
        1.4981035265520908,
        1.4121598488635867,
        0.6447590844761313,
        0.4945703881035754,
        1.0051502485126849,
        1.1573750806757748,
        -0.041814140014884114,
        -1.2680074973043418,
        -1.4058390748042358,
        1.1830809859430507,
        0.3136337266314321,
        -1.6068139600858677,
        0.5595163144765372,
        -0.5424644785523477,
        0.2515520783698175,
        0.5477421246637014,
        0.6434877769281174,
        -2.0035120889379843,
        0.6054025830786426,
        1.4307978940279964,
        -0.2258808707741704,
        0.6258269771995545,
        -0.13376997931596438,
        1.3478228123942244,
        1.2684315108931898,
        -0.2564566232383842,
        -0.2146636388434722,
        0.581963654332452,
        -0.7495199898324978,
        -0.0955272783863371,
        0.4832366847299329,
        -1.1021618456601208,
        1.6947646243879821,
        1.3887575131254437,
        0.9282596186077425,
        -1.5048705285588642,
        -2.0546748195732625,
        0.34965287727768835,
        1.2157592086438336,
        1.1174361262423558,
        -1.51082077587266,
        0.3631859845750362,
        -0.0427719538138871,
        1.091453862702195,
        0.9130054918611222,
        1.0759957001494418,
        0.8182684408454448,
        0.9874415744414737,
        0.4249829181136704,
        1.3423751372815678,
        1.4910232567516573,
        -0.47384852595373445,
        0.21808514227052359,
        0.7988848438736691,
        -1.2689943760365356,
        1.7557611389597083,
        -0.023472801502727597,
        -0.8309502412407302,
        -0.7587817966659278,
        0.7020340159747802,
        1.9507225987957622,
        0.3724728036266737,
        0.285423894168014,
        -0.26544487239608555,
        -1.1860896446894502,
        -0.6454762584460051,
        -0.728985493003564,
        0.2318327370534081,
        0.18893285783595024,
        0.19319984806275778,
        0.5883398173160056,
        0.47376747919326156,
        -0.11348569634468261,
        0.5355234844736174,
        -3.0541202059646353,
        -0.04321239849505217,
        1.0170983031279657,
        0.6796073672300728,
        0.6639981943894565,
        1.1069484656816948,
        0.3474082988053277,
        0.9917983870963956,
        0.2378932396674666,
        -1.387152797979307,
        -0.3185180134009082,
        -0.7755248630518283,
        0.5959417873749712,
        -0.17273836651381108,
        -0.7911126547835731,
        1.5361657352236655,
        -0.8731478945752702,
        -0.7749816429690646,
        1.2583200172680404,
        0.09005132604777666,
        1.0894694388019575,
        -0.41235275564525153,
        0.5525786984383504,
        -1.7729478871261082,
        0.05572047935693291,
        0.021367059134216538,
        0.9298663009700031,
        -0.31964181702485656,
        -0.9930799703687986,
        -1.2340080081224587,
        -1.9031259190764132,
        1.0277569649109868,
        0.76200625852387,
        0.413761823224197,
        -0.3595656230703705,
        0.6544624168176825,
        -0.7185246769523541,
        -0.8375325361707343,
        0.15978975965530698,
        1.1475443235147893,
        -0.5799576220151483,
        0.35607809332494716,
        0.10972962153858065,
        -0.4386777541986019,
        -1.5933142449556508,
        0.5159949606692374,
        -0.8924060183970821,
        -1.0231596301834556,
        -0.1725130313665467,
        0.5864544023997491,
        -0.6541899180908594,
        -1.9946419164183582,
        -1.334216911034041,
        -0.17359494709841478,
        0.1510458958241321,
        0.3235952669582419,
        0.18897073410891838,
        0.48017544523471156,
        0.2500011573639348,
        0.37830426403112344,
        -0.08739019652253081,
        -1.4626209517955007,
        0.4861795706128653,
        0.8758609912381004,
        0.7109960105785856,
        -2.3554578038165865,
        -0.4346382743038449,
        0.14308844621642033,
        -0.37979537856118356,
        -0.745743953080853,
        1.4076769964183653,
        -0.09031117260600863,
        0.5689788247351523,
        -0.3266661808618834,
        0.7770203588222782
      ],
      [
        -0.4712280876067919,
        -1.8008645639742487,
        0.15356322145579207,
        0.15890778845067563,
        -0.06648132655264226,
        -1.103201874471556,
        -0.7988541158471962,
        0.8898707771823129,
        -0.6474225706726695,
        0.00039653653783762964,
        0.01584798606309764,
        0.46257489942940505,
        0.4867247748375136,
        0.10849530884479944,
        -0.226961929517431,
        0.9357012380333822,
        1.171693347266396,
        0.40533464752857734,
        -1.0014007509083152,
        -0.7782830361902853,
        -1.265074794212553,
        0.852422036849167,
        0.45308249090135083,
        -1.4288295554361823,
        -1.3775221201700762,
        -0.9293733193189638,
        -0.4857572551682637,
        0.007599066064892074,
        -0.8954244042651819,
        -0.6408644512651632,
        0.9048614162514064,
        -0.43263255766004266,
        0.6504995947095535,
        -0.8995281517850714,
        0.18228569448301798,
        -0.92016446492414,
        1.4710112653238554,
        0.2586996614268537,
        -2.057394996705728,
        0.19029466484156932,
        -0.6289668661954283,
        -0.655805251379294,
        1.1895595719106449,
        0.44119232264097713,
        -0.3777488368264712,
        -0.028699871046021192,
        2.1720435830640863,
        -1.076078439414735,
        -0.0812751963603404,
        -0.3565365870360982,
        -1.0788006100303265,
        1.0652346366550358,
        1.1737119956726845,
        0.9020578364169859,
        -2.041004758894029,
        0.8703030110645424,
        0.640443729711056,
        -0.07724017749056973,
        0.3576586440420451,
        0.37462656058004445,
        1.3225140176771055,
        -1.4988515108017235,
        0.7821005183116866,
        -1.8800650608668128,
        -1.7812726725094463,
        0.3122828926423104,
        -1.4623184005004437,
        -0.479346794674335,
        -1.1116450066313956,
        -0.5618765026778205,
        0.17732488303270302,
        0.8591529181068621,
        0.5129775597069877,
        -0.862149336398332,
        1.1799890504569512,
        -0.16839442140996475,
        0.947450856405895,
        -0.30149818205005974,
        -1.3068360531049867,
        -0.8182311688202955,
        -0.3229135907203941,
        1.8223783059203198,
        1.4518438511081386,
        -0.05487448791581334,
        0.23711488339538245,
        0.04209026968424768,
        -2.2221186120198375,
        -2.401583463802141,
        -0.15091364560130022,
        -0.06403072649119836,
        -0.8092717876256214,
        -1.2017947304844903,
        0.6548138013000644,
        -0.8589111913141045,
        0.3876502137880673,
        0.5488221104175298,
        -1.1790166633416959,
        -1.4694329954940846,
        -0.8928192750378919,
        -1.450511086261855,
        -0.86711071659426,
        -1.4980262220287524,
        -0.9904539852471419,
        -1.1117529848108048,
        1.3772927082291,
        -1.157640378725596,
        -0.6280595804811883,
        0.27643283549866493,
        0.23697166439358272,
        -2.10772573989312,
        0.08152761269344729,
        0.5110716163137634,
        -0.6989080190954592,
        -1.9206565183348494,
        0.9484780482455223,
        0.8191926210790057,
        2.019409263634696,
        0.3413900700676123,
        0.5144745608169207,
        -0.6831042088063491,
        1.1364736550763046,
        -0.6029286850477954,
        0.01571063964662833,
        0.5609240211237662,
        0.4222921257978951,
        0.40942655773601444,
        0.017927783016481225,
        -0.9337543058507364,
        -0.40919777989059564,
        -0.7884258721656252,
        -0.6738015055063167,
        -0.3476169587326772,
        1.1197645276130974,
        0.5335200595141601,
        -0.27669205501323446,
        -0.4619525792378125,
        0.9612116586353481,
        0.5278451579817295,
        0.06286111528524965,
        1.937665630369411,
        -0.7228139036253554,
        -0.30385099219709777,
        -1.1088430713852842,
        0.5063056276579119,
        0.4683363121659612,
        -0.9403947454926781,
        -0.8447218894292124,
        0.6529472490047354,
        -1.1465901399824567,
        -2.503176550474763,
        0.18762769195828116,
        -1.019635611991823,
        -0.21444870445941866,
        -0.30376889246434,
        0.07723960174447772,
        1.2808049635511263,
        2.378160514664683,
        -0.08594223301203643,
        -0.07064868932785652,
        1.084672853131382,
        0.409641231503331,
        2.130419580151451,
        0.6543152578188657,
        0.4851968113953525,
        0.9423218835536228,
        -0.9491567848830033,
        1.5933231118543276,
        0.31973452920615447,
        0.6158214184940001,
        0.5124981919602866,
        -0.7503133394661873,
        1.5742345905425716,
        0.36933562961066113,
        0.5043598534089275,
        -0.9212622204540771,
        -3.4037082258923133,
        -0.8012533456318146,
        0.7624563870024488,
        -1.513938445939696,
        1.3190484116728378,
        -0.39358144688265345,
        0.35767335643661513,
        1.014362467839486,
        0.38595199591834023,
        0.38017087783460596,
        -0.41968224033356055,
        1.116965256686188,
        0.08618016834584194,
        1.4089640448726808,
        0.4895541274515037,
        -0.5180694320148604,
        2.322242750860479,
        -1.452976704664374,
        0.4268296651299351,
        -0.41465553610171163,
        0.7966218352754248,
        0.8014164857302053,
        -0.13814394357992196,
        2.6514844869855376,
        -0.31271118379760027,
        -0.042002069922404475,
        -2.2729800406519622,
        -0.17536785944572905,
        -0.9646093570306662,
        0.8637737282665982,
        -1.423080150916874,
        2.1280192573651733,
        1.4440799871457073,
        -0.01731861126619913,
        -0.7551462074472383,
        -1.1970080329168178,
        -1.4789591897395726,
        1.024198657822068,
        1.4762392860049125,
        -0.24002754460079026,
        -0.9526705977773174,
        0.8867388747452832,
        0.7473828809222551,
        1.671938405410107,
        1.2478089278210152,
        0.1825707253606127,
        0.953360062233351,
        0.4107506591028266,
        -1.091833122804925,
        -0.9832311609896881,
        -1.8123790503166584,
        0.7687423829382867,
        -0.05980425742033841,
        0.4570138746392738,
        -3.6256651179723796,
        0.7334612200454372,
        0.24008085452514777,
        0.14833429271168697,
        0.008214020034758877,
        -0.5242788816729723,
        -0.4169516052834689,
        -1.113308342262191,
        0.7919596223996146,
        -0.030789907797394864,
        -0.7623433099775586,
        -0.2762007377356702,
        -0.6898886119459361,
        -1.259280257781316,
        1.5457951398516736,
        0.1785342277524686,
        0.28006437047325156,
        1.4419819688457158,
        2.4750988786980743,
        1.8034535918578913,
        0.921638716540935,
        1.2420802355861793,
        0.7242534642171271,
        1.206903042581108,
        0.019303090776330346,
        -0.22186030001311435,
        -0.13151305745384936,
        -2.4162980928631628,
        0.9292743161002528,
        -1.177877845066235,
        0.2932926575934285,
        -0.44208090712069603,
        0.07593942043280984,
        1.7889954547018667,
        0.8196690505446715,
        1.6492615446723284,
        2.2238248989212512,
        -0.297979285561295,
        -0.0465125412878868,
        -0.5611525288324687,
        -2.2310108494294822,
        0.7917078258927257,
        0.18977094973099987,
        -0.9952776168023023,
        1.678999256161055,
        0.4930451028759169,
        1.7174282301141746,
        0.40680404743544823,
        0.6676619003585506,
        0.5822283139626862,
        -0.004694794765568459,
        -1.1058269572958528,
        0.45820552221011995,
        0.5139100611647531,
        0.8970796893583124,
        0.45595352330135847,
        1.9041220457918462,
        1.5565188572739206,
        -0.5464018172599765,
        1.3874969799555645,
        0.5635292886437011,
        0.36725955356306533,
        1.407921361894351,
        1.0721437186976794,
        0.35342616320802905,
        1.5302593282551824,
        0.8040016872255075,
        -0.07103499336876512,
        -0.6372999471945353,
        0.14063965597430453,
        -1.8360409716130859,
        0.3730382933349714,
        -0.11524369893610531,
        -0.5235654560621652,
        0.5082886366370987,
        1.5968432996913062,
        1.794223052570765,
        1.554044079999112,
        -1.0303092740886906,
        0.2193805774294865,
        -0.07148363111937103,
        1.227882445193542,
        -0.6684932999590911,
        0.4824346084443576,
        -0.7824761481247356,
        1.076807056753656,
        1.7896078535827362,
        1.7755469560124422,
        2.468380621246589,
        -0.5586066387571298,
        0.575138211722769,
        -0.1371867662189327,
        0.7012712996289672,
        0.34526912331733717,
        0.31554133434713694,
        -0.3450955232358594,
        -0.01646738764454525,
        -0.35988503521900883,
        -1.5831052907761805,
        -0.12716546008428825,
        -0.10626240962257387,
        -3.571614140933075,
        -1.3265267408180261,
        1.1215424555184133,
        -0.15775151947343513,
        1.7048913886968275,
        -0.6726517926881256,
        1.8791322253322473,
        0.34554306551443326,
        0.846957845190361,
        0.32042243604956916,
        0.39128876916922845,
        0.8943147113337507,
        1.0652830105934552,
        0.619894627666277,
        0.325026276174302,
        0.6147558518737296,
        1.3218785807052702,
        0.24342407615997827,
        0.10169413635109682,
        -0.26236449186124483,
        0.6294613729344096,
        -0.37405026534768293,
        0.009523883498918754,
        0.9423030600636768,
        0.057694097728869013,
        0.93620592088705,
        -0.6375546579649134,
        -0.5426069626011636,
        -0.9465215126589231,
        -0.03797834583028535,
        -1.6195821520315854,
        1.7250414419051436,
        -1.782297604507993,
        -0.6130033098583691,
        -1.7154654668909946,
        0.5295544024823907,
        0.029054267800276142,
        -1.9631218704261493,
        -1.300121093188078,
        -1.5831069673042517,
        1.0934097395267195,
        -0.03873652394839594,
        1.424607891606144,
        -1.1503948952609862,
        -0.6359690897587316,
        0.1915007187336617,
        0.44614464875265936,
        0.9676643893329286,
        0.9196043667084653,
        -0.6471327693620608,
        -0.4313507502325138,
        0.8753778656930878,
        0.7872273300502757,
        -0.07312364505486661,
        -1.3494783794544816,
        -0.34046358102541985,
        0.17586931241294843,
        0.5751745030725305,
        -0.4862508699588729,
        3.063928537397485,
        -0.9945591585307066,
        0.3397526626176219,
        -0.09219585918994808,
        0.43897744123576665,
        0.36623254960114177,
        1.5507020073643123,
        -0.31505174232814487,
        0.9602647758470678,
        -0.4773962637566615,
        0.6669509887133181,
        -0.019070693891889364,
        0.7013321631630133,
        -0.08688636446004258,
        -1.4028314855973816,
        1.2305882335704805,
        -1.1648941366763539,
        -0.6025855784555613,
        1.9339366192116683,
        0.7711034583949675,
        0.2597385285183272,
        -0.9135164096765319,
        -0.09913925837125033,
        -1.4374418788556613,
        -1.315850718857964,
        -1.2903006799857848,
        0.6858169950386603,
        0.2007997259430291,
        0.0279223280296382,
        0.4602672994812903,
        -0.42512027793147966,
        -0.5362642241422337,
        -0.6673147327672012,
        -0.14606760436366353,
        -0.15494116726619292,
        -3.0999659183090764,
        0.6548024594160795,
        -0.15154577406279407,
        -0.9606802772926946,
        -0.8270180743546252,
        -0.6968020354598463,
        -1.7412960236940052,
        -0.8703296188320134,
        0.34286341457180414,
        0.4983922736390854,
        0.35666795592971534,
        -0.11429504413565723,
        -0.7805153970028262,
        0.14255669967707257,
        -1.337422229722129,
        -2.2169318788042522,
        -2.50707754019367,
        -2.091107170709441,
        -0.2267530962191924,
        -0.07168051026565948,
        -2.509562188349234,
        1.6093383798548229,
        0.9127182653902999,
        1.8817224366873186,
        1.5151133063604554,
        0.2801227198024079,
        -0.24607367650100656,
        -1.6667176227116902,
        -1.3740782708891548,
        -1.926234686086273,
        -1.2206203131960374,
        -0.5764545729110472,
        -1.2881750757352304,
        0.8211293594448795,
        0.7638717962997144,
        -0.5047800119619078,
        0.26950981620549475,
        0.3870735561188897,
        2.562759695901077,
        0.4225822071739479,
        -2.112641583446613,
        -2.270514763662299,
        -0.6369934804879301,
        -2.3918195533895554,
        -1.5663945283832648,
        -0.7127990208313028,
        -3.2211165615690964,
        -1.2716590131844625,
        -0.7796455205832341,
        0.29813386287022026,
        -0.10595517995851604,
        0.3190653473710831,
        -1.1664843664588167,
        0.03812867260460758,
        -0.3368031054953606,
        1.6024049057157694,
        -0.6735496663131241,
        -0.40796891145784286,
        0.013826656164848258,
        -0.8070467606891601,
        -1.0682448546798937,
        0.150466260772064,
        0.3392204477396818,
        -0.12596338206882998,
        -0.2142569120493319,
        -0.499171667203658,
        0.8709213612908795,
        -1.651268790380345,
        -0.10324442556294865,
        -1.5045759114036399,
        -0.2326004581272867,
        -0.9847246527575999,
        -0.4760178438720979,
        0.867309972740017,
        -0.38357030503637574,
        -0.30104960498254096,
        0.7443919566948007,
        1.6024415336650408,
        -1.025541944146072,
        -0.3472909543407475,
        -0.47040403756839383,
        -1.9415618004744322,
        -0.30988255674327564,
        2.960454618445511,
        2.0575040292841353,
        -1.4717765932807336,
        -1.3466404698872347,
        0.48404548395099123,
        0.6812516261613958,
        -0.20013200954645577,
        -1.3296093127447448,
        0.2908866204835691,
        -0.24884916529657494,
        0.26475582431910294,
        -0.0234110610630516,
        -0.42988560951927385,
        -2.255333106503855,
        -1.5561028351199961,
        -0.6928552740471556,
        -0.8644014462393872,
        0.0473050255770378,
        -0.4160364301282873,
        -0.7130780795320525,
        0.47517504247264564,
        2.5496662719427268,
        -0.722974054266511,
        -1.4502937982928297,
        1.1464873594711316,
        -2.0506590905250084,
        -1.2427394264444043,
        0.0478712010443598,
        0.8746366238160163,
        -0.2384607750129799,
        1.766239154131558,
        1.6385944192885862,
        -0.162328437683403,
        0.0701520604968839,
        0.27541008459451743,
        0.20643737644588617,
        -0.1490321006864791,
        -1.1550928550871729,
        1.2150005514293079,
        -0.07577434378191425,
        0.9527857732674323,
        -0.5443907077937594,
        -1.9419619983819314,
        -0.016225487132915647,
        0.6477260268608819,
        -1.5043975769092772,
        0.3446368228461843,
        2.0596373735494344,
        -0.7386582772584065,
        1.0621643076695193,
        1.3084170398107198,
        -0.2908250516354426,
        0.5987331012396093,
        -0.49931097907289534,
        -0.624583553692522,
        -0.5878964251879361,
        0.6271902688368609,
        -1.2279960405933272,
        -1.035062732910328,
        0.4502107205768694,
        0.30237017870042576,
        -0.935755559869973,
        0.48532414989171585,
        0.8282286303502914,
        0.10774509947093568,
        1.6029010525795138,
        -0.1759508347804926,
        -0.9819912881550394,
        1.1048407625379084,
        0.6361706181795854,
        -0.08082447367204337,
        0.8661866212628414,
        0.009193821214361242,
        -0.7634905161852126,
        -0.19664236622232625,
        0.6704810538420601,
        2.1678975677007877,
        1.382776398227483,
        1.2197488286356208,
        -0.4656060214171625,
        -2.0255919362949246,
        1.6369245968338324,
        0.9615201459497777,
        0.80157562276262,
        -1.3465645548867549,
        0.11115456308148171,
        -0.25987691965812293,
        -0.09608196147814768,
        0.03620176200265302,
        0.9923015603389296,
        0.35396146693848335,
        1.0869286778664036,
        -0.1893267313734836,
        -0.5100332105210013,
        -0.12065582156823983,
        -1.789463999151959,
        0.1668540498807462,
        0.2908131379381903,
        -0.24097427946676175,
        -0.16574889689444958,
        0.7417184539175485,
        0.5441588135970898,
        0.6530022836673808,
        0.12903474875109663,
        -1.0719442261440806,
        -0.6675091563258737,
        1.125701743234912,
        -0.05768769286797134,
        -0.4829764283527944,
        -0.9282995415120998,
        1.4961876916639691,
        1.3556979451742956,
        -1.1977967878212827,
        -0.5122123212483787,
        -0.7749354505271424,
        -1.3273656208943865,
        -1.8130029994698011,
        0.20186771093884867,
        -0.4315461881416566,
        -0.3211798476086893,
        -0.45228100892138856,
        0.4506591478351582,
        -0.9181082545458485,
        -0.3014277040809633,
        -0.9711834790058709,
        -0.7130866256621559,
        1.4715385419509464,
        1.2530392364631406,
        1.6789472640705052,
        1.085860266157951,
        1.2226491130110524,
        -0.35900310997284135,
        1.6268874451437423,
        0.40198189177487414,
        0.5061045698631611,
        -0.45193787589094997,
        2.095256972211418,
        -1.1245869560918156,
        0.06189749820615027,
        -0.8320127457308845,
        -1.3514382075343523,
        -0.6907218140008526,
        0.5590294260943973,
        0.5568668470136192,
        0.0844455350565082,
        0.3295332624069782,
        1.1896523078183086,
        0.21720202740646957,
        -0.21983031591395824,
        0.7729748507925894,
        1.4808766256826738,
        -0.4621482243564217,
        1.3081140875590416,
        -0.956450743680012,
        1.2585108885918357,
        -1.5389481819578323,
        0.9501288988765918,
        1.0845307858305853,
        1.436337024885255,
        1.0308059078873324,
        -0.24561441502426368,
        -0.2577763345166669,
        -0.2794054043488829,
        0.6362497907104648,
        0.07877338651023005,
        0.7156522084479132,
        -0.49905277195926734,
        1.0499603982356405,
        -0.5216248945456525,
        1.5216126895923074,
        -1.3414321830984082,
        -1.3442601490495076,
        0.8718980591377246,
        -1.6429302541824458,
        1.1143817060554864,
        -1.2104501963663845,
        1.1381331818129847,
        0.5854163584613582,
        0.6225289072913861,
        0.12072692015736021,
        -0.3030487926816389,
        0.7046978203783777,
        2.8822619561660265,
        -0.16128287878458464,
        -0.23871812953066332,
        0.2496440111201576,
        0.11749357465774356,
        0.5623770650753692,
        0.055532079904546186,
        -0.40091331452170936,
        0.031587930351795655,
        0.3220580749676064,
        -0.5603901272625141,
        0.03325433600491249,
        -0.9901216944257909,
        -0.8249481379530024,
        -0.7925501930643696,
        1.3115603996416216,
        -0.1931612280797747,
        -0.3359912031585678,
        -2.07495983268841,
        -1.3094283252079375,
        -0.5227722626792558,
        -0.11879775937752868,
        -2.798091164320149,
        -1.0579250183334672,
        0.6205882383462908,
        0.17031445118297264,
        -0.3762160264634816,
        -0.8120732144645262,
        1.753982905370794,
        0.17320992579445962,
        -0.3521751922554725,
        -0.233175091561712,
        0.6356057250846734,
        0.8746839064848508,
        -1.333748771778632,
        -1.860539963498189,
        0.6031151015615713,
        1.2213288277648586,
        0.6032830416194485,
        -1.3711971786255364,
        -1.0979596391277942,
        -0.8331383012503257,
        -1.1121474086936511,
        0.011270146466986427,
        0.7843357957408316,
        -0.2822139555078123,
        -0.3917807872175854,
        -0.056871767864524886,
        1.113298782736825,
        0.5197169694550647,
        0.699365472082333,
        -0.17783340596580988,
        -1.5450651202638175,
        -0.5734916971429165,
        -1.3571618577413105,
        0.5773063259921251,
        0.08014049809107532,
        -1.199618747321115,
        0.9730009597777277,
        -2.206816623588215,
        0.7477917661172165,
        -0.5407904505197489,
        0.1155580542533005,
        0.5002210446035197,
        1.3647598389043907,
        0.6784897703234114,
        -1.2929542201693194,
        -1.2600715466111914,
        -0.20480089828246908,
        -0.7606713313474934,
        -0.45782389834507725,
        -0.828939083569231,
        -1.0670544862869615,
        1.3942018969068373,
        0.9895675918760344,
        -1.256536767310745,
        0.45174321517915056,
        1.2733384262303284,
        0.4080584012522267,
        1.2463335206671142,
        0.16913510263157028,
        -0.23593721177023527,
        0.9470100077682393,
        -0.4140399797025988,
        -0.954407186604094,
        0.07363841379345464,
        0.055493012839390884,
        -1.44117653882456,
        -1.002251009547829,
        -1.1106377247426138,
        0.8998327567860543,
        1.827288544513229,
        0.2099126506970427,
        -0.05940248028791084,
        -0.4033388178504507
      ],
      [
        -1.6103888065893421,
        -1.3622566877361175,
        1.0452377164737994,
        -0.08121046037738408,
        -0.7430295298666397,
        -1.273833266059064,
        -1.1269856118822403,
        0.9953817030279505,
        1.4369500529333052,
        -1.7964084399890277,
        -1.0013165620566773,
        -1.2866396824978548,
        0.1708428730351802,
        0.9721969095268791,
        1.0716797771798798,
        -1.1833358133071643,
        0.40466978262425707,
        -0.3773560750994899,
        0.26231033098597617,
        0.591622652876054,
        0.4346321395419072,
        -0.8422068484624421,
        1.0762956227515512,
        1.614340426660859,
        -0.37544126246579423,
        -1.6234736995966759,
        -2.008098400510906,
        0.38691765022708047,
        1.1977227792319454,
        -1.1313637832787413,
        0.034890758778046926,
        0.4715513286646811,
        0.07878631458038138,
        -0.3933145953208868,
        -0.911802371067216,
        -1.4594868341668685,
        0.8220988318119501,
        -0.18626802883988228,
        -0.1110627058877603,
        0.09786892236718922,
        0.8444180759981936,
        0.8034425314927032,
        -1.1496329124882527,
        -0.20676533691801102,
        0.23275964560411938,
        0.4660230241605695,
        0.27112589816081617,
        -0.3477799178633834,
        -0.40357491485016744,
        0.6291697850261561,
        -0.014897780559560732,
        0.4650709994980955,
        0.021958373347292472,
        -0.35679620404058016,
        0.9051656700753824,
        0.4248233243669066,
        1.5504818615964342,
        -0.5367514389207714,
        -0.4404524151537681,
        -1.7189241286852672,
        -1.6127050798371685,
        0.1450960302658553,
        2.197171375977746,
        -0.39568363174463356,
        -0.6501411103795471,
        1.1156984122222877,
        -0.23354590335133787,
        0.053129716042843556,
        1.365911225349203,
        0.19501231567887561,
        0.1393909802094267,
        1.3590136128667147,
        -1.7730710369611016,
        -0.45011930347702805,
        -2.3871749400934057,
        -0.4202042037708027,
        0.07088044122150557,
        -0.605686932287163,
        0.35805696710759805,
        0.09473591740399209,
        -1.567909175255366,
        0.5705053842696328,
        0.16787874693369634,
        0.956425876956481,
        0.44922604841971764,
        -0.3364146673799955,
        1.0178416664642507,
        0.19911003868224658,
        -0.18522321060957295,
        0.688316125136926,
        -1.233173626311927,
        1.1120822159414647,
        -0.2119310331076806,
        -0.24960897074351132,
        -0.5271256193603895,
        -0.5031574914192352,
        -2.366582167305778,
        -1.3763297723259191,
        0.1429566453556577,
        -0.755852832850858,
        0.5574215277734093,
        -1.0275645500305812,
        0.558101128338919,
        -2.088527675127973,
        0.6051376859267606,
        -1.685271564641055,
        0.2652319209168549,
        -1.334166049543683,
        0.009418379988933658,
        -0.9014514406745519,
        -0.9681539480578847,
        -1.5140648882164545,
        0.9796662706054237,
        -0.30183646977821305,
        -0.7797907077902949,
        -0.08123695183057437,
        -0.012590798519445104,
        0.25879348995260315,
        -0.3922128192029565,
        -1.9388471880447424,
        -1.1310596504394324,
        0.44286626975861226,
        -0.9100057872250873,
        1.0921807477358012,
        -1.3837409303149604,
        -1.583018470263662,
        -0.3682660788929131,
        -1.0313249921750454,
        -0.4108364317273163,
        -0.35397447471035615,
        -0.870614669982619,
        1.1851093426963737,
        0.1415814581517851,
        0.15356421758392377,
        -0.8013652142539679,
        -1.3781789753296514,
        -1.2864320765733144,
        0.2986966673232157,
        -0.7279304108178185,
        -0.018835778757528603,
        -0.2213882520330875,
        -1.17641289814956,
        1.0719824516378782,
        0.2683858865993285,
        -1.1191639488229217,
        -0.21716107383742725,
        -0.03910936309853393,
        0.896234160718824,
        0.3156437368347749,
        -0.32561669980319013,
        -0.9762404368083197,
        -1.0631629990805322,
        -0.4548166817129268,
        -0.7201065735431676,
        -0.3148216977079308,
        -0.40975509316333214,
        -1.5632783278121989,
        -0.3098392694551862,
        0.2619438586559187,
        -0.6963491948644203,
        -0.6855987317978322,
        -0.21605091761544098,
        -0.308195574854319,
        -0.2362842693619789,
        0.6159429618415246,
        0.4931666348119841,
        0.9561360582557502,
        -0.1009702055855967,
        -1.998015638928245,
        0.40485863622865403,
        -0.08821619765987623,
        0.1351845238073211,
        -0.6439946329852568,
        -0.4611056970700978,
        1.837036950888551,
        1.121470065841649,
        -1.6210607302617623,
        -0.45773443051079893,
        -0.05519014855656441,
        -0.2785065371562858,
        -1.783928466597008,
        -1.4428609697916632,
        -1.1036834152503185,
        -0.8896273769521095,
        -0.006062738727190048,
        -0.6328180449656867,
        0.361897721565107,
        -0.48412409806801093,
        -1.6304575113669837,
        0.991303208426464,
        -0.18814964051069205,
        0.07237427629654083,
        -0.16529255627176145,
        0.1845139381861226,
        -1.2881211270768458,
        -0.12683320788772354,
        -1.0959309243206763,
        -0.40039646323148737,
        -0.4785384505343237,
        0.15182655485330432,
        0.42921944060642864,
        0.3676169059342574,
        2.1938325105986136,
        1.6064219407681157,
        0.514035209411305,
        1.2018901242547309,
        -1.3232397996170366,
        1.13916948057417,
        -0.6229668067856404,
        0.4104477850781061,
        -0.7728986314530784,
        -0.524651949325212,
        0.85945762815918,
        0.44620057596888674,
        -0.4975768092392063,
        -1.4726563288153875,
        0.671819043318438,
        1.5578918079573334,
        0.8556497778627585,
        0.5303854760132182,
        0.1737316222281987,
        -0.4396054835823528,
        1.323592439488487,
        -0.17581354427376597,
        -0.017758535519754128,
        -0.08299566643325718,
        -2.020617864630922,
        -0.06449578958529303,
        0.6808092961326125,
        1.4239303664369205,
        0.10164139214205607,
        1.837301771160244,
        1.3426749876285864,
        -0.3346538113887143,
        1.6802125677248005,
        0.14160840238310896,
        -1.5354978153361865,
        -2.2166888375367604,
        -1.229253257538957,
        0.5774923171296727,
        0.43438438507588023,
        2.132884729366906,
        0.20124789117074401,
        2.013557078909768,
        1.0582583111974582,
        1.1623372358478723,
        -1.2867680259869065,
        0.5740852294827814,
        0.7006961563058317,
        0.9555297703842982,
        1.2028979357249736,
        -3.4450972039252488,
        -0.9686791653591177,
        -1.013851925358978,
        0.0745398902572674,
        -0.2424826750460488,
        -0.777784569328987,
        0.6564572255958955,
        -1.211998598430535,
        -0.45429876088355675,
        -0.11687678494482993,
        0.27991438399922014,
        -1.578903387861894,
        0.8837417408708085,
        -1.7027888565120137,
        0.08408556795247056,
        -0.06700727234652713,
        0.5681581039763272,
        1.2875985941652135,
        1.5062621847085749,
        0.5263147773395208,
        0.18100362685142385,
        1.828030755156043,
        0.7343306846326075,
        0.36631151755303853,
        0.9769368019434345,
        4.143167276834841,
        0.7658284669908164,
        2.7559371442285663,
        0.5348328851974888,
        -0.652938404177351,
        0.2168299440608467,
        -1.1225901930499775,
        2.0550683670381855,
        0.635785672039533,
        0.13477110866132128,
        0.7876818718331544,
        -0.13639277712954595,
        -0.48443368515797613,
        0.30629636180865144,
        -0.1603849851069863,
        1.4497314159862273,
        -1.4223309299394313,
        0.803868034585723,
        1.0910152644501299,
        2.3331479653558294,
        2.1309973782760063,
        2.597932672787406,
        0.7794228348348581,
        1.9744553029489094,
        1.014185230413774,
        2.3770958680327134,
        2.09878066681217,
        0.4389048769752025,
        -0.5215154639428586,
        0.9105190181106202,
        0.38174916343879217,
        -0.7268314764907152,
        2.5204188493284105,
        1.442926546046617,
        -0.6946949335941699,
        1.2065714932729477,
        1.551578831429174,
        1.191600457130431,
        -0.9366073144806489,
        0.2671872763861347,
        -1.6575501981941618,
        0.8992727624765939,
        -0.48333837165094223,
        -1.5551453251290228,
        -1.455486491920045,
        -2.1617279524957684,
        0.46963410867862376,
        0.9600076327573369,
        -0.44865891992352414,
        -0.24067918301898206,
        0.8174057174016156,
        -0.4589089250878155,
        0.21998117633147662,
        -0.1512019352228657,
        -1.0925227471105405,
        -1.0083532403737892,
        -2.3747777494707467,
        0.38423118118065225,
        2.788317278835065,
        0.39013822629687395,
        -1.849599565817668,
        0.28616327487773724,
        1.6163331380879058,
        0.9948230803641971,
        -0.5532562732899862,
        -1.315452053410589,
        -0.4802335527738723,
        1.0519704921290984,
        1.9735382652765163,
        0.9966169703661402,
        -1.9655579718398377,
        -0.5255402694918249,
        -0.08695857004814919,
        -1.3698331120005123,
        0.10837823083154113,
        0.9091669732101471,
        -1.8205581887865592,
        0.0172259010786322,
        -2.6181027484017636,
        -1.4128858497621959,
        0.4146493093362385,
        -2.0612880697023206,
        -0.45953739701906915,
        -0.9074900020431849,
        -0.6371767545438629,
        0.41488635665651896,
        0.8327833042022672,
        0.11462620124329236,
        0.20776151861858608,
        1.7955745556702152,
        -0.8425423043214163,
        -0.08348594048528653,
        -0.26808041564966106,
        0.18245928459125885,
        0.022764235149566995,
        -1.2043527978098167,
        -0.4531633147366403,
        -2.12557298869518,
        0.5218076148108549,
        -0.4960621981604921,
        -2.0258299709020045,
        -1.0993967798320186,
        -1.4858080997753296,
        0.0959406130218721,
        -1.1584227995938745,
        -0.21717730704884355,
        -0.7754169100060565,
        -1.989707132545663,
        -0.7780974306402284,
        -1.525533983564667,
        0.12891204329952116,
        0.5885720044367969,
        -0.8246943457047329,
        0.8544583275450052,
        0.2953971990146411,
        1.6895836901112415,
        -0.3569414551531576,
        0.8725253954189455,
        0.9163531107570769,
        -0.3241129372830003,
        -1.208181009406686,
        -0.6983634995925989,
        0.6541443207481163,
        1.4706652653898002,
        -0.9498661868607802,
        -1.975958803290646,
        -0.827502199258228,
        -1.431381657147379,
        -0.2194745411302613,
        -1.4307855033992605,
        -0.8826564341184862,
        -0.47497603378168946,
        -0.4413674907781731,
        -0.4820970390341891,
        1.6242366216763946,
        0.9629429152655062,
        -0.2862166724751399,
        0.6212701725797757,
        -0.1760165341148907,
        0.8008247957377198,
        -1.2161869469309865,
        0.4225023258639094,
        -0.2319448349182491,
        -1.0188459893364203,
        1.2295227380518046,
        1.2730430988938055,
        1.420645681926377,
        0.19503178858544915,
        -0.48768755066329106,
        -1.2523164593265208,
        -1.230503248786851,
        -0.28750488938824925,
        -0.5623210462650203,
        -1.8405180810754422,
        -0.8657296111285824,
        -1.550582840849894,
        0.10188878370001252,
        0.9588741508201731,
        -0.6364101024249459,
        -0.72137396058012,
        1.0136955502428,
        -0.0687744762729672,
        -0.5902329641053534,
        1.6882300798863403,
        0.775056765718492,
        -0.07981667280944837,
        -0.7778378578926007,
        -0.37217766388871243,
        0.43782399945877837,
        -0.620152984042301,
        -0.4126580888427951,
        1.9331223237960098,
        1.3550146009778161,
        -0.9858365315392514,
        -0.681282226023003,
        -1.6029955467308499,
        0.11779730919534144,
        0.21106229784437366,
        -2.0664219490293037,
        -0.1358538223411529,
        -0.30948581945441317,
        -0.7830364960054553,
        0.13459976729786785,
        0.7366932067734344,
        -0.7226783529015424,
        0.0029704674787211687,
        -0.5806631642103873,
        0.028262762533270466,
        0.19680056958019593,
        0.3610538970080286,
        0.29575088871600963,
        0.6199089823835137,
        1.2109915097516906,
        1.8622781334968588,
        0.30215760652561985,
        -1.908708247769161,
        -2.182437596289014,
        2.2935921152245538,
        -0.5152604161490697,
        -1.6088038103292388,
        1.2598629645412032,
        -0.25910759423924157,
        -1.0216877600177543,
        -0.0853500847579434,
        -1.4452766650754327,
        -0.6597620428220813,
        0.08229779389004602,
        -0.9000410766844802,
        -2.16765681831432,
        -1.0865147507211348,
        -0.05803854203109752,
        -1.6203318227648256,
        1.1183275172251657,
        0.3522237524755747,
        0.8288495622241282,
        -0.19782164901563384,
        -0.7624113187208191,
        -0.5774834822024392,
        0.6055445766047601,
        0.05303802569112676,
        0.4859622331480961,
        -1.2977348818829197,
        -0.44271034603980924,
        -1.0393179899117506,
        0.8210737891728975,
        -0.6059253386004756,
        -0.6428366116318507,
        -1.604075086326062,
        -0.12896046442366904,
        -1.763049625870411,
        1.7193824877785755,
        -0.948919093774022,
        -1.8463308785826387,
        -1.1587707451616742,
        -1.3499863075861045,
        0.010865052749036546,
        -1.3535650718189758,
        -0.12415067663594977,
        1.1756851648377171,
        0.39064474936428967,
        1.5465137050924656,
        2.7867630135616013,
        -0.029272278570946254,
        0.5006990042557495,
        -0.8856932687488197,
        -1.4157833041167303,
        0.56112219560134,
        -2.4160992401968007,
        -0.3342543821316655,
        -3.20164722570474,
        -1.4299784831765983,
        -1.3119018235544844,
        -2.45579101580889,
        -0.43318590206009333,
        -0.04660641497620357,
        1.3379005239328252,
        0.663556202247825,
        -1.4813838481526858,
        -0.11453305164698255,
        -0.5355233656503273,
        -2.0968474082128408,
        -0.6902038929369841,
        -3.197363313580481,
        0.49985556803614967,
        -0.8533914041176885,
        1.374967609317475,
        -1.235346219770479,
        0.9556441097257428,
        0.7273003137789166,
        -0.07103760685282219,
        -1.051496472082492,
        -0.20157816346634794,
        -0.45326962150465316,
        1.2388906949456446,
        0.2102996514438759,
        -1.1254480658911479,
        -1.636764034812959,
        -1.8581507020420083,
        -0.9559874542876633,
        -0.8770710841899881,
        -1.3040157358849436,
        2.03142539565219,
        1.1609329659629628,
        -2.582254328746567,
        1.04922151488286,
        0.47384577166463177,
        -0.9570741830678838,
        1.229557692404596,
        -1.1923789082611596,
        0.7051052040369302,
        -0.8869908131847295,
        -1.9097768363880452,
        1.6005902980323303,
        -0.5534628072284216,
        -2.6788276766892305,
        1.0472740688401656,
        -0.5918603207152221,
        0.06798196847163523,
        -0.10323473457348424,
        -0.9448101301938204,
        -0.3757457958591661,
        -1.7127009719483175,
        -2.91554242905118,
        -2.5517063167058476,
        -0.3771007366618305,
        -0.48692074190586954,
        -0.12262770482898806,
        -1.8386806292898144,
        -0.2883290642047236,
        -0.5587763487787549,
        0.6562633103246039,
        1.5022430871987975,
        0.2835258639192873,
        1.232170075580586,
        0.2397643026381072,
        2.3048896380413124,
        -1.4917929304744386,
        -1.7999919241778661,
        -1.0757321534754758,
        0.18237147295095957,
        -0.8559891620705633,
        -0.6963476986579181,
        -0.6833934984733714,
        -0.4680939011407869,
        -0.21613243167367105,
        -0.026691874594749258,
        -0.2913960408544213,
        -0.7275193940511918,
        -1.9123454991297155,
        -1.1055692498270415,
        -2.5488352960721516,
        0.6910324582290757,
        -0.7374024570734606,
        -1.6120343335013996,
        -0.8475731548201865,
        0.23792232692737936,
        -0.36661387265078976,
        -1.2495633086187636,
        -0.065504931969728,
        -0.42703150916864574,
        -0.7811329271062342,
        1.2195606533939507,
        -1.1485819951264602,
        0.8889757399444387,
        0.16856829478687443,
        1.1839542096259774,
        -0.6672220548226553,
        -0.223705783116867,
        0.21094203786306578,
        -0.2575159204215117,
        0.29922080113528826,
        0.2778607190823042,
        1.103207894631308,
        -0.5216494216509132,
        0.15492424320289547,
        0.44174818138840505,
        -0.6686066636452265,
        -2.089721506490053,
        -0.782282338623532,
        -0.8224206837229002,
        -2.164094036293521,
        -1.7116134917979522,
        -0.7070655117205231,
        -0.985804817994855,
        -0.9779144002758305,
        -0.9928490965262259,
        0.8702078224022911,
        -0.6344695390747309,
        -0.8192816681590172,
        -0.6671186047496093,
        1.840726495109443,
        0.2744685327819231,
        -0.2987443371598705,
        -2.5159077781416816,
        2.508852181148056,
        0.23788985405284385,
        2.019268880773368,
        0.7631124048680266,
        -0.44499404810966536,
        0.12749310508240239,
        -0.6656238324274502,
        -0.9246252280619855,
        0.03851012418182301,
        -0.18356286921894174,
        -0.23345194761176857,
        -1.6014357326362598,
        -0.3709393775661451,
        -0.7873920829262694,
        -1.3741448444936182,
        -1.4019798876115188,
        -0.18687023026076255,
        -0.11100004258523773,
        0.34118023361607736,
        0.5045207721650818,
        0.7353893678271637,
        0.34483335647133984,
        -0.9787047479942967,
        1.1977189783629987,
        0.12307205726355694,
        -1.6479825424444114,
        -0.3593641665953972,
        0.9378060093454104,
        -0.38972983305829245,
        2.5903776779580925,
        -1.55112621001905,
        -0.8028149360968685,
        0.9481594118900586,
        0.1441362797498033,
        -0.38970697831838014,
        1.3985042441922573,
        -0.27345659852157356,
        0.14083194044981262,
        1.1434596663119356,
        -0.028670960594308296,
        -1.2280603896376936,
        -1.0550893847801286,
        -0.4001431341759011,
        0.06358843847179632,
        1.5104133682657195,
        -1.6771115828886003,
        -1.418690436543439,
        -3.11074558337471,
        -2.3352187770379356,
        -0.6870411970478187,
        -1.1143676117385972,
        -1.0056147112707763,
        -0.1153261716629258,
        0.9887096749031979,
        1.1960825833675883,
        -1.0823530833776787,
        -0.13178209902757412,
        0.4110232908438171,
        -0.19677606073523546,
        -1.032024908443092,
        -0.35046893667302,
        0.31097791925484286,
        1.8212864058572622,
        -0.3561676007848686,
        0.6255211078135915,
        0.46793049980263984,
        0.4592608566429437,
        1.2988135150283828,
        0.3084066628576908,
        0.1546655300993251,
        0.15753584515931954,
        0.8884128059710006,
        0.9066055242726643,
        1.8436232195442508,
        0.5097038094345654,
        -2.000138146858105,
        -1.8552166248073376,
        -1.6879163415077956,
        -1.3930087973212433,
        -1.7116034439521748,
        -1.2812321609059563,
        0.8149145769946476,
        0.46682660357966016,
        0.11800650028210762,
        1.0806819982006548,
        -0.2590795607225647,
        0.9555672495002943,
        -1.0715763684047257,
        -1.1223624106811882,
        0.630903495698273,
        -1.1380299182687272,
        -0.8695293951903849,
        0.28561533586938354,
        -0.5969648820141439,
        -0.3342607763530157,
        -0.14445552366896117,
        -0.07623453844065688,
        0.5081600339468941,
        0.06825845094601267,
        -0.0827655506022223,
        -0.5025021494900943,
        -0.050787832486137795,
        0.45322343263862125,
        -1.3104915358191702,
        -0.004301692432838495,
        -0.675378535480057,
        -0.31531967832857055,
        0.08817062694354391,
        -0.3208240942412568,
        -1.6706712749803418,
        2.4348608706193366,
        -0.14729598496296845,
        -0.12996176170445609,
        -1.8122106659432151,
        -1.1843067751911067,
        0.18211251520137997,
        0.11725437786296942,
        -1.6120278390106213,
        0.5798859920729821,
        -0.48722406370180293,
        1.296110505067972,
        0.08272246172569508,
        1.5898804027939422,
        -0.2579670641631835,
        -0.09291726676526617,
        -0.8376498245209584,
        -0.127296840833864,
        0.016132131087069786,
        -0.6097731466827808,
        1.1875459656113014,
        0.1849037552244905,
        0.9876500590493086,
        -0.7987607114595497,
        -0.9887442669171239
      ],
      [
        1.6090269386935725,
        -0.8560182892127023,
        -1.031679553431748,
        2.0058796523755333,
        0.1722945607942939,
        -0.056675920206461554,
        -0.9907144961912594,
        0.28003383225369,
        0.2929110982676251,
        -0.42277048884267937,
        0.2228879124287321,
        0.4064176608057723,
        -0.34597414500342333,
        -0.9119034532323915,
        -0.7631940039560544,
        -0.5199012355536552,
        0.6195336128661402,
        1.5716844584460412,
        -0.44712369900673643,
        -1.5928892906398349,
        0.4117370349421659,
        -0.11929707849163201,
        1.3378682475495864,
        -0.6333029519832084,
        -0.18083518647974134,
        0.8789820569209695,
        -1.144742481902552,
        -1.0676092245157272,
        0.39210866753197693,
        -0.44389373394002074,
        -1.1048262012573657,
        -0.20425177458443167,
        0.593561721995741,
        1.3622097932030202,
        -0.3695759837829212,
        -0.08787336086046421,
        -1.9980395657176713,
        1.673484143896027,
        -0.5574372359140383,
        0.6879108439504047,
        -0.3811401772556729,
        -0.06982364559528297,
        -1.8937016674565017,
        -0.06862676312606647,
        0.1491825644815496,
        -1.3225246363251373,
        1.1283783932636153,
        0.8775744347620537,
        -1.2493502869767092,
        0.07936201906737486,
        -0.04694974834034092,
        -0.6428142111443835,
        -0.6386087317067071,
        0.3973641598418976,
        0.09306131113504262,
        0.1516783904020007,
        -0.989867197314707,
        0.38199835928850995,
        0.8638531178285334,
        1.2784836922287512,
        1.0329503188261528,
        -0.5133143805636252,
        -0.051365305404931526,
        -0.08798694990789489,
        0.05793931131977326,
        -0.3665624527070314,
        0.7691717157659831,
        -1.0974935627500164,
        1.1147540576202648,
        0.03547886190922035,
        -1.9053934633625471,
        1.4380010671682166,
        1.3800700958440528,
        -0.789813513810404,
        -0.4019638491528546,
        1.8559918954379673,
        -0.5754687681019216,
        0.5813898356596156,
        0.7977297477485719,
        1.9990751500489332,
        1.0424538350604318,
        -1.4959811859167629,
        0.3334358812380461,
        2.217174070202841,
        1.5054558991332883,
        -0.6803980966057648,
        -0.5051254175089799,
        0.7595274945544085,
        0.3198459622829414,
        0.7149952436056038,
        -1.0931393423910791,
        -0.08158841701539016,
        0.26461072371400146,
        1.1048866049565131,
        -0.9632797495235285,
        -0.08920667402216685,
        0.2340793672561326,
        0.5852188867476427,
        0.4703534668966093,
        0.5977051921859741,
        -0.6529444150519421,
        -0.09795493697450514,
        0.919824424629194,
        -0.4937717399612904,
        0.10096939745070256,
        -1.4039111396598132,
        -0.038114297711147195,
        0.451867857506897,
        0.6587224235638413,
        2.275763393068507,
        1.0714313693174664,
        -0.9592500132687594,
        0.5100260750628973,
        -1.4064701902911105,
        0.09114892407478102,
        -0.027611109755127334,
        -0.9183217258659289,
        0.5824066576093079,
        0.31889920875901,
        -0.6409126081343407,
        -0.32570110210170533,
        0.8161579696038641,
        -0.3480276598880449,
        0.18345531743607357,
        -1.8896422045886083,
        -1.2609418043809548,
        0.22670852622253684,
        0.2631878954636525,
        1.3380762043646155,
        0.463112745587637,
        0.42317302240520505,
        -0.22806077610247946,
        -1.4174904274278406,
        0.32088454720504345,
        1.1778653278367688,
        0.25226267688416193,
        -0.1252665321075936,
        0.13502122120206356,
        -0.8093522175794733,
        -1.1246251502377367,
        -1.4917237383929827,
        -1.767773777419236,
        -1.4383598638856598,
        0.29170035415409257,
        -0.14652188514707168,
        -1.535789582166292,
        -0.8986124145720366,
        0.39361218600149317,
        -0.08753606742346234,
        -2.240299882490208,
        -0.24866055275727006,
        -0.17974255454928256,
        0.8343907478290392,
        -0.12606170332735975,
        -0.49154819695924473,
        0.27477398378693924,
        -0.42947707642489014,
        -2.076945627901477,
        -0.047879821472116696,
        -0.07097762676825746,
        -0.08559741912430888,
        0.3997407781800098,
        -0.9299863962047559,
        -0.20581080197799237,
        1.1939631296581596,
        -0.5080028996347531,
        -0.06770260531152285,
        -0.9998728573202909,
        -0.05165984129825235,
        1.0547104610687277,
        1.2349300892211772,
        -1.310736745332711,
        -0.05517059347849374,
        -2.2465035420844592,
        -2.291817335098586,
        0.05571976859823919,
        -0.1284010456444049,
        0.8410128399061456,
        0.1589975917902329,
        -1.6352703590136592,
        0.31782115755474133,
        -0.6000706406898133,
        -1.8302094234555588,
        -0.6044730798793312,
        0.05943519113563838,
        0.5677270447146572,
        -0.09283659947614764,
        0.15593770230008108,
        -1.9425697669125472,
        -0.12405928814814875,
        0.892046049007626,
        -1.2785783216385553,
        -3.086497237671739,
        0.22036550256292475,
        -0.08078456268438583,
        -1.7664801449467302,
        -1.2148833887508754,
        0.48833223328174435,
        -0.017333838819516747,
        0.6434143751016635,
        -1.5778340939984727,
        0.281865313386925,
        -1.3833800561286667,
        0.7368861944061612,
        -0.40719584782557594,
        0.8469564504692243,
        -0.3335086081656246,
        -0.891253483447582,
        -0.5692948122478673,
        -0.39260801524784017,
        -0.12449956359231286,
        1.957445640704666,
        -0.9381893806164158,
        -0.10598993390615655,
        -0.8386742774477413,
        0.029082955800674253,
        -1.6495053347189768,
        -0.7035415089612386,
        -0.657407888460736,
        0.15180643106734487,
        -1.0391035363491805,
        0.2910737483889813,
        -0.9186627195983433,
        -2.1409984050680437,
        0.703885518350838,
        0.12760100170753408,
        -0.23593072036556054,
        -0.9950493566922488,
        -0.42885568792611095,
        1.8063785219213704,
        0.3884304110420372,
        1.0664540170800678,
        -0.32693312129049973,
        0.9760821024054072,
        -0.02853925174844938,
        0.10204977731872854,
        -0.5296374573414887,
        0.9588730769237176,
        -0.5158432977213664,
        -2.4399035405419722,
        -0.10028606462430163,
        0.8635687681461591,
        -0.5033934273844853,
        -0.6948611391314136,
        0.07718408947327782,
        -1.5521214920927415,
        0.9959750891480263,
        0.9006771700938232,
        -1.2943279935426497,
        -0.12930003387133812,
        -2.5123197722352817,
        -0.5089517541005912,
        -1.2540070378899417,
        0.9818652643838492,
        0.896990853544224,
        0.3323028772103723,
        -0.3800539475563247,
        0.1810728293339181,
        0.6091061236747171,
        1.1296057339971586,
        0.8849601307647523,
        -0.6479971387996798,
        0.6753257168112525,
        0.3349425866667788,
        -0.10448246461925646,
        -0.6596959168675246,
        -1.2679706811059546,
        0.47593881769391194,
        -0.9028065911134161,
        -1.292074819242087,
        -0.31528338749791884,
        0.42538040621729617,
        -0.7963348949115786,
        -0.4646020531574701,
        -0.06963100510129264,
        -1.439910884736498,
        1.1883813798945988,
        -0.409785129700983,
        1.4093245512761434,
        0.14363344120619287,
        -0.24854494087760406,
        1.3061779859524534,
        2.083544744027119,
        0.46669617267826413,
        1.610866887655049,
        -0.4638166788676025,
        -0.2608523802753256,
        -0.7193623642242457,
        0.01929197517098699,
        -0.517500849733382,
        1.1686991058095546,
        -0.5602327821922575,
        1.4080187523195562,
        2.5661098266050337,
        0.37970219895727836,
        0.18037169379825627,
        0.5680958461323737,
        -0.6533588714620653,
        0.0044635662260252285,
        -0.1526535064455462,
        1.3615349775703243,
        -0.7420438759698299,
        -1.2662408131717429,
        0.12108453474034597,
        -0.5660962501366134,
        -0.039060535630879724,
        -1.3284504460821156,
        -0.29565047068305195,
        -0.18235112250354002,
        -0.23424743224404496,
        -2.7429996243460404,
        0.01953757196206008,
        -2.128126201629405,
        0.22456161437993014,
        0.2675464292260486,
        0.504484856222067,
        -0.0765424449296435,
        1.9042205756754698,
        0.9590582440855993,
        -0.013666629864110188,
        0.500780622348572,
        -0.8081834090892103,
        1.7264006356493267,
        0.7238475700672864,
        1.1870846794631038,
        0.8106331671013423,
        0.05318031747831746,
        0.03408714891971509,
        0.8947674276872231,
        0.17629368399213358,
        -0.8085677119653778,
        0.07625776168177466,
        1.292986636698576,
        1.4472911141509217,
        0.13108572482212094,
        -0.13620525436842865,
        -1.2001875341999932,
        0.6773189681801011,
        -0.5270510368891831,
        -0.16178363728248044,
        -0.22567047562923545,
        0.9343167938852505,
        -0.8145297522008184,
        1.2366631822405727,
        0.056611563429781936,
        0.29636597656908026,
        -1.1072166277672475,
        1.0015420837148952,
        -0.24739083920037855,
        0.5752762558407699,
        1.0815111002402966,
        2.1267886858437834,
        0.4581994257876176,
        -0.025451399643737438,
        0.7126924799935925,
        -0.5735997604753508,
        1.1053208249563364,
        -0.8800691249730833,
        0.8268468823803996,
        0.06231692435227777,
        -0.40919056621431693,
        0.33191460034056036,
        0.29078162835328203,
        -0.29991503928694846,
        -1.22931200114021,
        0.972867733578187,
        1.1411070460346289,
        -0.011976750622545317,
        -2.1357787725058657,
        0.8628442902958504,
        -1.200191616913151,
        0.21038921061748994,
        -0.5676336101029684,
        0.7796668796884493,
        0.3834244953252155,
        -0.16643409431610512,
        -0.8963939845291693,
        1.9460359775892306,
        -1.1190512798374757,
        0.529992845089191,
        2.2579154799493364,
        1.3804968594547673,
        1.741324193703823,
        -1.2793190099083374,
        0.14442902311940792,
        1.183242700762464,
        0.919683003194742,
        -0.26797557046654547,
        0.783396251010774,
        -0.9178668761433825,
        0.2808114073599695,
        -0.2669297320542499,
        1.5973727027045095,
        -0.7561563584960804,
        1.0723361624215628,
        0.019477196615333307,
        0.5414821960417868,
        0.06401959500302744,
        0.4925622177095231,
        -0.7455486367808478,
        0.6837422881510631,
        0.021256017719558144,
        -0.16790125357662988,
        0.9381528646314267,
        1.8085185140124937,
        0.26086731302015254,
        0.815364644977668,
        0.46136001807240246,
        1.6306115525032543,
        3.203980294292673,
        -0.8142722103936192,
        -0.29482693284172734,
        -1.3098824496250465,
        -0.7614628215637386,
        -0.23949975883772792,
        1.046459049307102,
        0.40932325012756043,
        1.4914262022827172,
        -2.29876970920878,
        -0.49904430624648943,
        1.0254136120958532,
        0.9297657596449063,
        -0.0016043377664755598,
        -0.3444998228046118,
        -1.8204990704250283,
        -0.9523935737696123,
        -2.036967123889295,
        1.0141390525992062,
        -0.6912392860738159,
        -0.5709510225191018,
        1.1881148272260664,
        0.23459055158037026,
        0.6859997558510582,
        -1.1886855276132515,
        1.5359196972121008,
        0.8343617570288958,
        1.8686247764242645,
        1.274398431065402,
        -0.8545780404773976,
        -1.5310634115914008,
        -0.0827582861400963,
        -1.0936202304494076,
        -0.9196011859255626,
        -0.6472987357462134,
        -2.560957257536778,
        0.11184137206096868,
        -1.6675553115601391,
        -1.2487652684680144,
        2.0118926578343763,
        0.7009843353681685,
        0.18840736759242024,
        -2.5796192758592102,
        -1.304449496932389,
        -0.8503388956180036,
        0.9074809688469815,
        3.1195343882620885,
        1.4712388842467652,
        2.2506852988575834,
        0.45633826276649647,
        0.1458877558025299,
        0.702326980107023,
        0.582284884862001,
        0.6631224862767482,
        2.283491026553373,
        2.3628553547992994,
        -0.5499868319244375,
        -2.3014237317389825,
        -2.3962828188976086,
        -0.8358357440528855,
        -1.217002086873055,
        -2.1859747377883396,
        1.5482448833003748,
        0.16755794001177332,
        -0.4412724987390232,
        1.761463999209074,
        -0.34446807052267675,
        0.4574255030756995,
        -0.009565930022811772,
        -0.4302978369719768,
        -0.06039958762064032,
        -2.6571321156500805,
        -0.6484414448167912,
        -1.4843554585487695,
        1.7946636331797245,
        2.220198246153442,
        4.924503174035797,
        1.7614171450585838,
        1.0739102529354494,
        2.7445107829058677,
        2.73319004268154,
        3.5423010162074844,
        0.9126328431713935,
        0.17165023921907951,
        -2.0576272948235057,
        -0.22354764883871248,
        -0.03991569658791493,
        -0.25907266603044066,
        -0.8364344488096097,
        1.2036991128910146,
        -0.5027911504330607,
        -1.022188799512216,
        -1.0951652520240989,
        0.4225055025499797,
        0.577602035618479,
        1.5026658480182784,
        -0.0714545652693709,
        0.7675891783738293,
        0.7497774047411809,
        -2.2217561426383368,
        -1.8061003653698817,
        -0.1206686965635028,
        0.8918210355384569,
        2.8252089588903324,
        0.682452914777167,
        3.0301473770032175,
        3.69246776956373,
        0.7808090990692764,
        2.616553214165864,
        0.7205459610151483,
        0.8084636341879229,
        -0.2086447033670411,
        -0.12193636636467213,
        -2.4870167093718707,
        -0.5919611346002607,
        -0.267528252980037,
        -0.8234350996487528,
        -1.8202503213421288,
        -1.0838878822193516,
        -0.7950780427339101,
        0.26631653440673153,
        0.0535821694671592,
        0.46961095746992876,
        -0.9671532079399247,
        0.1749152565545967,
        1.1691492328122104,
        0.32869187605148864,
        -2.618973743475273,
        -1.210441108788532,
        0.9674994034989928,
        -0.7285569097369554,
        -0.2750295906644077,
        1.2707339800334307,
        -0.16833249125511326,
        1.4540553265639744,
        0.6853360963239078,
        0.6863719125267248,
        0.46277540709862236,
        -1.6515301282717811,
        -1.328138216952604,
        0.24413444707630447,
        -0.6338343015624297,
        0.05674609885803076,
        0.88523497544521,
        -1.0174307917789547,
        0.35395476560697586,
        1.49697194502771,
        -0.837159869647689,
        -0.0777163621202727,
        0.10048676379286753,
        -0.38778288912442965,
        0.4135777793214329,
        0.2637847448333404,
        0.05593548243934044,
        -0.7715945344744619,
        -0.6604819933879511,
        -2.2022073544452727,
        -0.29104104757378746,
        0.5475325871054102,
        1.2658792270619998,
        0.6373820702003559,
        -0.22480262226281528,
        0.5141670556686918,
        -1.251945092421945,
        -0.9303530684218203,
        -0.4999050716141496,
        -2.0305316605178607,
        -1.2392605104212826,
        -1.1046586820969135,
        1.5975019006009439,
        -1.0867106402445543,
        -1.0052060276198662,
        -0.20750069428331966,
        0.3317155214106996,
        0.2324652886051066,
        0.6768095316960807,
        -0.8952837011754461,
        -0.5528807860431966,
        0.9721853168014876,
        -0.29716046917807565,
        2.1502200616156375,
        0.08734387109858724,
        0.9691083298363324,
        0.6755796838173639,
        -0.6645911411294302,
        -0.6702777113449773,
        -0.5265456025186416,
        -1.5451651624786933,
        0.02089901325115845,
        -0.8115703338134653,
        -2.3950034663368722,
        -0.6561603606152664,
        -1.7678542929972108,
        -0.5996481239270861,
        -1.008118996074867,
        -0.10239635515096249,
        0.16313683972996332,
        -2.531868654391585,
        0.5665617791629195,
        0.3080365921476899,
        -0.716689067285281,
        -0.04123646655426656,
        1.0893450204015063,
        0.6357530567890401,
        -0.6389539068607047,
        0.8046944016640959,
        0.6119776079889879,
        1.0338101365945869,
        0.2784610050044138,
        0.6733365909301279,
        -1.314299069667642,
        -0.5544924349844575,
        0.09317212824042571,
        -1.5470946456039534,
        -1.9024135037338785,
        -0.8077717167377,
        -1.1077124564628718,
        -0.3963831048104238,
        -0.4473111010402024,
        -0.7853481672397896,
        -1.0016462157267607,
        -0.6578942654390302,
        -1.1422509769196856,
        -1.0211199165783333,
        -1.6137624705831448,
        0.10535022566939842,
        -0.9904546231421436,
        -0.5764426049876347,
        -0.6429421690811907,
        -0.2713797504004931,
        -0.7304317862218037,
        -0.21803298626597162,
        0.4266100216231936,
        -0.22789316311900606,
        0.6936644956242006,
        0.5403301182182201,
        -0.820229222643378,
        -0.866903654929535,
        -0.24771481992485203,
        -0.7014203197751779,
        0.5758438976331839,
        -0.09919274460576967,
        -1.082959610927001,
        -1.0046687076247998,
        -1.0480694501500987,
        0.19670066187345137,
        -0.5665926605090477,
        -0.4424550342669539,
        -0.30928250250015243,
        1.0574502690362881,
        -0.1174193234109185,
        1.1367572564881414,
        -1.3299370961212356,
        -1.2769532060672233,
        1.1629025785703477,
        0.22435678519720423,
        -0.3400170432843958,
        -0.4733539425002082,
        1.5443972927402574,
        -0.5041246026527203,
        -0.5080957964876013,
        -1.2833340094431431,
        1.2567955178822574,
        -0.37776109486983006,
        0.5314826154155324,
        1.1931522155512935,
        -0.6199031477293142,
        0.13300340827934895,
        -2.035703593802374,
        -0.13739404173959138,
        -1.2616346535047451,
        0.5693482524622179,
        -1.6192623320767796,
        -1.357226013281685,
        0.0965878659703184,
        -2.405922578640885,
        -0.8111136513579782,
        0.06006715792955501,
        0.7661600684506322,
        -1.2166855401030765,
        0.16118377657247807,
        -0.9330952646628696,
        1.669757178829333,
        0.17655707443050583,
        0.5776260186521048,
        -1.9210503700123898,
        -0.48353660335495263,
        0.00935530610413586,
        -1.0833005325624787,
        0.44741013559549514,
        2.4411060844497694,
        -0.43502549661238143,
        1.2269191068177938,
        0.32871032125665345,
        1.5217146148215652,
        0.8306412940910898,
        -0.5127884994481227,
        -0.2891517902446455,
        -0.2556916105542948,
        -0.046916568594431295,
        -1.9826452707775297,
        -1.2568881874057305,
        1.7813388455494907,
        -2.805171238119787,
        -0.6744054387340036,
        -0.9620808637315746,
        1.4264847133339695,
        -1.3453205209227699,
        0.45132418250016626,
        0.2630836891955902,
        0.4067829715364015,
        -0.4380004124486676,
        0.5895709260981292,
        -0.9811569726316508,
        0.8364848961920066,
        1.5093928549790994,
        -2.17010498862638,
        -0.7370108281612577,
        0.6218355081352829,
        -1.6497224743185033,
        -1.0154386031477276,
        1.175782705325302,
        -0.21995312088397195,
        0.8062417593610097,
        0.4182967633545475,
        -1.038874967329076,
        -1.2008207809255838,
        1.161544731785373,
        -0.6407672902767498,
        0.5206263282401467,
        0.19183175176862097,
        -0.24865248939415122,
        -0.7916883691968191,
        0.17125373148319428,
        -0.33730802815786526,
        -0.9418007623056095,
        0.7358005058098592,
        1.761775811624064,
        1.099185706287538,
        -0.39684636922634264,
        1.4000312457884874,
        1.1541198334124294,
        -1.3123670636639464,
        0.2492288171771142,
        0.24393609240284353,
        1.1267665830742484,
        -1.1280357741351261,
        0.8742214493729298,
        -0.6557491985149225,
        1.6836768587036395,
        -0.5773846897482381,
        0.1541897845232503,
        -0.4395233502847015,
        0.0076568604489878666,
        0.38760951430823215,
        -0.6235754577108853,
        -2.0433848723532613,
        -1.4102411690441803,
        -1.5640600311608952,
        -0.2982259647412662,
        1.6466939843227137,
        0.7304789506363684,
        -0.6040775853774616,
        -2.0918632894127125,
        -0.7431545463051423,
        -1.0939795237717396,
        -0.6337055286968901,
        -0.24877853664282631,
        -1.3173057115696556,
        -0.8264594854381058,
        0.41654799791909225,
        -0.5571004350978456,
        0.38097125554219197,
        -0.6318595335254733,
        1.1973622388434526
      ],
      [
        -0.44275273930413683,
        0.1852948896488588,
        -0.4267375614254988,
        1.1234781257139284,
        -2.1355338462611537,
        1.8756711392793188,
        -0.036836807764626354,
        0.03429499892990602,
        0.2440647088681161,
        -0.4912065608213753,
        -0.8084886085867545,
        0.26658448791282774,
        1.4367752971144658,
        -0.5378814408288143,
        -1.0744721738836036,
        -0.5597998980400511,
        -0.30731833620139587,
        1.159893412293632,
        -0.8161060493065461,
        0.5664621298453627,
        0.2951514430042114,
        -0.9894233608130536,
        -1.076678862257359,
        0.45954958951704306,
        0.5314013238220304,
        -0.20542173657144883,
        0.3337538501816688,
        -0.6606291010365621,
        0.08363078826538665,
        1.1899083058474393,
        -0.46213887401284404,
        -2.1662463615859293,
        1.6282896054287979,
        0.12637426012983946,
        -1.625413830760874,
        -0.29526393167588005,
        -0.2107757165959372,
        0.9313759632414271,
        0.5524425057196657,
        -0.5617289102236931,
        1.0194085471930656,
        -1.282471877214163,
        -0.656489839215417,
        0.8497246479459132,
        -0.7806667889062772,
        1.1650787163187322,
        -0.5791846289147567,
        0.2518572636120011,
        -1.0573590502540768,
        -0.22515780713867353,
        0.7230786044236255,
        1.5245183251247583,
        -0.4239341485844048,
        -0.9747700088538586,
        -0.7891780425117525,
        0.4293120688247536,
        -1.6247314003069302,
        -0.8201074714062067,
        -0.24056359788217455,
        -0.9932426943325287,
        0.5502167858700733,
        -0.0012763518226929275,
        0.4888427422136482,
        -2.894745485879059,
        0.7486877351128408,
        -1.1615709751805767,
        0.148074256934953,
        -0.1810713397675885,
        0.18561574947802803,
        0.874412373027052,
        0.031983996446545704,
        -0.7192098700822146,
        2.0137279975759403,
        -0.7605438896060513,
        0.15648057637358753,
        -0.6975686424770088,
        -0.7047627070323594,
        -0.9081229666433683,
        0.5447460595770137,
        -0.27988080257788595,
        1.2722377138157326,
        0.9248123484987817,
        -1.9221028983648671,
        0.5574985557882234,
        0.7161662877969668,
        -1.1618381498858457,
        0.4479083657984193,
        -0.16572344541524994,
        -0.457256127872279,
        -1.0572718393054394,
        0.38654291753762016,
        -0.20599141302387947,
        1.2365553850420585,
        -0.3059560070458405,
        -0.6533267239425437,
        -0.44612766245863883,
        -0.8607551335558273,
        0.661173354677985,
        3.0773413039640176,
        -0.04725516028415694,
        1.194411626062722,
        0.9996815261755227,
        0.30549502057021516,
        -1.3747825028793605,
        0.48901778956414554,
        0.04592467244768329,
        -2.0235438060220456,
        0.3350632379186205,
        1.1641432493177466,
        -1.0745750117960966,
        0.9001943165765723,
        0.619999865991379,
        -0.5508734066213157,
        -2.6772904817466774,
        1.9633576024149142,
        -0.0827239152068355,
        -1.3164806851990567,
        1.1503263930494254,
        -0.39907470865378813,
        1.096947145493425,
        0.5070964128668145,
        1.6542559880878005,
        1.0519494082608494,
        0.2113178941828441,
        -0.16869925376407455,
        1.5420705851758385,
        0.27066500242308034,
        -0.7940920543110257,
        1.6528728030722744,
        0.42140400124158445,
        -1.0234986982907464,
        0.8440299175783579,
        -0.21543579323345244,
        -1.3194446312020465,
        -0.21877767312997856,
        -0.7260862887335838,
        -0.5216351673808123,
        -0.018304012646639542,
        1.9738418995829736,
        -0.7516432346887714,
        0.0636872509083232,
        0.9367299444816871,
        0.2259526791062023,
        0.4923739110037767,
        -0.2339009304067057,
        -0.6082123917652519,
        0.7323614118828217,
        0.17598062533835457,
        -2.6539459608984015,
        -1.7177481304659823,
        -0.38343437549741927,
        -1.204532075257275,
        -0.6012595654132581,
        0.7959395191184888,
        1.2188083207072768,
        0.6748540096215527,
        1.3094050720985029,
        -1.0281642173312715,
        0.31756944164562967,
        -1.0705596895407494,
        -1.594752499282529,
        -0.34952115720027654,
        0.18001364033862421,
        -2.3923974221606237,
        0.18319667714856816,
        1.6571774329383133,
        -0.3485536077538054,
        0.12551380543965956,
        -0.1305144644978205,
        -0.1228867764116661,
        -0.6552646000916277,
        -0.5017919379256623,
        0.27633165143893196,
        -0.7183987578662311,
        0.3451110767662404,
        0.3723539504120074,
        -0.8909821501250549,
        -0.4845017260609031,
        -1.5196391760625196,
        -0.3357448911779341,
        -1.156938331313181,
        0.5744092061963255,
        0.3066097982687618,
        0.7509728592351602,
        0.6712328053003853,
        -0.13058635062563956,
        0.4210809893183239,
        -0.38779318150126696,
        0.03040675580267907,
        0.0011713258759876073,
        -1.4600471472165595,
        -1.2262741007665097,
        -1.5651735883416404,
        -1.1028158059451154,
        -1.3040871868625457,
        -0.42724658195094695,
        -1.1473362968075753,
        0.8604442658513549,
        0.8585132144436793,
        -0.7704643355788721,
        -1.638729187914388,
        0.6366320309955575,
        -0.5875903323636574,
        -0.16860828346572468,
        -1.8060270679717305,
        0.6052098547793773,
        -1.0311828829796164,
        -0.19277718871502958,
        0.6804787366464754,
        1.1111794595499993,
        0.7370952210748677,
        0.8149135497208084,
        -0.10995816300728364,
        -0.30997983511930854,
        0.6816104613251799,
        -1.4446066661426742,
        -1.0980379030886742,
        -1.4258894552745975,
        -0.758911182084734,
        0.022041999109625666,
        -2.464687874084874,
        -1.0976299810420542,
        -0.4308109783920628,
        0.3871500669079316,
        0.1764460986210396,
        1.2141729029852988,
        0.27752094320652576,
        0.03846385858422988,
        -0.22924569350685037,
        -0.42415810917483737,
        -1.4428773565094186,
        -0.1508608728786231,
        -1.7065611350582965,
        -0.8315705072120512,
        -0.09666566142037121,
        -0.2687472162779549,
        -1.3925018474408735,
        -1.7038713195197848,
        -1.600435153155882,
        1.1292180905147091,
        -0.6750241794917403,
        1.3173391104794083,
        0.045362898404815694,
        0.39553800750225965,
        -0.3647262949931642,
        0.3761297673766983,
        -1.3910135458081903,
        -1.0318660105379818,
        -0.324495715288779,
        -1.1010562622402578,
        -0.620979254069805,
        -0.5558127642687186,
        1.5716923651538084,
        -0.4339481616934493,
        -0.8009344856492168,
        0.8308264431837757,
        0.005887398829478665,
        -0.6663248668069804,
        1.2521427858194012,
        -2.2941652689018617,
        -0.48695280498987265,
        -0.34520663530035883,
        1.3998395436332127,
        -1.9819669518699834,
        0.18377882937388298,
        0.2590413139604013,
        1.8291017691599623,
        -0.6321877578468463,
        1.1896671500755072,
        -0.49108145625766864,
        -0.0025059618654228867,
        1.0497854743568684,
        -1.8343466954258822,
        -0.29456688239010337,
        0.40145273657948355,
        -0.0916916575723831,
        -1.6297451141407375,
        -2.058615993661829,
        -0.4259197136980092,
        0.535174040466743,
        -0.36108894410922326,
        1.3765214990280188,
        1.8075832998414982,
        -1.0207834761178065,
        -0.37810319109340834,
        0.24970113840514857,
        -0.33200781288920506,
        -1.1238647930481431,
        1.0069659783220213,
        -0.24994436355034108,
        -0.42032300096201203,
        0.5938956865946216,
        0.7277229407932957,
        -0.013213241388905356,
        -0.7195282514604325,
        -1.4534895752036452,
        -0.7988091536176614,
        -1.2526867458291517,
        0.47570046056036114,
        0.5773427719738353,
        0.8793129378052456,
        0.24273134342613503,
        0.27421429464648844,
        0.2894240992704999,
        -0.31231286213955933,
        -2.4209774103312123,
        0.10065375465996401,
        1.3900655991599973,
